-2.827015016345802434e-01
-2.997995103738923528e-01
2.831763157728076422e-02
1.741004757726296592e-01
-2.081735630003292772e-02
-4.630389043758812578e-02
3.130091658145953137e-02
1.053348720648386028e-01
3.293057378316064515e-02
-6.668331770135703385e-02
8.988663082596784482e-03
-9.903310122225917125e-03
-1.385763987573934708e-01
2.680749560974288737e-01
5.728778311294836778e-02
3.571661443988189966e-01
2.231914844700936540e-01
1.954579586604276997e-01
4.661165508479880870e-02
-1.844015293864990912e-02
-1.656623547969049148e-01
-1.134123251167968027e-01
-1.451097612702869355e-01
-4.270291858909382177e-02
1.859628493073870684e-03
2.352533701458841275e-01
-1.992059474588554757e-02
8.283892735083378533e-02
3.602933537231369637e-02
-4.704327941176480316e-02
3.256449662530318950e-02
3.118256844146010121e-01
1.469171516224910580e-02
1.002143292863869883e-01
5.326960631863366692e-03
4.386432002292371679e-02
3.359534973180309247e-01
1.894687403825355554e-01
2.983527281975436041e-01
7.588368562554216601e-02
-4.898113731774929314e-02
-3.293345561907214947e-01
6.292460325922788478e-03
-8.875106662613850561e-02
1.566258598985605099e-01
-1.707701232452913387e-01
-2.312849371409031463e-02
-6.667528983485998539e-02
-8.607669112440564929e-02
-1.948216820911683467e-01
-1.302267282513211166e-01
-2.489094888986473006e-02
-4.042447750198205347e-01
-3.341653270507742302e-01
2.417336953683827117e-01
1.090771148998787576e-01
6.093309367440292307e-02
-1.007465182040532120e-01
5.807171137388967425e-02
6.663186667948625685e-02
4.217136699088445684e-01
-2.293806077926180687e-01
-3.755787610534901122e-02
1.086572002965811509e-02
-3.185732404982622584e-02
-8.178486598959831821e-03
-2.515775970252565052e-02
-2.087912544558710379e-02
2.870584145316283919e-01
-6.546359321361583383e-02
-3.283642850502486998e-02
-3.528150781653953127e-01
-6.680543332838967396e-02
-1.656897263515796914e-01
4.746989174430463893e-02
-1.408445337380702100e-01
5.867246200231760432e-03
-2.349076030192320530e-01
-2.815877269569277974e-01
-3.424660171912686235e-01
-2.173766554927067662e-01
3.024285752075211997e-01
-1.687729794172022346e-01
7.063499622631382036e-02
2.133191326282380951e-01
-5.699277651508796033e-02
-7.321456476513572842e-02
-3.640400624747599373e-02
1.192713015949305594e-01
-2.326287120681943821e-01
5.226994609066081682e-02
-3.357555802949281631e-02
-3.474938944046149780e-01
1.770841535077971873e-01
5.324153461674070026e-02
5.972876050178097668e-02
-2.127974412976015861e-01
1.292579273406724849e-01
-5.854786837226110680e-02
2.026819822293915718e-01
-8.664627316178862004e-02
-1.016162795027385213e-01
-4.967582023331622992e-02
1.134384552780010880e-01
-1.962592864089505659e-02
5.742941179768815824e-02
-5.389257413032214929e-04
1.883953116075808704e-02
1.000052074906398678e-02
-1.008443908127795996e-01
6.974982061996322369e-02
-4.396639884567671991e-02
-8.401730613933768022e-02
7.399850722217202192e-02
5.515622938356656846e-02
1.389188101209888893e-01
1.800945667939597983e-01
9.381247003908829707e-02
6.649439018039599025e-02
4.163395735617556048e-02
-1.504762223148407574e-01
-6.358036141082427928e-02
-7.961838909487349569e-02
-7.184500065206395059e-02
-2.187383461872968726e-02
7.678967469757920494e-02
6.157532476343344219e-02
3.768910723817129466e-02
2.941696697962788848e-02
-2.508596482145984685e-02
-4.524054734347880691e-02
1.732320893036869147e-01
-1.424798130039263769e-02
6.941442583324169968e-02
3.118426059987224747e-02
3.184282225759164919e-02
1.651844866429156289e-01
1.481599450947373997e-02
9.079819981202738588e-02
5.197298414910514475e-02
-4.908607266901945237e-02
-1.240628742016674363e-01
-6.266665178395368352e-02
4.496332148628796183e-02
5.424917154816462361e-02
-9.422332414140165147e-02
-9.215350229846864388e-03
-5.348638433269030379e-02
-6.404011294576475444e-02
-6.277276643290259639e-02
-3.823416249748756886e-03
-1.980404224066653618e-02
-2.044856860842269308e-01
-6.474441140286618657e-02
1.093630789689566257e-01
-1.679447080155570954e-02
7.020369676371758516e-02
-1.454484507781199018e-02
3.508022216678247790e-02
2.161720237122332147e-02
1.937710631658002558e-01
-6.980097767594056757e-02
-4.983360811685644959e-02
-2.859258729862628606e-02
7.449951098897632067e-03
-8.543189748292092864e-03
-7.250505283967940973e-02
-5.065185701393785239e-02
1.553547956388240114e-01
-2.129085673754921304e-02
-6.283856373230807535e-02
-1.597358016063874786e-01
-1.210887759803485134e-02
-4.043308414189310945e-02
2.120945172464447706e-02
-5.749404409337122851e-02
7.664064993577950069e-02
-1.860547370383666688e-01
-7.654655337803502324e-02
-1.656720390135671961e-01
-5.249226680439020992e-02
1.449617554158867672e-01
-1.077603637875395870e-01
-1.097686135728713486e-02
9.906094976011294018e-02
-2.384545677445077533e-02
-9.400147184154447610e-02
-2.404294443696514127e-02
6.517712175561740651e-02
-1.488769736071206828e-01
4.523496793444118508e-02
3.382748271902396957e-03
-1.679683102022311025e-01
3.390412967937644906e-02
-5.118602703819014228e-03
3.710342110530717025e-02
-1.335845837258967106e-01
5.840786940172654901e-02
-8.282313862608592370e-02
1.147394354851548337e-01
-1.156123687226147737e-02
-1.293383282255358528e-02
-8.544254662506092779e-03
5.229806501424412446e-03
2.426701632536651387e-03
-3.014954462508624700e-02
-1.712000379639832138e-03
-1.828034154805903530e-04
4.011461349260497279e-04
-9.105164543048396841e-03
-3.294212588660846118e-03
4.025900774145633673e-03
5.407472045749716488e-03
1.075888039415235156e-02
-7.328945557504582334e-03
1.738510772536694046e-02
9.983006420278904124e-04
7.356918378954493271e-03
6.361803900480750805e-03
-8.183824588197732841e-03
3.428201716060271919e-03
1.077146046835327116e-02
-8.928020060605579636e-03
7.318463888695756620e-03
-3.688487677058056597e-03
7.916889442464478122e-03
-1.733743629630500344e-03
2.943424573349032788e-03
1.781852667184940760e-03
1.839123732568050075e-03
5.394531677726409000e-03
6.851732453888798209e-03
-8.026062640637775941e-03
-5.935147549112444743e-03
-9.528776719617283167e-04
-3.195645312854321980e-04
2.608638767621808494e-03
3.666734109099269168e-03
2.158273778772385604e-02
-7.682271663812827688e-03
2.018330101775429181e-02
-4.913378301190144369e-03
7.930755270009038835e-03
-1.870742865647709308e-02
-9.299601388914422589e-03
5.024415195944704864e-04
-1.057294430120174836e-02
1.202743673409934974e-02
4.312056139758268201e-03
2.344565985510221450e-03
-2.281897883507351746e-02
-3.947949576980120008e-03
-2.392662097477949747e-04
-2.513299473939430845e-02
1.708567434503544674e-02
1.550867995201469542e-02
-2.951797032368180763e-04
-7.088492615863400265e-03
-8.530556974079759464e-03
2.079244970789337430e-03
1.636680089027037904e-02
-4.201814812465851437e-03
6.920803214120857874e-03
2.029545947109376389e-03
-5.754094048976776156e-03
2.938344737960284312e-03
1.127069506063185442e-02
-9.651062391614534386e-03
-9.911002413542948069e-04
-1.011017688314742695e-02
1.983033707561259254e-02
-2.037565717104292042e-03
3.964265615384324898e-03
-4.073198372817744654e-03
-5.936329377448455909e-03
-5.048978063486179828e-03
-2.690090733072217095e-03
1.042059007876150294e-02
-1.369182880451736209e-02
-1.542200790003297323e-02
-5.772097823316421454e-03
1.795718770491788123e-04
1.099870888509311235e-03
9.661199587528817787e-03
1.016675058883345639e-02
-1.129044466926376611e-02
4.308361875040138574e-03
5.952387071129546653e-03
-7.632915632570111408e-03
1.157409617177990006e-03
-7.747023396827149716e-03
-7.010296108319144515e-03
-8.803006996748366508e-03
1.210758765262355714e-02
8.332340342868648983e-03
-2.592306814897378693e-03
3.392900056348169529e-04
9.019320650467970227e-03
1.257335207919662440e-02
-8.164298978361255680e-04
-6.272359469662477927e-02
-1.889589245029942846e-03
1.722629299615505497e-02
-1.386599452684811606e-01
1.346597117624313278e-01
-1.740316960512180711e-01
-3.959030501420712084e-02
2.989614548418684584e-02
7.959312369713437973e-02
6.181043825863677572e-03
-6.605496462300265714e-02
4.203200430359502193e-02
2.712274741845630346e-02
1.162772920962595741e-01
-6.347737149935117618e-02
8.094651763151664015e-02
-1.011920170685357973e-01
-3.032444542634625193e-02
-7.714204644612324135e-02
-1.671098038542845610e-01
9.737405585139671804e-02
3.817279463664415701e-02
8.303041465764393614e-02
1.797393728929291834e-01
-2.171319988733777864e-02
6.545789592089347464e-02
-8.730550230008560231e-02
1.800799642500421072e-02
-9.673883417444693877e-02
4.385331090689940231e-02
8.416491626966299266e-02
-6.842160951445287742e-02
6.758337992479473977e-02
-8.621287125211230321e-03
-1.822711238559418523e-02
-1.307870276176234803e-01
-7.236796646855668536e-02
4.615553442104290000e-02
1.144879073034989897e-01
4.232285923098620672e-03
1.063095348745268232e-01
-1.426206412636519053e-02
1.018356484379681903e-01
-1.714815924718187390e-01
-3.214391423416371185e-02
7.187773218109565210e-02
-1.854012359450404532e-02
6.633847468036907502e-02
9.038162240283376114e-02
-1.762406006214332216e-02
-1.512533974728451081e-01
-3.435572441591543125e-02
3.504696981723590121e-02
-6.628620825675159145e-02
5.049604085743365778e-02
1.551617826549454016e-01
-7.578120619511624634e-02
-1.001376085391746384e-01
-7.400966784577288349e-02
1.443776225001079938e-01
3.445458986817660080e-02
-2.641380015173792374e-03
1.145757001302759315e-01
1.100247203288490759e-02
-1.354448073386542439e-02
-6.849013885809863977e-02
1.234580963287592592e-01
-2.851175565819451946e-02
-1.044937022094256790e-01
-9.397495581083882554e-02
8.320870087523436764e-02
4.943979167948742148e-02
-2.407372071674824046e-02
-1.375785990835761904e-02
-4.098315309403968709e-02
2.039702541613960113e-02
-4.656866014824970895e-02
1.378821266732833672e-01
-8.636161675063919185e-02
-1.064476971733164523e-01
-7.566203855347207463e-02
-3.621406831404146848e-02
8.909341569994180809e-02
1.765014692430061927e-01
-4.799654373670055041e-02
-2.503047015772558864e-02
1.203470486173154608e-01
2.277916991671294356e-02
-6.639109780497623459e-02
1.090491329743068921e-01
-3.386704926902766449e-02
5.783144245785992732e-02
3.226034814892675406e-02
1.442142533539694238e-01
9.523837957547340305e-02
1.158479617378350111e-02
7.004008503382154471e-02
9.076978403253915806e-02
2.244239887819257095e-01
-3.835934612618319139e-02
-1.151929141875943259e-02
8.063819481634448968e-04
-1.197928918116322565e-02
1.129030440078039924e-04
9.332692443483156519e-03
-2.706030226458149869e-03
-4.588598311758292948e-03
-5.396212317181578802e-03
1.089852844253972296e-02
-1.004323455688077571e-02
-6.826276044742641061e-03
2.321254142928954722e-03
8.308621993208831560e-03
1.130722728368901975e-02
-2.016425458138706300e-03
7.587198752494206562e-03
2.033550668793507408e-03
5.250015493733400755e-03
-3.886180304603148623e-03
-4.587360190966044589e-03
-4.184583601868090055e-04
3.861019090645755481e-03
-4.175258814848513585e-03
9.261234929096412785e-03
-1.123185291376332592e-02
7.854164651432965147e-03
5.566454733831250300e-03
1.070080833108506303e-02
-3.592224767500002119e-03
-4.629074761792773343e-03
1.822389186207190939e-03
9.383237329527983894e-03
9.841571805274361429e-03
-2.405993610558265772e-03
1.002532409004170365e-03
-4.314207666518077300e-03
-2.755105973300481324e-03
4.464028097958908439e-03
1.780542700463848271e-02
-1.879242731739878911e-03
4.359154971360077943e-03
-5.666210021375864270e-03
-2.854374147773939586e-03
-1.060626842310528894e-02
5.313204613565465119e-03
4.693362892826401754e-03
9.209862753832549417e-03
4.031902740945409597e-03
4.352167434211690143e-04
-1.091820098674224290e-02
-8.611796172247833739e-03
-2.170161264602028968e-03
-7.472663205985934087e-03
3.104668739655861180e-04
6.315173684892833733e-03
1.014390692529149561e-02
-4.295884515036861931e-03
-1.055514103146954624e-02
-5.957317376422100255e-03
6.958931278742058746e-03
1.029588385676259189e-02
4.180520787151255515e-05
5.201636985822843430e-03
2.301278871684079002e-03
3.358395351587795900e-03
-7.417443728769206567e-03
3.564918232017687000e-03
-3.915699676878350161e-03
-7.497910676236663879e-03
-3.075659081055543038e-03
-1.269824264421401134e-03
4.295592319224857472e-03
-1.108521089832912622e-02
4.313617962175607910e-03
-1.371843163426186406e-03
1.227374782235073243e-02
-1.372962003913791524e-03
-1.272390651775626288e-03
-6.101168618661823289e-04
-1.989273543335982539e-02
-2.972852848983439759e-03
8.003536786165903541e-03
-2.025368635089508373e-03
1.463800167485577661e-02
1.070754817682282277e-03
9.867599734958980729e-04
-1.043011960457668414e-03
-3.909318982084320285e-03
6.523170497366963597e-03
3.475991336792622760e-03
8.704154101573911145e-03
1.000829108014987534e-02
-7.309370759408355574e-03
5.041204327532719347e-03
7.153375086207084017e-03
2.733042357593901302e-03
-1.780567368485680868e-04
-2.535642697648786675e-03
2.027646163067375537e-02
1.090057533440021674e-02
-1.145136443561226569e-01
-1.209707616857398915e-01
-9.820678982210885588e-02
8.568842246980624966e-02
-9.737972995976408239e-03
-1.909262740428013111e-02
-1.127513708158005452e-02
6.396263212595142134e-02
-2.492056057977513894e-02
-2.338776442697333702e-02
1.162045886517083516e-04
-3.183901017681738110e-02
-3.022040014128704946e-02
1.069547182312881456e-01
-1.979901087855489433e-02
1.146267348176061157e-01
8.520118102353725631e-02
8.013705557240204114e-02
2.564130459749762100e-02
-3.906998855053185442e-03
-7.752386448570330879e-02
6.970767461883966946e-03
-3.486052983040643927e-02
-2.067312715960151551e-02
4.579651906091902259e-04
5.032607611355451732e-02
4.766399970630644245e-02
5.825707782364861892e-02
2.103131255384057402e-02
-1.383856694408411130e-02
2.444320743142616367e-02
1.400765562696221489e-01
3.040879450931480849e-02
2.137987480180596547e-02
7.225593272818618684e-02
4.658589300300888109e-02
1.462711306458727434e-01
5.313367636645250497e-02
1.051403255474654685e-01
4.757961662864348962e-02
-1.105423660222384268e-03
-1.236160029329801263e-01
-4.853267503068670746e-02
1.368119552085381337e-02
6.285126546421987426e-02
-9.267193118026006982e-02
-2.882259642634418632e-03
6.649234425234426841e-04
-3.980875922563954783e-02
-9.137337505713750974e-02
-6.514154854181274101e-02
1.142253944103428093e-02
-1.167717113123155487e-01
-1.485564734189622205e-01
1.250652058127950106e-01
3.456615480994131712e-02
5.857345041531818869e-02
-6.727554276671236788e-02
3.825844396671320043e-03
2.402616613942756482e-02
1.780411699102592005e-01
-1.166994573765376131e-01
-2.124312104333226855e-02
-2.851795905147781231e-03
-1.970592361560511915e-02
-6.583768499446613666e-03
-1.239194871409485948e-02
-3.230740187631548493e-02
9.468583261107352267e-02
-6.636074080159704881e-03
1.379783952582193385e-02
-1.004081057146558598e-01
-4.274343023385576007e-02
-4.317928252878657641e-02
1.124523600062048156e-02
-1.775969498204649916e-02
3.848223170934179579e-03
-7.582808499779145062e-02
-1.103102090564517246e-01
-1.780495155855561229e-01
-5.780605897844373620e-02
1.336452363454700976e-01
-5.601536545789662785e-02
2.172518837204242756e-02
6.342368355703791039e-02
-1.047257644942301827e-03
-5.383502730152370241e-02
6.809099920648609312e-03
7.187688315213359991e-02
-9.471259288596109438e-02
4.258997359419033901e-02
3.518896600226820159e-02
-8.267510975866773637e-02
7.718219327510684492e-03
4.863269947744112975e-02
3.893075145488553244e-03
-6.569315571576610224e-02
8.991587769984710210e-03
2.270915822559704811e-02
5.806406825722454368e-02
-1.067552556311066742e-02
-7.700296013904914250e-03
-5.275478050212464506e-03
-2.881190798448327907e-03
-3.648202111257317290e-03
-3.990165291103671928e-03
-3.996539469453034080e-03
-4.464361086918685272e-04
1.710606647086460085e-03
2.164741479928004864e-03
-6.083172586238484378e-03
4.201536804898134761e-03
3.136816641952506189e-04
-1.663033794149830491e-03
5.195131392077214846e-03
1.410335230184257826e-02
-9.710316689049578115e-04
-1.245683218631572515e-04
3.142339445748691500e-03
2.097732700665502336e-03
-7.360779305303570205e-03
-6.316625192885338969e-03
-4.123262510619646326e-03
1.580663799772518557e-03
2.877909153940915897e-04
4.445416417254005430e-03
-1.523971383368467230e-03
2.360742769359869524e-03
-3.894669706696803849e-03
-4.572316965834956164e-03
5.947717712393166094e-03
1.186299350162980590e-02
-2.818249506081775329e-04
8.225407594421130057e-04
-6.183224168764496487e-03
-2.610659595502157551e-03
7.102255608330306294e-03
3.411931187628008608e-04
2.269700017295694754e-03
3.209192456654268687e-03
-4.801000297531506956e-03
-8.206110066211363616e-03
-3.294610545715169134e-03
-6.031880140489847934e-03
-2.655868763812822483e-03
2.173952445497884614e-04
2.365621239571014545e-03
1.928238565568815175e-03
2.201119288012122911e-03
-3.357826516834720373e-03
-1.072495955830308524e-02
-6.907222495738166417e-04
-6.576412592235256725e-03
-4.469116556953725734e-03
5.406426777554313237e-03
-9.010733246814111620e-04
-3.649415933598593870e-03
-5.600632319383312685e-03
2.564933476551191447e-03
5.454496661294022664e-03
6.923469626520523633e-03
2.188887389828658107e-03
6.847981221010946687e-04
-2.226981310971672297e-03
-7.885334833333349294e-03
-5.408348518502549378e-03
-2.325385882480167192e-03
-7.134740998583641650e-03
-1.788234075685096519e-03
-6.101971667411990562e-03
-3.044760387041016945e-03
-2.447318147927017400e-03
-6.742936120752952497e-03
-1.956740114206041541e-03
-1.019667151643866010e-03
5.407709837700553149e-03
-4.366017837386640746e-03
-4.141684030671935121e-03
1.351397733032011451e-03
-3.480831066769002856e-03
1.113085668195869064e-03
1.823034735989103065e-03
-6.627279332326806507e-03
6.377321999917250593e-03
1.015746651197803156e-02
-2.429559084019170499e-03
-3.499540103364985610e-04
-6.304038780967468301e-03
1.868732348985388233e-03
-7.078993763115070705e-03
-1.700279312279025625e-03
1.463271780364714129e-04
-5.350963121771721426e-03
6.469912914525360144e-04
-1.817081449055189639e-03
2.515441374148236469e-03
-5.346038880340731742e-03
2.620452248076762369e-03
-3.738540412076043259e-03
4.994897757120441741e-03
-1.416234222439629320e-01
-1.281727006587768114e-01
-2.894977196606190670e-02
-1.381860356307646268e-02
6.736517997575321159e-02
-1.286011995433924693e-01
1.167427622334051007e-02
3.512430529144326685e-02
6.223612393814356714e-02
-2.526557311472858725e-02
-5.121207819769414693e-02
-3.571941537529683876e-03
-8.764600310223701757e-03
1.735120741711402015e-01
-3.217258940956380098e-02
1.928484663246700370e-01
5.693644465705611363e-02
9.546400630731435855e-02
-3.777758975556513160e-02
-9.801778116057675849e-02
-1.479460729516389808e-02
-1.312890583960166051e-02
-3.046332581558279518e-02
8.681890457237820269e-02
-1.924872914080684103e-02
1.388670641782915882e-01
-2.459154153328796735e-02
6.285271157195672365e-02
-2.978193220515255868e-02
-4.370429496468577514e-03
6.408109535905924525e-02
1.007813628361199643e-01
3.873160329908609256e-02
1.971628007003074778e-02
1.982336811468992863e-02
-4.222919870451851548e-02
9.108392114929213246e-02
1.049737706963153189e-01
2.127110258610766802e-01
1.134041702150097308e-02
8.791562407353205322e-02
-1.743489780395819644e-01
4.511075309909687997e-02
-1.584877600961058508e-01
3.472719769485917152e-02
-3.849681808931879751e-02
-1.769905403413136666e-02
6.610692665105346276e-03
8.508119534035631440e-03
-7.770104133479271979e-02
-1.655443790377981172e-01
-2.506284022854714591e-02
-1.365005843304177569e-01
-1.802537999347166853e-01
1.531788984335482329e-01
1.412026635840087641e-01
-1.893278516257296436e-03
-1.036136750044995419e-01
3.827378109569133050e-03
1.061929450270373276e-01
1.973859256407347607e-01
-9.442381287890398711e-02
3.846204075427027413e-02
2.776438616501037890e-02
-5.631001811832844067e-02
-2.878569140351546971e-02
8.080141660187335761e-02
-5.388325783358871579e-02
3.982624795341933865e-02
-8.934286586033669819e-02
6.109677834468581897e-02
-9.786076817339250944e-02
-5.025803461524085136e-02
-9.088552058077389861e-02
-5.906092915558438898e-03
-3.286562934946648390e-02
-2.725376741823543753e-02
-7.134509622198494799e-03
-1.563548289670259328e-01
-2.101282378628360203e-01
-1.282257960230229199e-01
9.154992637522391119e-02
-2.715272688856093172e-02
1.416128558778639301e-01
5.941698596776599783e-02
-4.238249708824546463e-02
5.670352435181203604e-02
-3.390236046198212821e-03
1.122117750942889375e-02
-4.069254294487854862e-02
4.049239541709415136e-02
2.101153933530746851e-02
-1.390686623293089785e-01
1.599900014216668609e-01
7.529880489854941239e-02
4.066736170340708167e-02
-4.306034106572190212e-02
9.344786800579200914e-02
1.096515321967574258e-01
7.992405430276809664e-02
-1.116944864924055217e-02
-1.678034318192788560e-02
5.735111621693141613e-03
4.408243750107925267e-04
5.949451370195695844e-03
-6.408130895702218721e-03
5.923007008132623145e-03
1.270414763689918514e-02
2.769865907551790057e-03
-1.900332013903018079e-03
1.153338268095589628e-03
6.774892535229211886e-03
-7.533600358222399332e-03
2.030523223726485998e-02
4.594962308870003537e-03
1.562440306358296900e-02
1.920456546357616773e-03
4.117062016150369562e-03
-1.206262082954033879e-02
-9.412755037001245897e-03
5.949550904383271027e-03
-1.095870219612731303e-02
-3.311644965630647797e-03
6.082286843722526856e-03
3.338558831426210663e-05
1.688641363421507571e-02
-6.102186302647420041e-03
8.735267288410821169e-04
1.939621121842185093e-03
-7.901598307764802920e-04
5.674319017758314501e-03
6.301422755845732457e-03
9.308849809445444382e-04
-2.339244698159975450e-03
-2.171568697916196646e-03
-5.869153536746573620e-03
1.462774572739300449e-02
1.038955610016451155e-02
1.568822907925054855e-02
7.297526702618295502e-03
-3.312738108802421033e-03
-1.095656414597191534e-02
4.361415193200587903e-03
-7.599821068775317566e-03
1.900174647885361163e-03
-4.593848234532757133e-03
-3.801084478181953382e-03
7.453371333898530654e-03
1.320807887166729200e-03
-8.162914166991915368e-03
-1.751421449489672794e-02
1.464481208875304755e-03
-1.691998524950239988e-02
-1.189007672094869253e-02
4.799797707366704018e-03
7.324454675720190079e-03
-6.895524506616033077e-03
-8.678618248884184885e-03
2.043516780148022134e-03
2.942537587725243750e-03
1.890641768946000820e-02
-9.040576841262268001e-03
2.258203993755174797e-03
2.959564616192296004e-03
-3.855091463071747340e-03
-1.565189036112528799e-03
2.099208211502510794e-03
-3.164781010550329031e-03
9.001272517285456923e-03
-5.463580852089009593e-04
1.325981578765810832e-03
-1.442269762925337678e-02
-2.306638925278246561e-03
-8.686706448664290384e-03
-5.118904986119163399e-03
-7.651994751523138495e-03
-1.380144382368001443e-03
2.156236709779314059e-03
-1.983929823780536048e-02
-1.737398266425578541e-02
-1.558961412646468064e-02
1.098616423327009560e-02
-8.193266915023702038e-03
5.530625333645455832e-03
8.727180279492659232e-03
-7.604125799852726360e-03
7.220289050540703961e-03
-5.856918809943897561e-03
-4.106623625037415272e-03
-5.867061307368283407e-03
3.885850221814250282e-03
5.863322843102325606e-03
-3.352909586117619987e-03
1.185579535088785753e-02
8.072914940640565917e-03
-1.420793521170051615e-03
-4.328182916008896201e-03
1.037493293825760346e-02
2.382504382846093501e-03
-5.795071664266111328e-05
-7.058465414917108882e-02
-4.690042215993022595e-02
-3.322155457026495368e-02
-1.492691244302894217e-02
4.541030773541726573e-02
-8.420444991739546581e-02
-1.136507082250632879e-03
8.878064338958900625e-03
3.164544479572341251e-02
-1.448219702362896037e-02
-2.383609482707896993e-02
-6.404722462317538481e-04
1.098364045718579901e-02
7.377192436279694787e-02
-3.197965669602425426e-02
9.055302446316246257e-02
1.430962567817711632e-02
3.403641643581903353e-02
-1.605287588619377925e-02
-6.643397728344323239e-02
2.594739544745765410e-03
1.158494630070091257e-02
4.949909423147383185e-03
6.510366674686783595e-02
-1.884125075384795317e-02
5.491046585981028405e-02
-1.832751342994170737e-02
1.660997845695921793e-02
-1.029379790980578316e-02
-2.182665745620518535e-04
3.484347545958546566e-02
4.112360994452327750e-02
1.695570526435974390e-02
-3.060869634838864987e-03
8.535292984458571833e-03
-4.205796259163564060e-02
2.498393959240549980e-02
4.615245015632458980e-02
8.994692339033059925e-02
2.405971020578136915e-02
5.689862375288341767e-02
-6.443085291688316341e-02
2.132778331314052686e-02
-7.651760449334638059e-02
1.918561257697644308e-03
-2.826874463792684866e-02
-1.203905466677056627e-02
2.344099038440200858e-02
1.147642923692804122e-02
-2.953124899193096398e-02
-9.290092236565959671e-02
-1.526342193380813249e-02
-4.926175373236762328e-02
-8.192468128013651041e-02
8.602314662127237554e-02
7.750017949828789943e-02
-1.483512399877497286e-02
-6.888560015608660714e-02
-2.712191874350104032e-02
7.248038325450298358e-02
8.544420988157018504e-02
-3.910259464990389205e-02
3.072174096031181009e-02
1.071997932997229355e-02
-3.699203807789758908e-02
-2.435625614760778337e-02
5.019594137290998154e-02
-4.955314474070898756e-02
-7.768544955401693146e-03
-5.100388267092284544e-02
5.345525762000431780e-02
-3.123292392436833459e-02
-1.583887419740543853e-02
-3.336933281555499314e-02
-2.221740612597782744e-02
-2.532399899979444983e-03
-7.308171131272339811e-03
1.312171982036647311e-02
-7.275421738150616990e-02
-1.117782480387889132e-01
-5.259310242346647984e-02
3.305543201660996605e-02
-2.158211196661748838e-04
7.991973571003603560e-02
2.718282814725022506e-02
-3.034247629926547368e-02
3.178571594853857318e-02
-2.944528944515682322e-03
-2.351372043756526017e-02
3.795095557913454650e-03
1.635097649153005941e-02
2.975835540518885838e-02
-4.544437303847701642e-02
7.380348798797903287e-02
5.950476675833829554e-02
2.237965796647577513e-03
-1.134218116064398532e-03
3.712556656975362496e-02
8.343147022696503767e-02
2.834065639479970908e-02
-7.253833490046608656e-02
-6.299602649065839943e-02
-5.151604596676034181e-02
-3.744429930995778893e-02
1.109251732893765802e-01
-5.562178554642838169e-02
-2.059553422886413465e-02
4.275074172808063927e-02
3.021146305436537421e-02
1.427360854870603256e-03
-6.235311378883885008e-02
-1.029031810644134674e-02
1.540461008381005352e-02
9.681752662638580531e-02
-1.239555039849206571e-02
7.342675086049144095e-02
7.375961942569683218e-03
6.556813772165698273e-02
-7.646730272495295966e-02
-6.921182905665346219e-02
-9.436222410147687700e-03
-2.776074246666199175e-02
1.950451078666290070e-02
8.673914886655839651e-02
-2.532218485766246641e-02
6.637195744335486203e-02
4.728977431423390942e-02
4.942355549267489490e-02
-1.576938966147876237e-02
9.404234651553086688e-03
8.040033001219724917e-02
4.323949532329525447e-02
9.613507243934833746e-02
2.860523162648535150e-02
2.860190938598684146e-02
-5.652643272436612409e-02
3.344918195072833778e-02
3.757045711124618048e-02
1.188572826387059994e-01
4.085714141792966964e-02
6.451777554685550475e-02
-1.138493930481903060e-01
2.720717695387791721e-02
-9.171978771393707319e-02
4.403882187420914834e-02
-4.486462541497772925e-03
4.329189157048209807e-02
-1.002155128124594674e-02
3.019058458895355207e-02
-7.293414609680183569e-02
-8.940440634833318745e-02
-1.988445999108229278e-02
-6.547688637408537182e-02
-5.947924419426344617e-02
7.417629440539837138e-02
9.095355144727651497e-02
2.350076068817845767e-02
-8.425064625514976091e-02
2.400647511980214671e-02
1.017347466610555862e-01
1.337863073770926281e-01
-1.784531196973644304e-02
3.779439853554864698e-03
2.376832858406680363e-02
-1.454139645391079247e-02
-4.164949956296436218e-02
6.079113720004405974e-02
-3.100873709039013437e-02
-2.348864893440013105e-02
-7.747326061713666334e-02
2.487830434885087219e-02
-3.938904966238615524e-02
-5.748467018575081910e-02
-2.728996554406852224e-02
1.129212509316672094e-02
3.900518820614247428e-02
1.403490134849767756e-02
-1.404537484134942525e-02
-7.037275315420159216e-02
-1.378997677210893613e-01
-5.795829007615513340e-02
5.183756566911881108e-02
-1.414528951837864916e-02
1.113770530733537850e-01
1.265185422563816671e-04
-3.180496408411019604e-02
6.160683371401891317e-02
-2.573742953165975705e-02
2.419972152218148945e-02
-1.515855284136087208e-02
7.918359090507817721e-02
6.286528525103503295e-02
-2.257511031443614619e-02
9.072899447369499326e-02
4.696479699001662039e-02
4.134283744077042050e-02
-4.395322537854714877e-03
5.358069491898880161e-03
1.245807005112696403e-01
3.036222912207746025e-02
-7.127687588337167091e-02
-3.367105963375291444e-02
-5.786170007332334247e-02
1.732024361582413380e-02
2.665044790097682165e-02
-8.398329111760047261e-02
-6.546240829170644517e-03
3.844384756261798146e-03
2.804799350656703508e-02
-3.679195942338086417e-02
-2.661706682418385917e-03
-1.441782163058014966e-02
3.778942967433977090e-03
6.114926199382428318e-02
-3.644680486904291333e-02
9.561362310315375812e-02
4.152389074925538076e-02
3.811277731881338587e-02
3.117415310084939613e-03
-5.145210093730583079e-02
-2.497839937605696170e-02
3.155198952486978903e-02
-7.746765194692281468e-03
4.188685041256662300e-02
-1.750931406500755294e-02
5.555453275171044758e-02
-8.935368902182647122e-03
1.569889314418155754e-02
1.747904931430745460e-03
-7.032855255126153025e-03
2.214592759010858974e-02
5.887123049779859063e-02
-1.893242702140866818e-02
-1.362451119638369464e-02
3.298267324917335958e-02
-2.579706413510803042e-02
5.351040896473273356e-02
2.501528287657730706e-02
8.833598263175747312e-02
2.460295384517678305e-02
6.081936720701251742e-02
-6.611660791808875171e-02
-1.448893842406442055e-02
-4.873763603630276026e-02
-4.446804429838595654e-03
-4.069647531396737572e-02
-1.414101372646293930e-02
1.970378149906724594e-02
-7.091747591767151582e-03
-2.121458475250444578e-02
-8.639129091563943486e-02
-8.745281988413580732e-03
-4.405257163263708725e-02
-8.705673420223869474e-02
1.083847692337056301e-01
6.590030185416745345e-02
-1.182674723496153144e-02
-5.405779318539543493e-02
-2.457084090300754378e-02
4.858689063741924302e-02
1.045661284820715298e-01
-5.907534222048724942e-02
2.596004248474174242e-02
8.702234083473004214e-03
-4.555505371061615433e-02
-1.056907984835713486e-02
3.270685724481033063e-02
-6.949436154451073266e-02
-2.646609456794344825e-03
-4.252513563674859692e-02
5.611595815754776007e-02
-3.572322549239963924e-02
-1.308214515582787479e-02
-2.855757600386963496e-02
-2.022601374677847688e-02
-1.143035875223378075e-03
8.117190469302409256e-03
-2.895338381605930354e-03
-6.640877459878748168e-02
-1.273409654148044412e-01
-2.684683691036877234e-02
3.605463793238034703e-02
-2.663089185508879086e-03
7.481944695788367294e-02
3.093104301591272434e-02
-2.234362604196958244e-02
2.418693486636156690e-03
-3.711245097291566465e-03
-2.017873313634642798e-02
-1.622714009445692593e-02
1.099708441369356623e-02
3.080316440145828075e-02
-5.702786743711932976e-02
4.852938844119798062e-02
5.677778069022674373e-02
5.949249233180029309e-03
-1.679318999282671671e-02
4.675603781342896337e-02
5.693367348138443640e-02
3.527915117945242679e-02
-6.152813573116775597e-02
-3.695124045853849515e-02
-6.789647944957850900e-02
6.996521698749411100e-03
9.964078936548758161e-03
-9.316889595767563481e-02
-3.052439984871254536e-03
-1.736063915944700223e-03
1.736447962910377465e-02
-1.858530936074632989e-02
-8.327216925688211979e-03
-3.444503169531093825e-03
1.086234622088107053e-02
5.666459881048502983e-02
-4.766849749096568889e-02
8.951425106602486914e-02
2.690622381998564530e-02
1.818911868688090003e-02
1.620455000836297510e-02
-5.484030078066237657e-02
-8.356396213235740139e-03
3.888737319410372206e-02
-8.813802492273072053e-03
4.754111781805064191e-02
-1.711095436099233438e-02
4.969622771049118232e-02
-2.368288367887831994e-02
5.130280992973736305e-03
8.157698642648824466e-03
-3.288509710753581214e-03
2.252251295834770822e-02
4.249488520380729356e-02
-3.461213718073825885e-02
-3.211667374529470625e-02
2.999536875223499099e-02
-2.038775381448311094e-02
4.380357192256133930e-02
2.809811782807916311e-02
8.334225215996103608e-02
1.742619326314708353e-02
6.641059415362643437e-02
-3.960531256135983030e-02
-1.201828603925749438e-02
-4.485696858838183337e-02
-8.438061394931242395e-03
-4.477158953904498973e-02
-3.329141784033901735e-02
2.465230178017028401e-02
-5.391466294491986493e-03
-1.714243332255767707e-02
-9.052871330707416841e-02
-1.095644388022157766e-02
-2.947439831770521171e-02
-1.042602722352622274e-01
1.117033752471479069e-01
6.370125134896799379e-02
-2.406028322892846127e-02
-5.956144544372719146e-02
-5.471538998254702607e-02
5.145233371993118004e-02
7.912567407037716938e-02
-5.353883544379750559e-02
3.980305635245975221e-02
5.267965465685841772e-03
-5.564724829290136621e-02
-1.636822256434887837e-02
3.049443230896154225e-02
-7.303813789256495548e-02
-7.450042539793809079e-03
-3.417780321446201725e-02
7.278200284177165080e-02
-2.640450177819287855e-02
-4.936559471125942164e-03
-3.023244447697985560e-02
-2.947179185961675690e-02
-1.016936926088894688e-02
-1.235676411781990412e-02
3.565937341983214243e-02
-7.479078116435469714e-02
-1.189837514303925953e-01
-2.495969588571052972e-02
2.597823631361191599e-02
1.197353387448030042e-02
6.214915522480552595e-02
3.197449905937877618e-02
-2.456110061732668173e-02
-6.091218286826141637e-03
7.588926080160195500e-03
-3.792438248201101397e-02
-8.746274976350018257e-03
-4.220359493625377469e-03
2.304493418307471467e-02
-3.943807161509386289e-02
3.919337765948144314e-02
7.559456107833831262e-02
-1.781077519678978677e-02
-1.533100768517329550e-02
3.611509999936138998e-02
6.251729362487201680e-02
3.308442898605345323e-02
-4.858309099812332943e-02
-4.214712606490362418e-02
-8.734393187484608412e-02
-6.633807549096332017e-03
5.043525063825620575e-02
-3.174230133143519234e-02
1.523692671456948738e-03
2.212346292200855977e-02
-4.718476167455047318e-03
1.643726843052006545e-02
-6.539227739448350007e-02
-2.450113004931328553e-02
3.158721981466700718e-02
6.524395364591235869e-02
-2.988131083447868874e-02
2.667664492774603213e-02
1.010912368724891167e-02
5.927127192303568992e-02
-5.529551741727904701e-02
-3.102552425589789539e-02
-1.238005501023369676e-02
1.231799427912894443e-02
-1.098876354137171560e-03
2.540947898630122742e-02
-5.140719904729923982e-03
2.004375613610443266e-02
5.081588980517168924e-02
5.436709266943026003e-02
1.051647745236635768e-02
-8.707412554059429724e-03
5.549215098935184748e-02
3.669168579650917972e-02
5.080305733963993292e-02
6.346149882237645500e-03
6.469668023958620451e-02
-6.288799246680111532e-03
2.591898367978717060e-02
2.486387858652053945e-02
7.682582640237053950e-02
2.559595759787823815e-03
5.510432512024149299e-02
-9.884964886480933355e-02
-5.528701792370723303e-03
-4.393954899260439639e-02
3.080113874210573324e-02
-2.316206917421338371e-02
3.086332966245485324e-02
-4.940555988588873210e-03
3.514548106775682197e-04
-5.457133375053881824e-02
-5.471065590537511208e-02
3.884433426005633183e-03
-2.261435613822423626e-02
-5.768354271010344564e-02
5.857773943613765050e-02
5.455627577146100748e-02
3.379922834606799431e-02
-5.105051052308711562e-02
1.783254498041265262e-02
3.583464679203936937e-02
8.601975717839960289e-02
-2.986447361271663686e-02
-6.367055571407110801e-03
2.981473914577556159e-02
-2.610692700748488623e-02
-1.476835166600808796e-02
4.621481111784467299e-02
-2.171903335787629674e-02
-2.656298154561401864e-02
-3.492336665609652169e-02
4.757370351438860306e-02
-1.709521183924981105e-02
-3.746031704929366629e-02
-1.868591203913615856e-02
-3.943542269420370096e-03
4.396742774575831264e-02
6.714024375700009374e-04
-7.334100437801806607e-03
-3.325780311835244141e-02
-9.147119234981231084e-02
-3.403248256036722763e-02
3.381131797993888050e-02
-4.720137609302576392e-03
5.214461275316697314e-02
1.674432406975509069e-03
-1.158290648370102587e-02
4.278640896169077362e-02
-3.599158036332386623e-03
4.507004079053984757e-02
-1.732004426018959875e-02
7.374961242818886542e-02
3.136189041817442902e-02
-6.067407382287658482e-03
2.809501735799472752e-02
3.161393248587406751e-02
2.390555176294176590e-02
3.160047286580829409e-03
-2.752516520373932130e-02
7.577095566489912282e-02
2.095782925973180624e-02
-9.211413310031643653e-02
-4.658093513038427669e-02
-5.339572356454250907e-02
3.139091171366324880e-03
2.061182570672664624e-02
-1.363199452043421522e-01
5.050886375394904489e-03
7.709758269395708581e-03
3.283116827244257629e-02
-1.347741661493020472e-02
-2.457464654711112584e-02
2.924240877210056155e-03
1.711079382020247452e-02
7.131737114086400542e-02
-6.271996042992340759e-02
1.298804903284434820e-01
1.622105236940879491e-02
9.890514803708319938e-03
8.818256441377340937e-03
-6.949257929494884189e-02
9.395694312791388284e-04
5.126970979674271012e-02
-1.408828477783619776e-02
5.809969871332164304e-02
-7.357314271835141417e-03
7.361438980458856474e-02
-5.162050712979616984e-02
1.491953254532657654e-02
-5.798426560743857351e-03
4.931995424906862081e-03
2.957961785669752444e-02
4.567972310730016028e-02
-3.582494560041446507e-02
-3.267483221188650228e-02
1.564287757162441742e-02
-3.659053765131527192e-02
3.881688917659090882e-02
5.727261703076960697e-02
9.926297831601293975e-02
2.255793510386357864e-02
8.630415096052540536e-02
-6.161642439289097967e-02
8.205397500856278017e-03
-8.883877483946781006e-02
-5.975908995167958718e-03
-5.168416923947912606e-02
-3.388014848629027076e-02
4.619271841073988027e-02
-1.416129104926727809e-03
-2.258853350483051164e-02
-1.246850376658290155e-01
-1.314370544592764582e-02
-2.513142674590923206e-02
-1.346006568713744300e-01
1.239643892247582480e-01
9.864930061246603155e-02
-3.257364046917095302e-02
-7.134890658647490003e-02
-6.350370953801015572e-02
6.702324155611566470e-02
9.416396480246017053e-02
-6.930362396896844190e-02
5.644858225467892093e-02
1.492056789797789433e-02
-5.608341372086647625e-02
-1.780892953359379874e-02
5.896417324568396096e-02
-7.834210683079183279e-02
-7.286901752218020653e-03
-4.002664699040846957e-02
9.195673042953676768e-02
-3.784276366496089339e-02
-5.737562174646698883e-03
-4.212402188702111389e-02
-3.712213765036435215e-02
-1.125891442915188598e-02
-2.437167077155380848e-02
5.571719306501589364e-02
-9.187713940360324461e-02
-1.347978567784452464e-01
-4.545377283318864647e-02
1.734044008248298435e-02
2.143445675782329127e-02
8.893637046060251516e-02
4.113860375389338103e-02
-3.387131817404226419e-02
1.560129358671131020e-02
1.571023270095606508e-02
-4.399892397563692770e-02
5.507974140420463134e-03
-1.617016175514601056e-02
2.217920500836243272e-02
-5.306192720805890523e-02
5.952421222630187303e-02
9.159377828037126856e-02
-1.579338303079998868e-02
-4.060730581341130858e-03
5.800137313887576695e-02
8.244811459380954610e-02
3.737241771683109254e-02
-7.721152242666495802e-02
-6.185651639812012048e-02
-5.467880469193294596e-02
-2.055070088471825512e-02
7.149834116184958233e-02
-7.870907994891362947e-02
-1.310517517423941646e-02
2.574536754514327591e-02
3.533166637733996251e-02
-5.647530611770369170e-03
-3.598864100996309462e-02
-5.800121337659456915e-03
1.297758576993373637e-02
8.789679929421864713e-02
-2.785217049016428317e-02
8.808076775922277224e-02
2.815543427862554626e-02
5.545009515463930616e-02
-5.117142495600505991e-02
-5.651607691580385479e-02
-2.152459397521724535e-02
-1.819817021250583373e-03
-1.928931939368649972e-03
6.375409652315681963e-02
-2.658509913555093251e-02
7.079941049236378181e-02
8.005808245248968377e-03
2.508564297798965628e-02
-2.230453529038158630e-03
2.586847523413371864e-03
6.315317298126972567e-02
5.445981898204015764e-02
5.382572548777535271e-02
1.099955145016712557e-02
2.371592033287442738e-02
-5.326684531169598169e-02
4.440749384819111384e-02
4.585946376338338737e-02
1.137524278993456289e-01
4.052217063103944611e-02
6.642053379957196801e-02
-1.039491954136718410e-01
2.150511914822877263e-02
-9.156798717563467693e-02
3.152340878787034811e-02
-2.645192001052557723e-02
2.273430159847423040e-02
7.319103364520472381e-03
4.042543634571587989e-03
-5.160440235119915370e-02
-9.658321425326944765e-02
-1.888443331198277897e-02
-6.697188312055500636e-02
-8.613884510018092466e-02
8.722866111018964808e-02
8.588906169458017381e-02
1.619717435979289464e-03
-7.947030086092954360e-02
4.274682945119703988e-03
9.292481379202367775e-02
1.235293391715940881e-01
-4.622613720352311550e-02
1.957507266190313538e-02
1.608865641913534428e-02
-2.454291636268164309e-02
-3.389961022195685930e-02
5.707148275023313927e-02
-4.719768785537005462e-02
-6.268122414643760403e-03
-6.586532771120862106e-02
4.459735936501225267e-02
-5.556826907661647358e-02
-3.299990769777991217e-02
-2.547324032801264945e-02
-1.005713564391941608e-02
1.087540924858942243e-02
-2.160912451222422783e-03
-1.820502680342696777e-03
-7.780229728728363381e-02
-1.434336203522593445e-01
-6.320133890957364831e-02
5.085894117361637601e-02
-7.325298589204219321e-03
9.909826073450674067e-02
2.623238451985101041e-02
-3.937048176846515840e-02
4.013829624416995895e-02
-1.810188571039501176e-02
-5.175670244641735092e-03
-1.043959257851972793e-02
4.541826246609676626e-02
5.245649575228297085e-02
-5.072965932169750530e-02
7.685767896458713111e-02
6.529045734715885341e-02
2.683845224068363497e-02
-1.346616040543941253e-02
2.240765543736373405e-02
9.032060814222429845e-02
4.737184167767847370e-02
-5.356438702115565165e-02
-5.229049973981287486e-02
-1.951251986077385744e-03
2.499222379274549971e-04
3.114823146080842112e-02
-1.649737591479005783e-02
-1.196974713122295544e-02
2.778982727978326905e-02
1.680346447013683631e-02
-7.862697847186890174e-03
-3.790211026908245091e-03
8.196925089615341711e-04
-2.011558162050579301e-02
5.625420883247447129e-02
9.161030208809355785e-03
6.563256498681778461e-02
3.548949871786404725e-02
3.827545327967128014e-02
-2.198710139794181340e-02
-1.887053463009910614e-02
-2.287426963908546426e-02
-3.954404973567585135e-02
-7.469141627243266329e-03
3.099214643881682829e-02
-1.627358802953338124e-02
5.471082802496972375e-02
4.888407852419636174e-04
1.330805489055362882e-02
-7.925871408132511425e-03
-6.303094063825579341e-04
3.462839625816970662e-02
4.324299542570601146e-02
3.792474627276767873e-02
3.160316640247335523e-02
2.757435661021740737e-03
-2.659900567616525768e-02
4.585408192813960476e-02
2.721839191225641774e-02
7.215495950663752822e-02
3.519823025822715890e-02
7.860616376355194362e-03
-5.874089800567432879e-02
2.143105929221365141e-02
-3.995009364365529475e-02
2.449444295439410016e-02
-1.171664475037275874e-02
9.133559796747979520e-03
-6.353388928756261746e-03
8.270036495268497795e-03
-3.573890509182332809e-02
-4.651510505102388754e-02
-1.692120106076458810e-02
-7.768963277507984211e-02
-4.956968293503541401e-02
3.181448651828309993e-02
4.595906933500189251e-02
9.311663717291264117e-03
-3.695784298655498123e-02
1.572393286197824869e-02
4.528034726290907502e-02
8.456777866693286627e-02
-2.548066861234688646e-02
-6.227051268073262313e-04
5.948137617530879773e-03
6.427942068031340835e-03
-1.458178768299170369e-02
1.130342873573169336e-02
2.428647214176534938e-03
2.343033342734955615e-02
-3.126228529527416700e-02
-6.608766249271008641e-03
-4.986198077370024989e-02
-1.379134759121232109e-02
-1.871323896372671311e-02
1.330870602199598837e-02
-9.829951799122606595e-03
3.446446354086172420e-03
-3.482043767381971106e-02
-5.468009436004376417e-02
-7.165712275059184233e-02
-4.696357311406955393e-02
5.680550747732412975e-02
-2.155529386651097376e-02
4.610402546702042914e-02
1.687251876334246170e-02
-1.451902851691438262e-02
1.445962967576694402e-02
-1.960362308961416389e-02
1.140774256139406514e-02
-2.359677762757847463e-02
1.630460993222822980e-02
1.405157245313142129e-02
-4.972116038471469102e-02
5.029236109805495375e-02
1.611470723115784529e-02
1.887252853191101476e-02
-3.091494094959940792e-02
1.781038272418926371e-02
3.372274779083266061e-02
3.629743318267376201e-02
-2.431953335619086165e-01
-1.149668027775305468e-01
4.435705613388727930e-01
2.992192085898033940e-02
-1.228344822031569583e-01
-2.488924067819456576e-01
3.389210732056358727e-02
1.349742436649508937e-01
9.991959256551486996e-04
1.649856400994849093e-01
3.524202040397304142e-02
2.454255251690937445e-01
-9.992428581408975552e-02
1.063034388964826937e-01
-1.725688579037987919e-02
3.049399366472754225e-01
-1.609085857371725103e-01
-1.785053549952642926e-01
7.795529802978881651e-02
-1.052952059535823548e-01
2.024830808469684773e-01
-2.129925043086851322e-02
4.791636321764100766e-03
6.382020800044047038e-02
1.000866310852746993e-01
1.247626541447442589e-01
-4.457506519852005855e-01
-1.641977200076518151e-01
-4.047687975832421625e-02
2.904318498143911714e-02
5.294011735926765216e-02
-3.050058093827494321e-02
-1.900737597494854547e-01
-9.488189158399802647e-02
-2.941128476864650620e-01
-1.621461030209487078e-02
9.070825293751229312e-02
3.133278552055554500e-01
-3.273608851207963910e-02
1.080742777687311168e-01
-1.121059257792156455e-01
1.207648458703368538e-01
2.901430320438477817e-01
-1.973445006654086509e-01
4.712614764196600831e-02
-6.392540837928847863e-02
-1.134441363571778022e-01
1.103523964420744380e-01
2.703167895608950960e-02
-5.102545761563847398e-02
-9.258953729750599160e-02
-8.952892041543670035e-03
-9.104868440190851120e-02
-3.817494993478349752e-01
2.281261311385848756e-02
1.398477065021504484e-01
-1.965158764003251957e-01
-2.666080581618328685e-02
-1.564362896211199117e-01
4.590280856491206485e-02
-3.804929365764617155e-02
-2.086316741289246379e-01
1.342949559093890854e-01
2.655458984136837772e-02
-3.482839819618646637e-02
3.841992753844621078e-02
5.330151197719768669e-02
1.629059362045458814e-01
1.145012558912614914e-01
5.348185001280188894e-02
3.115590198532759356e-02
-1.984336776273008529e-01
8.039596932469757207e-02
-1.311969556111080848e-01
1.007574161493209747e-02
-2.626707184449253996e-01
-2.522577559287012550e-01
2.256934520754905749e-01
-2.461439052115553250e-01
1.228565719318381877e-01
-1.798749979353516382e-01
3.051884096367252913e-02
1.174527389220551693e-01
5.168972355887678505e-02
1.323273225313178203e-01
-6.051065140308216871e-03
-1.786427279655536035e-02
-2.465770024687105252e-02
-1.703683082634266377e-01
1.116442265286734792e-01
-4.098653597487215139e-01
-1.367981348645739281e-01
-2.917864467996671152e-02
1.432510781993002746e-01
7.701339563208935146e-02
-1.377630597854530570e-01
4.430808916103427808e-02
1.487002989330087066e-01
-3.716696871916537280e-05
-1.265419111082602584e-02
-1.182374409497256168e-01
-1.214405176654834440e-01
-7.697170634834554770e-02
2.420587068861821192e-02
1.095826611106020532e-01
-2.519109818784557100e-02
-3.983886821666761391e-02
2.450933104362844686e-02
9.171541185752463132e-02
-1.474318292833048660e-01
5.040467043435759020e-02
-3.340894912710400122e-02
-9.408584332841576914e-02
1.636425078493846941e-01
3.368810340591543023e-02
2.241714171337356454e-01
1.746161808289885820e-01
1.331719695599235531e-01
-5.376779220844869669e-04
-7.019758874793115278e-02
-1.685407764278687714e-01
-1.042898112430516305e-01
-2.909207075252676078e-02
6.561545030198025208e-02
-6.815131071804528262e-02
1.637735221359138404e-01
5.381035402674783780e-02
5.577158861069815565e-02
-1.463476281671013436e-02
6.810645015895847726e-03
2.486664997542719149e-02
1.860395629883346280e-01
8.427842338394882227e-02
1.227342048108776978e-01
3.150248639131453948e-02
-7.254263590428838837e-02
1.479213839012254172e-01
1.536224932874105144e-02
2.241425744630575756e-01
8.025128894228630849e-02
1.773120612506114135e-02
-1.809317020017192912e-01
-1.605983419101856408e-02
-6.335061561517528472e-02
5.738448946961578756e-02
-5.354433016449937355e-02
-5.750184833659031762e-03
-4.307508190501439099e-02
1.208389333415792709e-02
-8.401422293292948318e-02
-1.272154387280543253e-01
-6.073042066996653388e-02
-2.539500262531383390e-01
-7.829919503120789936e-02
1.744699557758217778e-01
9.643082823003876203e-02
5.426540716184226343e-02
-1.109725580911323228e-01
2.563131054526618380e-02
1.699194888385913704e-01
3.086928338568885599e-01
-6.157652164559609259e-02
-1.079727992170245211e-02
-3.467075975054841747e-02
2.372496110052575713e-02
-8.345678109723028704e-02
-6.953516637355754842e-03
-1.003335523157731918e-01
1.159399356007193710e-01
-1.227831243513268639e-01
-3.176643944232172834e-02
-1.652884205917117266e-01
-4.039391002494201188e-02
-3.700440538596184298e-02
7.295603384610717737e-03
-2.318837328130111605e-02
1.040082287245756437e-01
-1.682858539185145275e-01
-1.608165816666498604e-01
-3.114871026822720324e-01
-1.077889213198565815e-01
1.780230712537616833e-01
-9.831313597333843357e-02
1.268653591357499499e-01
8.077503791774021114e-02
-7.500584093038280276e-02
-3.841574551142747096e-02
-4.827656243583842988e-02
2.713987764345809905e-02
-1.170533508864799177e-01
7.634777227973585378e-02
6.951139694092189902e-02
-2.211809689825060543e-01
1.570637178540991163e-01
6.574760365409570984e-02
9.054339702283306646e-02
-1.387227301587201922e-01
1.234309075111126586e-01
5.412353854384686913e-02
1.366359129127933669e-01
4.426884662169003337e-02
9.201561717660731998e-02
-6.339214316943048155e-01
-2.487830906154503419e-01
3.348725096998837469e-01
-2.799662589053878436e-01
-1.604246393196308851e-01
-8.484284744018517899e-02
9.408715995902046381e-02
-1.925115740324836733e-01
-1.481660275954051198e-01
-1.478883844606087294e-01
2.350471976155026621e-01
1.265176651268591357e-01
-2.788472465923247934e-01
-1.971589348301262118e-02
1.271031892701134309e-03
9.647573147378596392e-02
-1.569972997143600779e-01
-2.806353362588306921e-01
-6.039735986075411150e-02
2.547489771737443953e-01
1.589065775813608417e-01
3.240917864109811308e-01
-1.626404473547316265e-01
-3.075350728852411369e-02
2.841717045954820775e-01
2.014897272052385557e-01
-1.079916228093345254e-01
6.484314996199479209e-02
1.259577379782783890e-01
-4.543662695464815299e-02
2.229711027034545767e-01
-1.233417149101913822e-02
3.874380431404558234e-01
-2.006759125168647573e-01
-1.785221150631707832e-01
-2.307266589533475687e-01
2.870848371887461670e-01
-7.861845764412518645e-03
4.057048731443056444e-01
-1.300494139229214918e-01
-1.544464487551888976e-01
-1.181122435263020909e-01
-1.507891141887336417e-01
7.440658051410886653e-02
2.538925935640747727e-02
1.218125166069620874e-01
1.062142871563681173e-01
-6.060381560186376554e-03
-3.465955747536068610e-01
-5.679411147719894831e-02
2.229314602158717906e-01
7.640024605084935749e-02
3.066501890167674937e-01
2.512749870739385272e-01
5.702336430729273292e-02
-2.795277016246429103e-01
-1.744400353340319898e-01
3.177205063745174307e-01
1.927683786445784919e-01
6.669734182471497019e-02
1.665333972190077005e-01
-1.536801070861317994e-02
-1.059089322607367767e-01
-1.841036776245406070e-01
1.963476697908761448e-01
-3.837597448924250365e-01
-3.654690390994283500e-01
-2.163492451054215282e-01
2.890099112000461545e-01
3.229028560649697677e-01
-1.152109196105555178e-01
1.233272958371553207e-01
-1.580033516739978439e-01
3.255647656263792045e-01
1.414866433246370903e-01
1.491611658005898011e-01
-2.183598096921483822e-02
-5.015716864076004144e-01
6.471851170620467053e-02
-7.313084464208602364e-02
1.216033019852481578e-01
3.502897665609353561e-01
-1.889230169024675166e-01
-6.201883215743379113e-02
1.984888169058899032e-01
1.155600398509409182e-01
-1.171640075618534879e-02
1.324101545924232515e-01
2.848500865260215620e-01
3.543484209409050734e-01
1.562081813712380418e-01
7.128457895233726582e-02
2.824024806811252231e-01
5.090141102344157564e-02
1.009613547194021937e-01
1.809237944878102147e-02
5.524159906881245252e-01
-7.713090658993991544e-02
-4.527579355638365610e-02
-2.358182218465092531e-02
-6.563133280461974639e-02
-2.688429871587893344e-02
3.620097624200280945e-02
-8.537472562909753648e-02
2.438345706331239773e-03
1.339397517176474860e-04
1.745165584501914835e-02
-3.177110489879189648e-03
-5.064447073701004026e-02
-2.300260288128506622e-02
4.537151994115137116e-02
4.912233443984614228e-02
-5.212453845176999445e-02
4.550130079972625197e-02
2.088314970409015266e-03
3.592832499311973682e-02
-3.019648687237598550e-02
-5.212141993818144442e-02
1.652037210394449035e-02
4.407754842262128631e-02
8.755132611255647332e-03
4.567442771260845497e-02
-1.620293336609439361e-02
2.775289536527294001e-02
1.267486296041920972e-02
4.119581250955357127e-02
-1.029207696097497217e-02
-1.917983486029844900e-03
3.225482752311644580e-02
1.659362211415518762e-02
8.025892702426661723e-03
-1.729283466913010894e-02
4.633187597409746394e-02
-2.480376423149061732e-02
-2.432956708580203634e-03
1.556392226027029924e-02
8.074842605405614659e-02
-8.498844254575785989e-03
8.880023002761611162e-02
-6.439596351627674409e-02
-8.146764822047038862e-03
-7.741893152594689353e-02
-3.651582785712136851e-03
-1.487104360865212568e-02
-1.206730299463271150e-02
2.691546865054537593e-02
9.986309397319224034e-04
-2.548302108153417678e-02
-8.782716431787271349e-02
-5.272145688780367594e-03
-3.636954873422954047e-05
-5.892170367419362342e-02
8.641617748173203994e-02
6.742782098286449755e-02
-5.618654449254038320e-03
-5.532620931752898347e-02
-1.653841956071170141e-02
4.152940156875732647e-02
5.290054013515728404e-02
-2.973918774435184084e-02
3.866767260655377264e-02
2.074776812447402807e-02
-5.280363766692539040e-02
-5.101730880927230968e-03
5.033476759844000836e-02
-6.502129392830553745e-02
-4.582109480072188434e-02
-4.216396102979627636e-02
7.595024184730583827e-02
5.501918701496071040e-03
-2.855394879967774677e-02
-1.554005037944893725e-02
-1.818239845422379292e-02
3.186711608872404289e-02
-1.539203858768026234e-02
3.782727176679342301e-02
-3.651466791228190345e-02
-8.906834864139302754e-02
-3.237087041692052192e-02
-3.644192936241824176e-03
1.335027131652734636e-02
8.295523035490370845e-02
3.131306304783844797e-03
-1.890171343010306829e-02
3.731629463061173629e-02
2.013504740907283777e-02
-3.898726396019309287e-03
5.252230234120343864e-03
4.359131841870962643e-02
3.556987524866363909e-02
-1.356417538055710442e-02
4.464800575913104724e-02
5.238188569175619008e-02
6.443271407430506414e-03
1.408718191329226890e-02
1.933754334721213275e-02
8.711401197354906589e-02
9.805847160290580636e-03
-2.491559456043139498e-01
-2.062812474992170575e-01
-6.593046430490915322e-01
2.013184487725014349e-01
-8.002846139944017403e-03
-1.497546936595352540e-01
-1.305739408187071328e-02
7.274541246905677494e-02
-1.387597343481719592e-01
1.373196660141216482e-02
-1.429987004190457212e-01
-2.366330516137266360e-01
1.462679230594551849e-01
1.466014438012941679e-01
-2.207083963921953607e-01
1.438110154002412433e-01
2.512406235907408414e-01
2.494642564470684887e-01
-4.741175205126360592e-02
2.910614597683596275e-02
-1.808850398027363748e-01
2.168824611573493544e-01
-9.596223825053337708e-02
-6.195832905136618163e-02
-5.184022260463612419e-02
1.628693742310609316e-02
3.241504227146694284e-01
2.125341853055712493e-01
2.175042493488256456e-01
-1.378992319947832945e-01
1.344705859428176054e-01
3.239171512514505413e-01
8.782808171195701299e-03
-1.241665093445570300e-01
4.101247194053342926e-01
1.514334906802228820e-01
2.790622776696331520e-01
4.813489886832115344e-02
2.630657828353704653e-01
1.310938050979819358e-01
2.465555990943342490e-01
-3.997191034879932214e-01
-3.414204571890551154e-01
1.831889046448671732e-02
7.878438164989527703e-02
-3.596140750255443774e-01
7.770257872657002074e-02
5.104483105306645979e-02
-1.866823009402538702e-01
-2.124186348504117083e-01
-2.638456335312997503e-01
7.996062822910329770e-02
-5.872057990743873718e-02
-3.711949237734774032e-01
4.319068973608339856e-01
9.561601329089663981e-02
2.112845520187297821e-01
-2.230492553491822960e-01
1.811745462334246604e-02
1.135306446352794124e-02
3.966197019351302977e-01
-2.955181207149932820e-01
-6.680098936507349039e-02
1.236551849952065296e-01
-2.230949274581123520e-01
5.233750427697232005e-02
7.826169624333381702e-02
-3.090048229506063282e-01
-5.119218844774373750e-02
-1.481256481352002941e-02
2.640376160330735744e-01
-1.113592809051686672e-01
-1.749046083964078124e-01
-3.984611859651172178e-02
-5.905664433531515600e-02
1.765776950805383605e-01
5.510549761530885576e-02
-8.789730284151715811e-02
-1.404130159259891208e-01
-5.264964243732386251e-01
2.474253953080261109e-02
2.152544533893675227e-01
-1.026866514801169916e-01
1.202928180013743409e-01
7.346250581078785091e-02
4.154219018157570727e-03
-6.895048043303485252e-02
5.329359438590213632e-02
1.850774499143637286e-01
-1.963402529147958153e-01
3.375830742235506055e-01
2.047748285755684183e-01
3.649080390549522268e-02
-1.408932162955396361e-01
1.835689303958995544e-01
-1.656247083359043207e-02
-2.289872505857633300e-02
-1.723645335804024903e-01
1.842702957203617153e-01
1.552683203603552886e-01
-9.197253711536527987e-02
-7.394183932013681515e-02
-5.764332099902660239e-02
5.517768591325841743e-02
-2.650065062816745962e-02
-8.041637852663256758e-02
2.463879160003597246e-02
1.684532942633545569e-02
-2.014420755502913801e-02
3.698396071929709039e-02
-3.392991027117338299e-02
-4.208089087840801400e-03
2.049585032565456183e-02
5.614560920666617633e-02
-4.687413390608442809e-02
9.343258593702222226e-02
4.667047916652393436e-02
3.097353664415331692e-02
8.551025269414248148e-03
-1.291252428454526223e-02
-2.376603181213957604e-03
4.824716142618162840e-02
-5.289764591571913255e-02
-1.025879912491136324e-02
8.164269008371020497e-04
4.578938827093466390e-02
-1.154095572234410325e-02
1.426514363673881888e-02
4.788807939930258412e-02
-3.454989375519245537e-02
4.262673843838785809e-02
7.187654061732440258e-02
-4.744894947613535058e-02
-5.200303624024475713e-02
3.625759606561557158e-02
3.104804663063292017e-02
9.555403654485078446e-02
7.655452282203588366e-02
6.204255736367671886e-02
2.723790320975117557e-02
5.964081436072522086e-02
-9.221679950260611158e-02
-1.749127970138565635e-02
-4.451512756252092029e-02
3.364306598661292308e-02
-9.744302817116709536e-02
-6.095336818024170780e-03
2.004694395440020926e-02
-5.273529342090475108e-02
-5.137899753899803634e-02
-8.598384383960396005e-02
2.058426391779683701e-02
-3.736647018216335964e-02
-1.635084937826424001e-01
1.169763855669432029e-01
5.196354436451142145e-02
-8.308508647871904601e-03
-4.651680355170845910e-02
-1.137536052942726174e-02
-1.482450068186467497e-03
9.320764810100373721e-02
-9.535421795633405861e-02
1.126105060874122051e-02
4.018291284571307714e-02
-7.543088133025444009e-02
3.238266067408829968e-02
3.364787649171820105e-02
-4.058151050298923479e-02
9.933558713528163955e-03
-5.031521448662955483e-03
7.463088212329282989e-02
-8.321068396034816961e-02
-2.161664283190108810e-02
-4.921868282472036810e-02
-5.768943559301295716e-03
-1.076319739005742251e-02
-3.456672126328642208e-02
1.528780677163641202e-02
-6.681521981842379609e-02
-9.525622603910867403e-02
-4.092735775092750522e-02
4.318362470168776029e-02
-1.043040190873956684e-02
3.387189420754301017e-02
6.159405718817423381e-02
-2.200884277337220377e-02
-3.825571619237555596e-03
-3.135891595493373821e-03
-2.820239942678352037e-03
-3.482894508559867403e-02
2.065301089503944823e-02
-5.126031035402127921e-03
-4.016981160023768566e-02
1.088673750034753127e-02
5.343548997264970651e-02
-3.390484107066551317e-02
-9.488420856805783454e-03
-2.246061845960665646e-02
1.362875259646720121e-02
4.898587873231129153e-02
-2.652104303716200651e-01
-2.762396769445402134e-01
-1.648090148259201693e-01
4.008614322193400636e-01
-2.658370691797300456e-01
-4.879873978218901565e-03
1.290729844794394066e-01
1.205297837661608619e-02
-1.302633701709162983e-01
5.829158845895355580e-03
2.394562721757108326e-02
-7.497845403316823198e-02
-4.129400946462943867e-02
9.356386052695971067e-02
-1.429476757776541353e-02
2.837691925879599064e-01
3.228871631702038836e-01
1.853655227957773100e-01
1.552699458794561949e-01
1.710224644509203973e-01
-2.033846528146206478e-01
4.815790517010801880e-02
-2.740147688650895197e-01
-2.759661218753710066e-01
7.056244969965952407e-02
1.153545176366911479e-01
7.689570952785568236e-02
4.758940249218126389e-02
2.361319237769231305e-01
-1.523345372330662528e-01
-4.348585493776752076e-02
4.006212468429031226e-01
-2.426120262447825637e-01
-9.402398055758875994e-02
1.089445473789467517e-01
2.613119001510615935e-01
4.482234687159373787e-01
2.031482755209916835e-01
1.330898178479537619e-01
6.336290241461049744e-02
-1.837366163498464766e-02
-3.071073767681914979e-01
-1.931347536127490105e-01
6.991552036008788495e-02
1.591329260897652864e-01
-3.876161731894054996e-01
-7.626254207242272667e-03
-7.609124376584505689e-02
-2.824737048754474289e-01
-1.535703818808501209e-01
-5.137073702082414761e-02
8.111692848191168204e-02
-2.834662651144274070e-01
-4.510970701963462615e-01
3.078279454644704538e-01
-4.386648626934330775e-02
1.078244628294836999e-01
-1.451700477525364776e-02
7.400487561533398984e-02
-1.699949356656974830e-01
3.207529940986054151e-01
-3.260983217677819734e-01
-1.348640407795388407e-01
7.349524412274288654e-02
-1.682419173373346233e-01
1.478908113665345914e-01
-1.014514692555628650e-01
-8.989057994546115204e-02
2.990808369272145439e-01
8.375172546645966165e-02
6.828010024727439176e-02
-3.857308628948534768e-01
-3.480253142886376161e-02
-1.777960122880699045e-01
2.835586121008177099e-02
-1.402561666912740257e-01
-3.077550204483712679e-02
-2.304601669443590017e-01
-1.733611717842273858e-01
-2.037095074679428908e-01
-8.968730308808706142e-02
2.773692535489053479e-01
-1.919974987155330659e-01
-1.018339208965610004e-01
3.140935982838433116e-01
-1.862571171311019555e-02
-2.226259678903204642e-01
-2.116069746535176321e-02
1.475557274203951330e-01
-3.054115581666521084e-01
9.680191839570398415e-02
-1.135248268705946056e-01
-2.773027159487455595e-01
-8.412958562083468206e-02
4.640083860661659704e-02
-5.733150365643557150e-02
-2.045067197975452000e-01
-7.538257038513292152e-02
-2.677367714075191141e-01
2.467739270730532064e-01
-9.516650490862826883e-02
-7.362800237139761894e-02
-3.987458973686453662e-02
-3.138145794984110309e-02
6.829675577589119917e-02
-1.136496112787058199e-01
4.191824638397200799e-03
2.130405918434480003e-02
4.468015635694192605e-02
6.834879563753550220e-03
-5.998258645193049049e-02
-9.965326737038284616e-03
2.238347577681954956e-02
1.080294673324695559e-01
-4.581540834356506720e-02
1.092076755140156397e-01
2.230727914684484461e-03
4.742679436314094915e-02
-4.999989791104493542e-02
-8.030395327181577558e-02
1.208978753861068324e-02
1.410036723454121017e-02
2.823907696099802866e-03
7.354180885674026225e-02
-1.647486829346284445e-02
7.798282593145018649e-02
-1.247273573201438182e-02
5.489648064883974332e-02
-2.122001170190159283e-02
3.540618574279470049e-03
6.699781839440621667e-02
4.379436413830106734e-02
4.190575537601713696e-02
-9.877872959596488422e-03
3.614614899255128022e-02
-3.848446478412299171e-02
3.433029025444352816e-02
6.766230401038057785e-02
1.405713360488554664e-01
5.450669866336303043e-03
8.675654523273124141e-02
-1.160976324745668503e-01
3.357294451875910551e-02
-1.193851982649308252e-01
2.137320149314203901e-02
-2.438440465578097308e-02
-2.310253626786861088e-03
1.623115059069448265e-02
3.392431464354227384e-03
-5.761648140778882765e-02
-1.234248620044432199e-01
-6.602005158829423771e-03
-5.051148720534642811e-02
-1.255570250080141059e-01
1.040824154024612147e-01
1.003528827729635586e-01
-4.958297106434844843e-03
-7.794593007820584118e-02
-4.964431492340662215e-03
6.962221760828123107e-02
1.208084465018343517e-01
-5.331722350238860680e-02
3.918496478691668727e-02
3.246684566947542067e-02
-4.428175810569187631e-02
-2.342524736579778416e-02
7.541918921262566466e-02
-5.158565800102403454e-02
-1.498556389585861855e-02
-6.218234244184461801e-02
6.616040783189260088e-02
-3.413865878437240958e-02
-3.461418964144299254e-02
-4.868497048848211689e-02
-1.231829653554682852e-02
1.278236382048345346e-02
-3.318636655704520350e-02
3.228981933362395917e-02
-1.006137880093116999e-01
-1.286243628333926803e-01
-8.276711901454833487e-02
4.455216752831259175e-02
8.465306876470641423e-03
1.083261321814287248e-01
2.038589977393660477e-02
-2.196986055911122337e-02
6.280001216011116272e-02
1.831580306145539142e-02
3.781557931860631255e-03
-8.683475851628066206e-03
3.930454670925188215e-02
2.180818402275189194e-02
-4.227801232266797243e-02
9.799716433085607636e-02
6.650657616102090275e-02
1.679780820723611456e-02
2.462213954594156748e-03
4.618439348516816673e-02
1.167036579553828862e-01
2.821924203895433136e-02
-6.544665368347689360e-02
-5.021808758480920121e-01
9.375906270770174578e-01
2.727495420544229221e-01
8.012822520912978030e-02
1.042511061881404633e+00
6.253559678642582609e-02
3.264530707137890952e-01
2.057473600726079932e-02
1.401260082853359595e-02
2.127811969392857661e-01
5.703624070029519877e-02
-7.142895755992032525e-01
2.159715898159047520e-01
9.054590322990868634e-01
6.836713754430448486e-02
2.946490583179048883e-01
3.707664314407125850e-01
-1.701599549880744855e-01
4.702365349590554855e-01
-3.861684570625986135e-01
-1.093702651053408692e+00
-2.405491762076049367e-01
-4.184071249164797446e-01
7.966846194940933878e-02
2.892432253774052664e-01
1.911625768092608257e-01
-5.398727694043128390e-03
2.454931329930227016e-02
-1.383000750292925213e-02
-2.511200522225170984e-03
3.824605215984920314e-01
5.730467524269265978e-01
7.476967706668448121e-01
-5.122708608887434067e-01
8.475967756903697581e-02
5.284067069026735508e-01
1.819915242454318294e-01
3.017360310053791850e-03
1.826104682450573058e-01
-8.866407100878951342e-01
-4.268970901309023791e-01
3.889659328842604569e-01
2.007244139623485801e-01
6.241566239839938524e-01
1.184497733391958740e-01
3.673313347274418383e-01
-6.104319223766655478e-01
4.200276695428081623e-03
-3.368964064437428574e-01
6.658463631933042581e-01
-8.671843329124216682e-02
-1.112005902153326842e+00
3.227559404598140391e-01
-6.287692842614691635e-01
-3.380194866923395547e-01
3.604374689010754196e-01
3.203025422103106812e-01
7.978454603814970625e-01
-7.289668484276082272e-02
3.969629751675194385e-01
1.081435720680576917e-01
-6.436175654758906628e-01
-9.507088070351356335e-02
5.999248102066936372e-01
-7.079667457638220973e-02
-4.102110348367674630e-01
8.037120164495835661e-01
9.260031040692978666e-01
-1.000303756933394392e-02
-1.081743231383083925e+00
-7.472878876292201600e-01
-6.755039668200113478e-02
-1.363569610897079620e-01
4.997000040017395284e-01
-3.318917729638626302e-01
2.816380106543766026e-01
-1.098753752821340690e+00
-2.290926736061287342e-02
2.988165342865738983e-01
-3.834560988550608784e-01
6.708544892797874137e-01
-6.298186275920629740e-01
-4.359704288666612082e-01
2.153818425761187816e-01
-1.466996821144214615e-03
-2.018000854225675822e-01
-4.377999266249043009e-01
5.239824702283171209e-01
-5.855151652263137496e-01
1.667054103527298992e-01
-3.052948955684536281e-01
-6.619418442474769293e-01
2.883264044895756939e-01
-6.611108495380447758e-01
4.569753920272899839e-01
-5.155976988003496686e-01
-3.119230342393447975e-03
-7.558157843748408711e-01
3.233623339765299698e-01
4.184013621212308992e-02
-5.272033637237631964e-01
-7.944717616158451789e-02
-2.924235901062912507e-02
6.197721929764451465e-01
9.226538491089923966e-01
-5.575922340174840897e-02
2.836478755006243135e-01
-3.119785656649919081e-02
2.382310160257967990e-02
-3.064625231513970482e-01
-3.588985194826389002e-01
-2.617246263280709195e-01
4.310511387944569450e-01
5.856968714422241540e-01
-3.088946861012438205e-01
2.396410557329097801e-01
7.770850472913932716e-01
-6.870970929754429690e-01
3.004005880143529872e-01
-4.461094163049332817e-01
-8.187819706511676454e-01
-1.109934952842368122e-01
-1.469274237926086468e-01
-8.705070272935659659e-02
1.283145624166333043e-01
1.031683716383768212e+00
5.316911951990287433e-01
3.703656377445756209e-02
-4.834171799641507478e-02
3.773709228428787643e-01
3.560638445900751736e-01
1.185809206694787399e+00
7.535350343070315038e-01
2.208349301290411237e-01
-2.715770207624860003e-02
3.534777728942363195e-01
-6.623294785133569673e-02
4.620031593519928204e-01
8.250067621698499443e-02
-2.625598024857612733e-01
-1.019011265924678611e+00
1.398389810742052541e-01
4.034520760055052696e-02
6.494694388267056029e-01
2.027871023945333473e-01
7.436319410648757344e-01
-6.421332096533530764e-01
6.643856295711410287e-02
-5.234607027804779600e-01
3.575196683244971085e-01
-2.600826765718927680e-02
-8.245286234112721990e-01
4.487705158008661877e-01
-3.921836811099778664e-01
-1.110761386396131034e-01
7.497900951655681601e-01
1.154795593675169395e-02
9.790567623434658362e-01
1.453083271623549222e-01
6.949292220575583601e-01
2.786852590939595808e-01
-7.401050503520332224e-01
9.997619582699031338e-02
4.352374650207898599e-01
-2.083168649706737818e-01
-6.236598134285121359e-02
4.888971341149568328e-01
3.914515991336408041e-01
-2.685811155741037459e-01
-6.982306042524678569e-01
-3.082854767102982119e-01
-4.204828180533061732e-01
-2.268196247964232581e-02
4.455834632443230747e-01
3.125577893976100308e-01
4.603723668213284825e-01
-1.096463186019570157e+00
1.245932704663216817e-01
-2.504328613501192735e-01
-3.116212989623455276e-01
6.584016484258449209e-01
-6.304545879280843979e-01
-6.815479536388263648e-02
-1.547043053260183099e-01
1.439402395314822976e-03
2.478890783297659217e-01
-3.420195289607648181e-01
9.394389193595238385e-01
-5.784965225140727973e-01
1.033458239447171634e+00
1.509406913784753501e-01
-2.715038730711687442e-01
2.845095065214580110e-01
-4.607895331779921499e-01
6.696120952811992488e-01
-3.149036030121414309e-01
-4.105388814244842477e-01
-2.688556250466063446e-02
2.366131281753490467e-01
-5.396349523920403873e-02
-2.735843898873411839e-01
-1.862866442533516464e-01
-1.924046337261514084e-01
4.973296914823935877e-01
1.577233503104485679e-01
1.348282366323912650e-02
1.405448078139413248e-01
2.353401039721084512e-02
1.767541680270356685e-01
-4.366841512642825607e-01
-1.907101811072029751e-01
1.031698402349660870e-01
3.328551006150163305e-01
1.061702019372592065e-01
-1.515279715503006497e-01
-3.134859870847080121e-02
4.459059478894946138e-01
-5.635689819606423123e-01
-3.288522983483750661e-02
-2.614531634522607520e-02
-2.689496909610456510e-01
-1.992828186990254751e-03
1.487450937592447731e-01
-6.080015226361740188e-02
1.117692435659310979e-01
4.955452218419679755e-01
3.373303712710855606e-01
1.836529041678691687e-03
-3.380262327622936269e-02
4.316284049362601460e-01
7.888228360945814810e-02
6.970186892836686132e-01
2.460984035804301695e-01
2.108900320138391293e-01
-1.243388318419204885e-01
7.293925131999520750e-02
6.858906794450186917e-02
4.295510456653797160e-01
-3.933725004569893838e-03
1.944128560861521915e-01
-6.915240072379862379e-01
1.420987403601285393e-01
-3.051864836274230108e-01
3.220424620490258683e-01
1.132478972248621568e-01
4.519486015840279980e-01
-2.557225803519931340e-01
7.533677490487697415e-02
-3.178096231550373574e-01
-7.029863506960308539e-02
-1.219049246421586305e-03
-2.576344728082651248e-01
4.784396223388556052e-02
-7.109555722076484063e-02
1.724854893173519976e-01
2.877428365188809400e-01
-1.421456384646924143e-01
4.890791376754533570e-01
1.796408337291888202e-01
3.738116868726873987e-01
1.114815051815870456e-01
-2.872473922277453129e-01
2.013296891395605914e-01
3.550716668251392705e-02
-9.459337666127506927e-02
2.370376535722295563e-01
1.491131367883086756e-01
-9.257833672161430716e-02
-2.551384726501467193e-01
-8.444693476071320204e-02
-5.602024798795926519e-02
-3.036748825322068135e-01
-6.345466476090241836e-02
1.744894854668072870e-01
3.186116416546054264e-01
1.082463355101488250e-01
-2.848814327547429803e-01
3.421303547770634945e-02
-2.514027041471530999e-01
-2.249364347646515272e-01
2.259447577877375934e-01
-1.834750967002961031e-01
2.343199573355030096e-01
-1.493159631928383246e-01
-5.476680866827877275e-02
4.056392024008651509e-01
-1.566614271954219484e-01
4.142799808117322291e-01
-1.378047224680142568e-01
6.539844847772789960e-01
1.571125015274174863e-01
1.228966178924447046e-02
2.778520041712364552e-01
-8.437274694504864891e-02
3.428337652846413786e-01
2.213444994534661744e-02
-2.786825011834694887e-01
3.237510695084831469e-01
7.330461251732924011e-02
-1.284762294424917073e-01
-2.377829531857715284e-01
-6.693593890569266014e-01
-1.322372673649101493e-01
5.004039719987652957e-01
8.286752358269930743e-03
-1.152257461810095029e-01
1.843980538791817059e-01
-7.440746132166879689e-02
1.548376951577217220e-01
-4.418971864975812514e-01
-2.880167061251708849e-01
2.253632596995151782e-01
2.952935770317947628e-01
-1.096798914111166562e-01
-1.240065532171274604e-01
4.270173468428987290e-02
4.164745811549542820e-01
-5.524395494414812147e-01
-6.504979486859029103e-02
-9.293770095775964746e-02
-3.930843335951841183e-02
5.405335357002571256e-02
1.940528038576163350e-01
-1.370064801181912761e-01
2.804217340220932150e-02
6.354722694348415857e-01
3.732304152064328528e-01
9.407946478477877128e-02
-7.721508087629519457e-02
4.786571734913790954e-01
1.702633374965082103e-01
6.562969656535230234e-01
1.161498043930898894e-01
4.618584743955433947e-01
-1.018975810406782534e-01
1.125380936017297551e-01
-3.097337614438008119e-02
4.294941062426657630e-01
1.630605504751856671e-01
3.375610824588542447e-01
-6.662199937853127141e-01
-1.076926903752388892e-01
-1.713606310401437349e-01
2.482795626229076236e-01
-6.564795183025144698e-02
4.591944399342527960e-01
-9.944436816129563483e-02
2.746882307119846017e-02
-3.722629029519717858e-01
-2.441754719344400582e-01
3.425272355161658455e-02
-9.257172458444407059e-02
-5.848279496308555342e-02
1.662458755591479376e-01
2.307627707522332816e-01
3.432497199557005274e-01
-3.157759046579005635e-01
3.003062580451977270e-01
2.553750758921363162e-01
4.859126036723402375e-01
-9.095628000806958366e-03
-2.162403526773577778e-01
2.140720933671425019e-01
-7.713806248962030987e-02
-1.341191397338034053e-01
2.665129094203770865e-01
-9.519055505438199505e-02
-2.780495333474168884e-01
-2.266077634356157555e-01
1.362381841440414854e-01
5.218379656437650144e-02
-3.480598536055697356e-01
4.328980218647723172e-02
7.874961163769234052e-02
4.817352385005363447e-01
1.769618872697359679e-01
-1.888751853449723295e-01
6.690190548150539221e-03
-5.717495633051334902e-01
-6.476401154644588487e-02
2.405943166913844522e-01
-1.250385566893100209e-01
3.067942837009319801e-01
-2.173167741195175251e-01
-2.383824819888143501e-02
3.044041044062197332e-01
-8.394202861809089977e-02
3.704801057019658228e-01
-1.045787696692460911e-01
7.092075595647211461e-01
3.882182725481411190e-01
2.594220602309347812e-01
7.544313829227881907e-02
1.087443271639340348e-01
2.545449406588887742e-01
1.181336154517255016e-01
-3.831857504440377427e-01
5.558226744209631143e-01
5.897705662548732852e-02
-2.760304853051703255e-01
-3.119726137494309159e-01
-1.879409948438120204e-01
3.969441667959449638e-01
-2.980355228621259789e-01
6.943786127611968617e-02
1.378699630714355917e-01
1.437132566670385192e-01
-2.983997109093042277e-01
2.512730571951807268e-01
-1.376049080439217809e-01
-1.090630756140730240e-01
4.227938659606348543e-02
4.616048544046889163e-02
-4.138582642141323820e-02
8.234638886423419069e-02
1.596470674936710799e-01
1.728930633383164994e-01
1.312998525585672496e-02
2.636690867983688680e-01
-7.606583983086698253e-02
8.832198059523189981e-02
-2.285025261215559711e-01
-3.392607287055561249e-01
1.147899296956984144e-01
-1.081177339173339247e-02
1.405001068099690220e-01
9.905444562925931618e-02
3.223467733339170915e-01
-1.852147670452204964e-01
1.127472093492031952e-01
3.150982305263642091e-01
-1.167435574556890121e-01
-1.638201043332390139e-01
1.552236963544539050e-01
3.524801704522610435e-01
4.175150615477156157e-01
2.683966393049326826e-01
2.307292800803298696e-02
9.656426680912980065e-02
-5.933049353038982038e-02
-3.188062913670897669e-01
-1.840456347767846224e-01
1.168749709636068279e-01
2.477856001729870916e-01
-4.194518990486199028e-01
1.284787094101483840e-01
-6.491885414987459690e-02
-2.876518893458765991e-01
-2.366912694674008777e-01
3.617713525660897628e-02
1.708407737462624698e-01
-1.446287924287574800e-01
-4.845488538327077377e-01
1.508668781295816330e-01
-8.491431877697462605e-02
1.755916389274587153e-01
1.197349349156771880e-02
1.804013086453818415e-01
-2.927299667979223474e-01
1.922489922128974293e-01
-3.526757120799271505e-01
-2.325073189736950596e-01
1.837531004686209224e-01
-1.610323800723492682e-01
2.292867677181856800e-01
-4.464729604246749778e-02
8.300396084799840923e-02
1.905481368412023091e-01
1.954192816251699438e-01
7.963257801101412958e-02
-3.262885764520749299e-01
-1.104894015484626651e-01
-1.491218248779811739e-01
8.463735719595645579e-02
-5.127669197271875895e-02
-1.187397435762254511e-01
-1.537977724026406978e-01
-7.860616792001730302e-02
-4.925613633719407719e-02
-3.404225009522999362e-02
2.501821492044337125e-01
-1.521142493865994816e-01
-1.768312983308438224e-01
1.929227313281408895e-01
8.462696359275201363e-02
-1.761214852889727567e-01
-2.819804274283619488e-02
2.555736134169483420e-01
-2.511588288634979960e-01
1.588380717828313526e-01
-7.998309738725031814e-02
-6.305142782122623302e-03
-2.535034305752417172e-01
-3.406561478991381592e-02
-8.012667784839662410e-02
-5.052000236264545668e-02
-3.256184157681591418e-01
-2.076931380372394054e-01
1.713585378776026624e-01
-5.915580187128541105e-03
-2.283041117689602051e-01
-5.893471519124670044e-01
5.486428124159729858e-02
1.498993459025507180e-01
5.823203347684176301e-02
1.975357020890005366e-01
-4.275601754601154880e-02
-1.726715477282356470e-01
2.432078095595313905e-01
-5.470944675710733840e-01
-2.987743070148464186e-01
3.563030410335991105e-01
1.685570872210674087e-01
-1.370139243765864934e-01
-2.845522642847838624e-01
1.039940889732648976e-02
4.484292965292027699e-01
-3.919790587044856833e-01
1.296207303739518590e-01
-1.986840306482963794e-02
1.555280552113209036e-01
-1.727802858891314408e-01
-1.061799977733128703e-01
4.921947999381821870e-02
-1.091508114495548520e-01
6.418843905509611369e-01
4.483277655291439956e-01
1.833969993542642896e-01
-1.433861880264195587e-01
2.934660610396959690e-01
1.145361610838503269e-01
3.459505054982552341e-01
-9.581943724626314218e-02
5.078566047619981205e-01
1.903713851639500243e-01
1.066259205193204329e-01
8.132018259998190224e-02
3.164837429459377294e-01
-1.940438278058650157e-01
3.721898647857854736e-01
-7.025746983948227831e-01
-1.559783259442126813e-01
-1.516512242696497204e-01
2.536540735315724882e-01
-9.261991755355133971e-02
3.803625288358591372e-01
-2.141094443111789258e-01
-1.866940927681143836e-01
-2.413775483517890674e-01
-5.169264748600797821e-02
1.532996324859946247e-01
8.531069892744672090e-02
-1.634253874545763263e-01
9.408996997840531062e-02
6.064877058700069573e-02
3.129465815258506423e-01
-6.425019240157098244e-02
4.037523809680138576e-01
-1.538071119379239848e-01
2.297172156304490287e-01
6.942876116649821482e-03
-2.938656302502585804e-01
2.905684449982814943e-01
-2.196452706944072852e-01
1.233295553961809010e-01
2.095775279347271702e-01
-6.182174559143531305e-03
-1.636092197856765518e-01
-5.315206677396874801e-02
2.155274089531719339e-01
5.193885680290337425e-02
-3.006811983414106049e-01
-1.166040710767759503e-01
8.607984169770964422e-02
3.666530196269586206e-01
-8.551583617295620623e-03
-1.559233691556423940e-01
1.536679865919918786e-01
-1.226729198557515721e-01
-8.204031627127165993e-02
1.020813987202631445e-01
-1.573969857525879257e-01
6.047829211108276398e-02
-4.362597309720823296e-02
2.755263751638301062e-02
3.297686025337067672e-01
3.620535105777451801e-02
5.070576172904672774e-01
-1.750353691336458961e-01
7.733250583580225657e-01
5.561018748785417909e-02
1.274517023617684763e-01
-3.454376858216214735e-02
-3.231642573642157928e-02
1.425279832234922495e-01
7.830753902875975392e-02
-5.257719324483282053e-01
1.725080062493421773e-01
2.960122328622649679e-02
-3.017025373382602876e-02
-1.792062101405463570e-01
4.221466938767840654e-02
-1.181647689225598513e-01
1.585231061708288203e-01
8.430735968362594590e-02
1.219711696636401055e-01
1.189492404814819354e-01
-8.315909365504957351e-02
2.928604472245305845e-01
-3.776775421308453118e-01
-7.151467609449731200e-02
1.229304076380832722e-01
1.954528821994555299e-01
2.016192941807056285e-02
-2.141090522884365466e-01
-2.312197522455799181e-01
2.078557989977367904e-01
-3.215784068957844299e-01
2.233643220581669336e-02
1.919579715229597638e-01
-4.220403379193096022e-02
-1.003948360661890624e-02
-1.020272045366874339e-02
1.015606842296766787e-01
-5.920444498657865401e-02
2.379748975632701713e-01
2.828475620994479467e-01
-3.069620035429171390e-02
-2.980299333352186969e-02
2.391269401687389218e-01
-9.657107255248909006e-02
3.846593944563143630e-01
3.662616791136211192e-02
1.158633426644192083e-01
7.981581380238050860e-02
-4.013481375854467681e-02
1.773175803156161745e-01
1.756734408837176964e-01
-1.742182987287310969e-01
7.965986959352873431e-02
-3.818655763233073097e-01
1.591861505309391800e-01
-2.058405213830907243e-01
2.233615814661147059e-01
1.286455999891228663e-01
2.437892307693128591e-01
-1.170842624897883710e-01
3.981913046634599773e-02
-1.964477370414823842e-01
5.796513445926605723e-02
8.426608439335975254e-02
3.766854551095379089e-02
-4.307077543199354375e-02
-1.973869088091762258e-01
5.074518957431706223e-02
1.934639705827630451e-01
1.399420301500129381e-02
3.325063980834108701e-01
-1.220716243824855607e-01
-4.708611308492941828e-03
3.019611347691503189e-02
-1.545150850909231544e-01
1.831438069972678995e-01
9.199620481284032092e-03
5.793037133594440558e-02
1.828244985928109134e-01
2.591682713696136786e-01
-4.584210272540244907e-02
-1.893659029981034636e-02
-1.140618172702156582e-02
5.545194441611735886e-02
-1.966103256443259284e-01
-1.249313848574805930e-01
1.270894204066028155e-01
1.218111359771482660e-01
-1.381462490725527403e-01
-1.720862702568405969e-02
4.511983211306994784e-02
1.663963516841082124e-01
-1.904298628019317485e-01
3.337566529478729060e-02
-6.074428825050019048e-02
2.910099601835686861e-02
-1.306347582541303454e-01
8.728803440041679740e-02
3.288536348762906014e-01
6.333156152991355203e-02
3.746425951464356641e-01
-3.660517135460242266e-02
3.499804760477554511e-01
-6.300491498068669372e-02
1.277255636070323552e-01
1.052878355618112188e-01
-1.516732901508553444e-01
1.269779570462434837e-01
1.152975413789601444e-01
-2.284838282406117804e-01
1.402163725273643247e-01
-9.260587002517683963e-02
-9.925373703304692097e-02
-1.799252470935256143e-01
3.400012407287242855e-01
1.965105299194792043e-01
-1.762178954396723396e-01
2.935302776027399196e-01
9.523435519207565370e-02
2.084568775951795017e-01
-1.964436740789070046e-01
2.973426119411270996e-01
-2.316830718417112189e-02
6.224932080712138743e-02
-1.441173245581778006e-01
-3.781734413929069977e-02
1.929363835749558498e-01
-8.619768993664292389e-02
-5.222270768901803722e-02
2.078002367779768420e-02
-5.119440961394444017e-02
2.719562388941618170e-01
7.048473173797489832e-02
-2.183867488959008174e-01
-1.052411479727099058e-01
-2.749964691734401723e-01
1.394928134270052023e-01
-5.275561992136649364e-02
-3.734639818152675483e-02
-2.738626722161912469e-02
1.330819752988701143e-01
-1.023410387636263102e-01
5.898661670862702378e-02
6.411032299570292026e-02
4.626691369262756620e-02
2.638494636285183825e-02
-1.688632370586381493e-01
2.052545155655658704e-01
1.853392820727668699e-01
2.214200167148895060e-01
-1.927946284064996629e-01
8.547934896472995925e-02
-3.275804882826213182e-01
-8.985907573478804644e-02
1.114215168860411137e-01
1.085525471960494676e-01
2.635621244679579034e-01
-1.079801661955026998e-01
1.634493020279040865e-01
-1.187297419483079597e-01
-8.854141148606606282e-02
-1.556215510384311163e-01
2.885983576663199157e-01
1.035684101718766237e-01
-1.650694890357730649e-01
-1.133191978498171992e-01
-2.820744048856138608e-01
-1.836429473265856760e-01
1.185575794014211704e-01
1.635244960294172656e-01
2.622324784715767687e-01
-2.414368296966716287e-01
-9.026283629621047189e-02
-1.168054354272276829e-01
-2.403526782419036778e-01
9.154530333886679028e-02
1.027193121627515832e-01
1.346784731770266086e-01
-1.093799181208761628e-01
3.737079788821611182e-01
2.409613252653575732e-01
1.933266291469206422e-01
-2.617932244751194903e-01
-2.432898133104201555e-01
-2.543724265442994306e-02
-7.117022007847205456e-02
1.885077985118423505e-01
-1.147537170517627797e-01
-1.063851566745417920e-01
-1.764741645226554356e-01
4.142032432210301929e-02
3.625596955244723696e-01
-5.639798898604969635e-02
1.556510749872863086e-01
-1.296370452213690405e-01
-2.662532517214935002e-01
5.308012910469177281e-02
9.279574584425061279e-02
-9.064193111308375961e-02
-8.135236011669820522e-02
2.122707228838606464e-01
-1.421482636831225277e-01
-4.723386189636889776e-02
-1.889676431026203474e-01
6.975336663233412671e-02
-1.228005644199868657e-01
-2.365688340441436666e-01
-1.068469889666041526e-04
6.705132449071653710e-04
-2.193085176031327188e-01
-3.108824610159816038e-01
2.790103563621593868e-02
-9.005276295444593695e-03
1.065600481820364390e-02
-3.490814808441246031e-01
-5.292819010091387444e-01
6.926838109467199356e-01
-1.121934328061372360e-01
-4.236419114404622599e-01
2.090760320475593681e-01
1.803493855089640385e-01
-2.238773082160591676e-01
-7.670541277541778613e-02
-4.713392227378345595e-02
-5.056504306952294692e-02
3.763893853491805386e-01
-8.394124950321441014e-02
-4.306161176124209157e-03
-1.970526836969167250e-01
7.850996118904207677e-02
-3.432933596758746542e-01
-4.316977637023613479e-01
-2.123631307172606925e-02
-6.405200103395973510e-02
4.236085220110388794e-01
5.450953556952876644e-01
-2.211309488813682222e-01
1.451835963847336076e-02
3.118817848583530505e-01
2.995007630883411154e-01
-4.042123971486127343e-01
2.338675263009297733e-01
2.358831131793086289e-01
-1.609770089223040990e-01
7.381857073469418884e-01
3.582873152064445232e-01
2.594512130914641834e-01
-4.222613541048317320e-01
-2.627229058707197251e-01
-2.447837634758597281e-01
3.633525616913291234e-01
1.638211646889357886e-01
1.357957019376589969e-01
-1.127474691270767271e-01
1.474504338617771693e-01
-1.682466074912829790e-01
-1.840381990279123248e-02
4.013704774351582460e-01
1.179706640718868049e-01
1.293151388708745353e-01
4.288319861672446609e-01
-1.816934438590860346e-01
-2.875001678771876290e-01
-1.457373945798331460e-01
1.938951264579116471e-02
3.249350848753362886e-01
3.102471587340565815e-02
3.297436747078398844e-01
2.003410527522824502e-01
-3.656656928003461648e-01
-1.368391230759089527e-01
6.018398978858691128e-01
3.050412476333599354e-01
1.525227144279985014e-01
1.985118952876035459e-01
-1.354752318784229193e-01
2.746298966663727747e-01
-4.520518213222088910e-01
2.036138881855474037e-01
-1.007458680073506224e-01
-2.611770660684967216e-01
-3.096220532739125675e-01
-5.478096105033974927e-02
3.763790273643751183e-01
-1.853764127527932626e-01
2.053902808216838405e-01
-4.145849879563928003e-02
3.073431886331560170e-01
2.295462225208763085e-01
2.423633416495398624e-02
-1.870064736620713763e-01
-5.816107605723577212e-01
-1.087857786659100073e-01
8.064928739411074410e-02
1.076481138037251595e-01
4.520036913734084560e-01
-4.135168173012860882e-01
1.255542894309063205e-02
3.098383303058079852e-01
1.189180076651890489e-01
1.460597844112424826e-01
1.822365614431060432e-01
2.054723798731654394e-01
5.105342991672663366e-01
2.309925877864170141e-01
3.218537211791666075e-01
1.948452262163430926e-01
2.249436376940420479e-01
9.208473500411577806e-02
2.158843521297261203e-01
8.544623231939709740e-01
-2.045602035572435806e-01
7.813418700253624283e-02
-1.637291544141400712e-01
-1.751853851211044866e-01
2.131845644613180116e-02
1.906320629851226967e-01
4.113120467515191669e-01
-2.045052349794545220e-03
1.161453788490300898e-01
-1.499800967466515811e-01
1.408688978924362289e-01
-2.200685914008534139e-01
-1.955851965767713141e-01
1.753990876991205414e-02
3.818332801190702647e-02
1.716897561131163485e-01
-3.157777358075750107e-01
3.053689525426286216e-02
2.919350760933461797e-01
-3.404629973774366269e-01
2.059203571029832869e-01
-1.210764574069865540e-01
-2.235326261125215042e-01
-4.265539171449816286e-02
-1.323805227551734798e-01
-9.000869318654347801e-04
-9.205382454839321216e-02
4.997796669672111003e-01
2.240321920502252040e-01
1.222663742826910344e-01
-6.424198386447430020e-02
2.075985670315519949e-01
9.120486195014926301e-02
4.817693708852874845e-01
1.904386902891778144e-01
1.894047648280957341e-01
6.917278611924192189e-02
9.150162260069469311e-02
-6.708643937571601157e-02
5.449854676066449854e-02
3.539082596825689209e-02
-6.272142855953645457e-02
-3.813323822825844256e-01
-4.131069450838915913e-02
1.161309973364021836e-01
2.710234863912810988e-01
2.468145235059294312e-02
3.877073923333332339e-01
-2.421137633425212154e-01
-2.952652126579640227e-02
-2.156429862354943827e-01
2.068772217548330572e-01
7.061633684455215221e-02
-1.355878760174922537e-01
1.920005054220659813e-01
-2.124137158131842729e-01
-1.204354268457664551e-01
3.212404960369583118e-01
3.754353359174281146e-02
4.232442699846057366e-01
-5.540842942207328814e-02
1.384882111324328979e-01
1.130230915716413237e-01
-3.606455537545504297e-01
1.135874328930371602e-01
1.081669714581206393e-01
-5.570232882989848387e-03
-1.201642073321270050e-02
2.104938544267412892e-01
2.376985698352422280e-02
-1.877014253218193401e-02
-2.139409189201551542e-01
-1.552574606267450273e-02
-1.942993801505241980e-01
5.207438540945712874e-02
1.822887931388182392e-01
2.481693372772312278e-01
1.630133597024168435e-01
-3.596643306755951675e-01
2.001482539421605700e-01
1.404024279480951473e-02
3.402869448656842787e-03
1.877793134264217345e-01
-2.134585270036419014e-01
-1.015230894158058866e-01
-1.307844614392561222e-01
5.623052895605135798e-02
1.055170968255690900e-01
-1.359214963463352965e-01
4.066849144120745496e-01
-1.859559817770662649e-01
4.837959338686781963e-01
8.928927957824989159e-02
1.258721794266436655e-01
-7.712431154959631385e-02
-2.002251446389407552e-01
2.127952375960617259e-01
-6.002858801316888517e-03
-3.782752331277738356e-01
-1.526196855709665255e-02
3.782387534592850792e-02
2.362389177735314538e-01
1.516015933531556781e-01
-3.970842947228543918e-01
-2.171367525418704814e-02
5.775116282472900382e-03
2.026261967405567077e-01
-4.349783365623515266e-03
-1.109723535140435952e-01
-6.722544600655280811e-02
-7.415543056777033903e-02
-2.741944852036366440e-02
-2.012048720351218012e-01
1.238424418725894843e-01
-1.639444899840018233e-01
-3.758492961964254864e-02
-3.356918209157692679e-01
6.174594150273685078e-02
8.307896688352273129e-02
-2.104754992558447238e-02
1.169010772328200887e-01
-9.636954135418220047e-02
9.743568583920017567e-02
5.501739005438066946e-03
-1.202893398822165727e-01
-3.354960265626823201e-02
-2.390904191504452658e-01
3.171316040716618545e-01
1.708334690896047836e-01
4.477330906462661381e-02
-4.898377271258717858e-02
-9.394110749461020982e-02
-4.203588695156165039e-02
7.563770539554728889e-02
5.294288216081898327e-03
2.771332734360137939e-01
9.606078933533274133e-02
-1.507549795681347171e-01
-2.839352856081555077e-01
-8.696832884820343557e-02
-1.552737510422345923e-01
5.998582221346519805e-02
-1.058399042085475528e-02
-2.797366419496117862e-01
2.152134577876715360e-01
-7.298903642800357028e-02
4.029763793729419785e-02
4.318025124505014273e-02
-3.283201894614684591e-02
-4.351213200198748854e-02
7.111385836366923563e-02
1.485448627463864801e-01
5.599500703236968968e-02
2.266145793198409142e-01
3.535389119453487550e-01
-6.975491020366417216e-02
-1.866387391018400899e-01
1.709264079284820437e-01
8.606588114914116849e-02
7.385451956589207667e-02
-1.579408415818702727e-01
-1.271216179209601060e-01
1.532987656009709709e-01
-8.675055115576132958e-02
-1.278614973935508249e-02
1.985643713412333505e-02
2.624109979368815723e-02
-6.606390544405003895e-02
-1.225325195399503408e-01
-1.169600949883028845e-01
5.967606580266422017e-02
-1.988090549523922196e-02
2.767667833578800196e-01
-2.978292137441139811e-02
1.421545728634516503e-01
-1.207755138748617570e-02
2.135997307003001389e-01
1.442907547778056188e-01
-9.335289565239224263e-02
2.608150000537832747e-01
3.932360150994807652e-02
2.141167213313777407e-01
-9.301880189326054704e-02
-4.653386509381633035e-02
-1.211470293210130666e-01
-1.621098641565216492e-01
7.389584641043536739e-02
3.841102863191626134e-03
1.103574011672738969e-01
1.612675746616546446e-01
-5.558658153801743912e-02
2.716618200626359503e-01
6.680376039744490013e-02
1.957818787442265618e-01
-2.247193129887063434e-01
-1.062537742537455199e-01
4.734424995435291411e-02
2.721167039375373825e-02
-1.617423001367494229e-01
-4.090435575492213510e-02
-7.958369079054752881e-02
-4.515275070625645454e-02
-9.720713916681272826e-02
-3.981355833029475710e-01
-3.233650810245804197e-02
1.520228748183307110e-01
-1.153736653801648235e-02
-1.461830602494922429e-02
6.125509679288857617e-02
-9.151163401639021699e-02
1.244199332667888791e-01
-2.478926764244461789e-01
-1.683657105289972922e-01
1.695107920609999208e-01
9.424565237211084134e-02
-1.058354162255871755e-01
-1.398610592455471480e-01
-6.720856471257304759e-03
1.953089950930397278e-01
-2.323784407453143297e-01
4.793653132078645046e-03
-1.440445490915030768e-02
7.341384206792424261e-02
3.465724695682718352e-03
3.828090257927690282e-02
-3.801866162341485667e-02
-6.342507975843446333e-02
3.119990605772007819e-01
2.069175698500720084e-01
9.286882251001808697e-02
-5.604049398275787880e-02
2.183824140107774592e-01
5.050712694989815954e-02
2.529285042727604238e-01
-2.417401147878645365e-02
2.732426325179471704e-01
2.784930207883383468e-02
3.863070367138889821e-02
-2.022704259451688427e-02
1.536401274457555310e-01
2.364511343670451515e-02
1.882366086277272033e-01
-3.005737445271632891e-01
-1.197184502483601420e-01
-4.736750670541570868e-02
1.025576659649104355e-01
-7.547081333097545308e-02
2.077898588978219219e-01
-3.176447156023393115e-02
-3.118248290802662012e-02
-1.511226033512166611e-01
-9.104928696053588011e-02
6.135780280742977183e-02
6.376249933987047924e-02
-6.375654612052307491e-02
7.521248738873353989e-02
6.741793274475693654e-02
1.690393063281979136e-01
-1.229344425640901406e-01
1.455884444855204130e-01
3.126819770296099255e-02
1.543566804652896918e-01
-2.524854187031731062e-02
-1.218304244824085641e-01
1.233847785709959871e-01
-8.216703502566856387e-02
-4.658793586221079107e-03
1.352134671731179405e-01
-6.312133796544321107e-02
-1.775105054983253661e-01
-4.474532346816607192e-02
1.165486075320060350e-01
6.758303859105063705e-02
-1.693830805318471966e-01
1.197266127699423213e-02
2.312343689522752474e-02
2.455884213027160479e-01
3.526367365232627171e-02
-3.442370191141817803e-02
5.179521924472237776e-02
-2.060920747366881689e-01
2.284730962547261782e-02
6.475093730472912534e-02
-3.067766599382368981e-02
9.534612765676388213e-02
-1.067969369188399298e-01
2.146075875039184233e-02
1.436888968015819779e-01
1.933638385989531897e-03
1.916014601166857456e-01
-5.032922972389155397e-02
3.655349531620261105e-01
1.642899003917780432e-01
1.876714969568748503e-01
-6.565812028676031031e-02
4.294173117307698018e-02
6.715594709105948690e-02
9.799871143057924117e-02
-2.546026706489705749e-01
2.456647540531763096e-01
7.688180468007058046e-05
1.992096706587348498e-02
-1.382502515428387091e-01
-1.129683993510891132e-01
4.351767762074124080e-01
-4.222238178837467992e-01
2.721873802992982871e-01
2.997249576475107258e-01
-1.028026439477311427e-01
-3.034275142616861820e-01
2.457599755115214002e-01
-1.513716579809112894e-01
-1.283162152621392937e-01
1.215754106320323796e-01
-1.740921715967376215e-01
3.067349964149045441e-02
-1.996385412153652283e-01
1.350060536036414016e-01
1.466659084730853324e-01
7.612572000918539639e-02
4.275778462527882184e-01
-5.084075841868218593e-02
1.216301470852474836e-01
-3.358919396797325208e-01
-5.272340619518584015e-01
1.953397582826709167e-01
-1.749263520975498920e-01
2.595507815371632110e-01
1.069987010932469812e-01
3.237594793185589181e-01
-2.020500901593579590e-01
-8.405743801813073124e-02
1.922245723468596068e-01
-2.610900061688098961e-01
-2.107085491331312788e-01
1.731715063223685791e-01
4.904325535944281111e-01
2.695027661337572877e-01
1.571451534536630057e-01
-1.710198044163408204e-01
-1.774315011178911883e-01
-5.778674530964058448e-02
-2.017745089128302749e-01
-2.024921754143074459e-01
2.094579933009651229e-01
1.786155966401923034e-01
-2.847916352769322978e-01
1.201296139244764916e-01
-1.880198111433321051e-01
-3.712874972997322609e-01
-3.255382370975395262e-02
2.935738568070996868e-01
2.166283230214053890e-01
4.033433644172434995e-02
-2.101780133956711871e-01
-5.870789314910469792e-02
-3.082070238465743905e-01
1.630777385639062549e-01
2.607443098329590980e-01
2.834138199591937357e-01
-5.580623280206469250e-01
-1.054451511296801008e-01
-1.151235042119869850e-01
-2.937614126307864781e-01
1.554827553948238406e-01
-1.618036932479229306e-01
3.387433132590615403e-01
-1.362741049848385788e-01
1.569990319839459358e-01
2.033894755667770560e-01
2.692845859663331454e-01
2.183498307711728703e-02
-1.742684353537890807e-01
-3.309095989912918395e-02
-1.386288632107198771e-01
1.049298600408778981e-01
-3.309959778337339537e-02
-1.211346003497966728e-01
-1.968845807722532371e-01
2.038496906265621356e-01
3.624467995461762571e-01
4.140626826152175866e-02
5.191749715256199771e-02
-1.967629634632254432e-01
-3.972197454965940566e-01
2.197385650807980317e-01
9.942469634842868165e-02
-1.253480645422527795e-01
2.525410615927751665e-02
3.387445064167863285e-01
-2.531028291642064554e-01
2.455564547037765721e-01
-2.913700186262397351e-01
-1.327665379294994293e-02
-3.345812043862617102e-01
-2.033679269283941715e-01
-9.803495263519342029e-02
-5.851862200502082334e-02
-4.356589684491771197e-01
-5.043167190139700162e-01
8.355353763245930432e-02
6.047338795121376398e-02
-8.018006126405899381e-02
-1.189305892586752234e-01
-1.199904649256249706e-02
9.914745759860144059e-02
1.869311007705488636e-01
5.423636897163514742e-02
3.334591636370771300e-02
-9.607957417522099142e-02
1.371498852652529576e-01
-2.167160480855277738e-01
-1.125183678844919738e-01
8.993905275313192338e-02
4.045501890792261440e-02
4.181010692258784606e-02
-2.279898477816630631e-01
-5.280623185345734855e-02
1.843132514117989951e-01
-2.188350230699515619e-01
1.032713196281949963e-01
3.201464385034822387e-03
-5.780248359100764732e-02
-3.101102738054069968e-02
-6.823436446957391321e-02
2.663869406386571922e-02
-8.562774306886733466e-02
2.953423153459843742e-01
1.754767095342280592e-01
5.941540450344954399e-02
-4.734349074423126191e-02
1.392345093110776977e-01
-4.610683998991345345e-03
2.730390980716229099e-01
4.841339219865154614e-02
1.469644233493782315e-01
6.554831668786265109e-02
9.880425236647000578e-03
-4.651519464568943003e-03
6.089714372052609098e-02
-6.711723044542655670e-02
4.458986834421187900e-02
-2.667524875529999617e-01
-6.454562836462182131e-03
-1.062870268723667584e-02
1.460889006711567628e-01
4.287150754351981563e-02
2.346627129831777014e-01
-1.396233727342816311e-01
-2.232245524030779249e-02
-1.174847405556943281e-01
1.015559589952851616e-01
5.780144462933282240e-02
1.388834073727330740e-02
8.631971057688578308e-02
-1.337304676243100954e-01
-4.828410703498973305e-02
1.714882847237584329e-01
3.225517425972057595e-02
2.609034126632487349e-01
-7.756157501627805595e-02
2.894789358484465766e-02
8.460903746328803099e-02
-1.992436148308379951e-01
1.060052241062916373e-01
1.005231481260769090e-02
3.057929039278090011e-02
5.243297945132740362e-02
1.316919537530308049e-01
-4.092692266961919095e-02
-1.121441531439851605e-02
-5.202924391323073688e-02
3.659013310027639521e-02
-1.358737972072273925e-01
-5.412375246852974345e-03
9.148085200278835427e-02
1.599787762671719404e-01
1.881155822591208324e-02
-1.274953532686147473e-01
1.357763025204545004e-01
7.391049840025795681e-02
-2.403425757264160065e-02
5.140939626863221673e-02
-8.393949946699426345e-02
-4.593804933684184078e-02
-8.429566855317291441e-02
4.783400517507046396e-02
1.558113769965222550e-01
-2.262455654319941653e-02
2.686429481295090627e-01
-7.530102392863952110e-02
3.340229177009610417e-01
1.273080097026488625e-02
1.044126450007763773e-01
-2.927705712795875687e-02
-1.145553857935835002e-01
1.168851695744891062e-01
3.375251863408976899e-02
-2.533650736967407724e-01
3.088529105076518941e-02
-1.498220933115232585e-02
-9.988115146449935700e-02
-7.772110316444111322e-02
-1.707115934367594567e-01
2.965674784572069345e-01
-3.086308871094427531e-01
5.152097082099717229e-02
1.424675944122856530e-01
-2.350580331542775556e-02
-1.708389127975704358e-01
1.071067937778811541e-01
1.348418253615491294e-02
-7.574624588524939139e-02
2.979121733810555575e-02
-9.260963368313351873e-02
-6.920502889475331487e-02
2.406350843020564948e-04
1.604050479083118375e-01
6.571239172194608125e-02
1.597522228836440739e-01
2.244943783312020325e-01
-3.827692552439836832e-02
1.472407041658302385e-01
-1.806223430410012487e-01
