-1.741134516104091189e-03
5.907102185862839888e-03
3.042516524815357722e-03
1.259531838797469522e-02
1.643485933491519585e-02
-1.132438188875667384e-01
1.995052417529967134e-02
-2.505266137446313102e-01
6.979626137835259758e-02
1.126880841525082222e-01
-6.539020668359244240e-03
2.699546228512010315e-01
1.789544502753656965e-02
8.964333760017414998e-02
-4.361014371069188260e-03
5.653012774634903481e-01
-2.573553871667879061e-03
5.056274449341751492e-02
-3.522660175791442194e-02
-2.849253022337121678e-03
-1.020654878471797533e-01
1.912526803805979919e-02
4.749606451631099152e-02
-1.653187935706630640e-03
-6.915582317793975142e-02
2.820737881931896784e-01
-1.072879860613713959e-01
9.473261409899537411e-02
-6.069536007260780547e-02
2.030501131191364550e-01
9.305458777649942836e-02
5.542599254844600767e-03
8.237000842029401637e-02
-9.399578744132022767e-02
-2.656761012535621344e-02
-1.235406019698215979e-02
3.371603615190796668e-03
8.922917391961146527e-02
4.011855081729437389e-02
2.486488841408519557e-01
-4.697153937763851733e-03
-2.557227119488138592e-02
2.524565618653871191e-01
2.483754206417330967e-02
-3.295616285637752510e-03
-2.227894359649892353e-01
-9.320759052193733352e-02
-1.811785810707305100e-01
-1.623127963549891861e-01
7.391420575100359804e-03
6.362176631038431347e-03
-8.491914095352047498e-02
5.835634538776270260e-03
1.118786420363863943e-01
6.926900691451864933e-02
1.828285268728080115e-01
3.481571144374576848e-02
-1.697296449567405607e-01
-4.679262080612053842e-02
2.492457122721258855e-01
3.370952814158404559e-02
-3.257691977308290344e-03
8.036427145646398221e-03
9.023827994250729900e-02
2.188381337365702395e-01
5.867841977047771624e-04
-4.995007598693362860e-02
-2.031866961472828526e-01
8.875299301315509037e-02
-2.955920194219391894e-01
3.962143469113212253e-03
-1.880138160468829978e-01
-3.190598372160705770e-02
4.254612625383517172e-03
-1.726158809170952324e-02
5.904802063362492998e-02
3.623686970026942979e-03
-3.117354452187829916e-01
-1.050296118495795128e-01
-5.206537660665574996e-03
4.875705448330090210e-03
6.121955265921932149e-02
-1.152734679303448195e-01
2.858794100855207021e-01
4.062857103577865309e-02
-1.376188904824137693e-01
3.114770607852857670e-03
-1.271394229421221045e-01
-1.458272650993618913e-01
-3.958754461418803605e-01
-1.094039234184138731e-01
-1.866792136318555784e-01
-2.139527835744765294e-01
8.045497541385156302e-04
9.388215595412990888e-02
9.750828864118586681e-02
-1.690882612989239864e-01
1.467761995323293434e-01
-2.351025962326847019e-01
1.577785147117970743e-01
-6.377050828259127509e-03
1.756228152465597742e-03
-2.601223034713319622e-03
2.174038875182823446e-02
1.732272887215940277e-02
-1.691716769342486992e-02
-8.972532597041924657e-03
-1.097696524801849149e-01
-1.814927684916482417e-02
9.397745246999770347e-03
-2.849845756358840299e-03
4.480538734855831623e-02
1.839882384211322108e-02
1.692512385930975555e-02
1.791698244191756214e-03
2.392821510581321920e-01
4.193509843757976460e-03
2.597908688673068733e-02
1.681246072432211747e-02
5.102999259804580834e-04
-1.249537157835174522e-01
1.010200168415602978e-02
1.996518603758047281e-02
-5.363907865171866664e-03
-2.461307881232242464e-02
8.353754353275066880e-02
-2.296600717216849483e-02
7.914733851460534209e-02
-5.148727374236618942e-02
7.336572256535531245e-02
2.262812196125958339e-02
1.068708962633769383e-01
-5.944901311262563298e-03
-5.751260094216460728e-02
3.008092179536278957e-02
3.629138856962992044e-02
-1.627166388795502419e-02
6.348780498198985933e-02
1.428333839359015832e-02
1.068995531156637507e-01
6.526175595897447217e-03
-1.739226036224379018e-02
1.431982569989507792e-01
-2.154308753671387629e-04
-2.911368133780124247e-03
-8.768372002999696990e-02
-4.557105210333926154e-02
-1.111058633863047235e-01
-8.158990462579818193e-02
-7.015883937235753084e-03
5.554958643936014351e-03
-4.167446698651109532e-02
-4.865559253096890871e-03
1.292615493503707080e-02
3.187715967012779567e-02
1.188734004788776499e-01
7.737599956707379156e-02
-9.161950140976238277e-02
-3.141456408989434790e-02
1.053521999007569210e-01
3.666037966670161047e-02
1.726039251287184162e-03
-6.181442801182981950e-02
1.239207212394541867e-02
9.883730673178167669e-02
4.539075714057192769e-03
-3.880294412781895574e-02
-8.991677901787874239e-02
7.102147727772721575e-02
-1.023870202392972717e-01
2.647805250778375100e-03
-8.574232005484108687e-02
-3.530456030945070683e-03
-3.725296593611573861e-03
-7.657784834364069967e-03
1.091676203450425708e-02
2.579430291761298892e-03
-1.364251953304472798e-01
-6.033691713705503085e-02
-4.917282395758580671e-03
-2.222095205053392121e-03
4.214757003756684772e-02
-7.069320118329856795e-02
6.051103726167166019e-02
3.194493908296945628e-02
-5.102576418734754843e-02
4.305148818144022109e-03
-6.798180701914940949e-02
-3.422141096496775226e-02
-1.873997115676470926e-01
-4.679280650714290335e-02
-4.799362326303394100e-02
-7.631644916722263305e-02
1.851392517968300944e-03
4.018201780218691455e-02
4.075580192026592719e-02
-8.141704255761063325e-02
8.147468185329408141e-02
-1.396100231838669770e-01
1.682438649659914187e-01
1.926383292471115080e-03
-5.641732016890761356e-03
-4.581392660045756002e-03
2.694313069068226662e-03
3.741206622795567246e-03
-1.317919236648978573e-02
-3.567698724653301564e-03
-2.411362534123590202e-03
-2.372000414485999319e-03
4.377640928278764103e-03
6.598413118920110109e-04
1.860689547776072858e-02
3.520150646002923132e-03
-2.769111783186368125e-05
2.880252891344946015e-03
9.168268181067709688e-03
-2.367889842158276900e-03
5.774432931259065004e-03
-2.674240929895362138e-03
4.733355363071406995e-03
5.296987598605996765e-03
1.151557007844836427e-03
-3.829413906164113625e-03
-1.787001087807912067e-03
-1.278750953186051989e-02
6.818717791567588567e-03
-2.998047857607803561e-03
4.932932511480272965e-04
2.151449492658271973e-03
1.345554389608688735e-02
7.410973423494980790e-03
-8.207004437585764881e-03
9.788449211042642845e-03
-3.878013782076856868e-03
-1.125315035929186532e-02
-1.732586942184582458e-03
-7.450655477121634340e-03
-1.649495788853564673e-03
4.744469411473647980e-03
1.093469566633815081e-02
6.008116777048740434e-03
5.083413801983459844e-03
1.917432078365638101e-02
-1.507780039838018315e-03
-6.580131233986387905e-03
-1.124402997862893538e-04
-6.897517697357814434e-03
5.733539222555818562e-03
3.950447576931978046e-03
4.036072637873916805e-03
-2.789484484618992132e-03
-3.530668924616597523e-03
4.757617705845113704e-03
2.373671471188132289e-03
-3.295811673295700821e-04
5.840013868387734786e-03
2.804461852104866114e-03
-7.388295310208774051e-03
-1.599684449526257669e-03
6.515235893144473607e-03
-1.559245298779647409e-04
6.639523686399346689e-03
-1.565400913143313562e-03
5.038658946600083587e-03
1.049196041801992059e-02
3.263508368525287143e-03
1.283537678653368921e-03
-1.456313972505218161e-03
-5.360744756410303936e-03
-2.229135144304638869e-02
4.193563860936800995e-03
1.124697587875404060e-04
2.929348932533181338e-03
5.606631816599095576e-03
-1.273136648647090483e-03
2.663540455819801873e-03
4.039753152852394030e-03
-5.648249072892069268e-03
5.231829974371588095e-03
4.011042886126048659e-03
5.288233059005963133e-03
-1.896078865125565196e-03
-1.579795381511644916e-03
1.191314793373872416e-02
4.906182541329034801e-03
-9.174648381148819629e-03
-4.656665412171288898e-04
-2.312252168316912809e-03
-9.691330941827273893e-03
-4.781712433927469072e-03
-1.699768249387171790e-02
-1.989730060963247615e-02
-2.144626158599758498e-03
-1.890802502037871148e-03
-1.830089373465771134e-03
2.411120580144529742e-03
5.323133679214683486e-03
3.016597154156214038e-03
6.830545104783112024e-04
-1.338931754753117272e-02
-6.071871350740054574e-03
3.714348465912659168e-04
5.318889010466948310e-04
-4.041804601356890903e-02
3.092552231860613756e-03
-5.374259882553042433e-02
1.208653698660993453e-02
5.359329697922776692e-02
7.193491229335324810e-02
4.794996195516492560e-02
-8.308508515547402985e-04
1.062174700798229621e-01
1.346363756271817119e-02
5.307138652028646486e-02
4.564199978091702803e-03
4.590830706402383721e-02
-1.297455323142020396e-03
4.360751409135118530e-03
-4.967264115290913329e-02
-3.397851975791794932e-03
2.195550521235511421e-01
2.647001218496405558e-02
9.884968284225145729e-02
-2.980355543855429945e-03
-5.349264914803002202e-02
1.352160916038962907e-02
-3.699347238568399115e-02
-1.061239817109655738e-02
-5.787457823539730872e-02
9.297302612135067978e-02
7.899429712044219939e-03
-1.822107789840642644e-01
8.301627532821589939e-02
3.763676765917878947e-02
-7.841998527167183541e-02
-6.452893556505925887e-02
-1.638796716717713653e-01
-3.934306465881599185e-02
-1.992521098310873900e-03
1.540173535461888954e-01
3.492897747608842145e-04
-2.639372721564904253e-02
1.636138620466777993e-01
1.024730038208001605e-02
-1.497634818647851406e-03
1.471856896432782204e-02
9.457812237011555684e-03
7.926649962367462998e-02
5.748163893422579551e-02
-3.266999169827151939e-02
2.062041090867360564e-05
-2.193823004151091924e-03
2.162460397827967781e-03
6.090791550804734722e-02
9.266774659763882607e-03
8.696664348164497016e-02
-5.662276212611733195e-02
-6.659491307165363305e-02
-5.170578422668516139e-02
3.582976706019803947e-02
-1.093394819250862772e-02
1.878566271865550821e-03
1.759260042460824569e-01
5.130330133494057088e-02
5.992430471304403122e-02
-1.539310991726269362e-03
5.424864764925382832e-02
2.437345970686080956e-02
-1.009594123855852288e-01
-1.298378248979955296e-01
-5.089681742623405891e-03
1.367255823314473921e-02
-1.807754974053507255e-02
2.477504052846339448e-03
-2.551278404841016752e-03
1.471160240342586634e-02
4.608133018090347297e-03
1.481520683484183892e-02
1.204286468014637845e-01
-2.969872653464629766e-03
-5.072187194810147751e-03
-3.491386753784922470e-02
7.362746916818058152e-02
1.617777254716864510e-01
6.804609497857663607e-03
1.658097632358216875e-02
-2.907204098288102955e-03
6.767033914685953444e-02
6.407990484776833820e-03
1.174998826039355820e-01
-1.481570307780326057e-01
-1.348572874797459575e-01
4.570344609977099182e-02
3.701633932641460335e-03
-1.808519501041529892e-02
-9.422575569761377709e-03
1.219122807815956333e-01
1.209769242489291546e-01
1.576123749792026074e-01
-1.928268393786238821e-01
-5.378490627746927016e-03
5.455473362392112592e-03
7.235172537577294204e-05
5.769677383775434140e-03
-2.251729469542739382e-03
3.321297218590868894e-03
-2.269887436778585035e-03
-1.376380419371909386e-02
9.360243030317237298e-03
-1.976056429325267463e-04
-2.453718501484711528e-03
1.935952103627704840e-02
1.171932572598086315e-02
6.621573949912398262e-03
1.789624222069035328e-03
1.378784001961091618e-02
-2.805353051148303922e-03
3.341664471223543525e-03
-3.923776549226750364e-03
3.420888746259625676e-03
2.172597387739665098e-02
3.270679964580377238e-03
5.342288689586279296e-03
-7.162330078535354878e-05
-7.003024181226169542e-03
7.001471692722350398e-03
-2.434953695156626824e-03
5.722299944050050942e-03
-6.563668258522191434e-03
9.461728670011762196e-03
9.613598288864575814e-04
-1.161127934827655686e-03
1.184163521487879324e-02
-8.638095887736453940e-03
-5.976820286582831994e-03
-2.519742337322000789e-03
-1.700570377706801806e-02
2.907212485737252668e-03
3.239228113915878279e-03
2.279689115970568586e-02
-5.577019609851228445e-03
3.100449445967016701e-03
1.886722578159659783e-02
1.144814293180269850e-03
4.239450970241865659e-03
-1.278971155305477954e-03
1.012733021049501761e-02
5.972360419107754052e-03
-5.591184729274851356e-03
-6.183584286730642483e-03
3.758458638481077148e-03
1.858870338675407477e-03
-1.030917349050055904e-03
1.439488585287968837e-02
-2.266233212169239519e-03
8.173606441433764469e-03
-6.751198791056641987e-03
-1.071445403662694106e-02
-1.027779984452909141e-02
6.759886245108141789e-03
-1.003353562897654067e-03
2.019551334716027970e-03
1.333136108102146548e-02
9.696296580660783426e-03
1.242408014839222787e-02
-1.695547502282045106e-03
1.479418569624451479e-03
-1.582313408066801175e-03
-4.391493212619101798e-03
-2.827057463443174035e-03
-6.610418146425761990e-03
3.267649236148109822e-03
-7.625966343548817514e-03
5.306165161564795237e-03
-8.177301698639524588e-05
1.134647535073491156e-02
-5.776812740444666611e-03
-9.481491933348037623e-03
1.489501705345522460e-02
3.116524754144786081e-04
1.756908319068737311e-03
5.160689015427900699e-03
-1.191519474646858751e-03
2.262190447389190659e-02
3.016537277412471266e-04
3.984800022156577935e-03
-6.161941158522572445e-03
-2.598717685375240023e-03
5.876724248737087188e-03
3.683685713480839858e-03
-9.325308203589991254e-03
-5.169500070784554917e-03
-1.175513135509478847e-03
-4.227426150918311976e-03
3.105409869510810522e-03
-9.823111885759990350e-04
1.966796921557969081e-03
1.021474474887277065e-02
1.066907792581594377e-02
7.828960369480122972e-03
2.684730762550630902e-03
4.085243063202716185e-04
-2.676036061851228692e-03
3.451354499125167119e-02
1.149414776327407038e-02
-4.569683719178290610e-02
-6.737685758498566241e-03
-9.936950175142418573e-02
5.778489790596055137e-03
3.954760966203434841e-02
1.493681721369903006e-03
1.484703738329818945e-01
2.726040289128764740e-02
7.805943692894259933e-02
-6.172224467739707669e-03
2.099702954463893989e-01
-1.647801271202703694e-03
3.072372439033852626e-02
-4.882288416889134469e-04
-4.758229673989138042e-03
-5.913249925706123150e-02
4.473795843688172305e-03
5.374807123631334879e-03
4.709945080704255015e-03
1.592015325911524557e-03
1.054816140869573732e-01
-2.538565102514722671e-02
1.153479278449948825e-02
-5.686000032072572458e-02
1.260124070256018192e-01
3.866815314837247081e-02
6.643423892593909585e-02
3.726748346512143151e-02
-4.887309759458183939e-02
8.921417812582139659e-03
-1.468907504665945083e-03
-7.327997729169677399e-02
2.766363704371075857e-02
1.092007210711934059e-02
9.857674200347184279e-02
6.567464278848108954e-03
-1.624484924622213514e-02
8.709415367829238808e-02
2.496850164876490002e-02
1.604471326274327326e-03
-8.292113968747455433e-02
-3.748799171588725054e-02
-5.431961261652858142e-02
-7.032913019465694693e-02
6.191509573817349961e-03
2.912056412834895282e-04
-3.654280395324215058e-02
6.565182303960080765e-04
5.935425338885864238e-02
2.099735413489157987e-02
2.889355370250096949e-02
-1.147596113944819064e-02
-1.240342739337794292e-01
-3.917821283677384858e-02
1.109100694072208820e-01
3.259992689062004428e-02
-3.973450573634927652e-03
9.264780313086744268e-03
4.155307886434152220e-02
5.508864847846533380e-02
1.225136712956107496e-03
-2.662814964681694402e-02
-1.054603319230848768e-01
7.109243887181747323e-02
-1.063068668326676847e-01
4.179073228157385183e-04
-6.780147931025153063e-02
-3.066769353132080007e-03
1.655823371844241006e-03
1.603114227263948864e-03
2.103223296130381920e-02
-4.793026419337723977e-03
-1.343922491026692811e-01
-5.261835705147502318e-02
-3.279114693967765705e-03
-6.133965833390926268e-04
6.072324322750635023e-02
-5.483019249297951814e-02
1.710277161666658163e-01
1.332024481418950419e-02
-6.154084942769513095e-02
-5.750261642145300042e-03
-7.262149411484397632e-02
-4.515314285717143133e-02
-1.748244339540355463e-01
-6.341295843586454428e-02
-5.082560520229320589e-02
-7.329150555151654756e-02
-2.057053127499118995e-03
6.170058944551608249e-02
1.644657312305395150e-02
-6.329945997247132805e-02
4.616136530646176850e-02
-1.169714489593060014e-01
1.127308912935344187e-01
-4.487868096747916861e-03
-3.003158739754809622e-03
-4.378243661306167357e-03
-5.725982392470230914e-03
-5.102911496086545880e-03
-1.590967374042258310e-03
-4.021460123888935707e-03
-6.933092427302786978e-03
1.943366158803688272e-03
6.931731419669418144e-03
-6.249104166846066594e-03
1.130072256110111611e-02
4.572902807187294652e-03
-2.354557554235664919e-03
5.066707085734980902e-03
1.525683016621906009e-02
-5.953241841475064716e-03
-9.211575830461325633e-05
6.875887829746307051e-04
3.366491649989166758e-03
5.247557533856787686e-03
-4.642416689828930861e-03
3.451949436977459155e-03
-2.058215651807929474e-04
2.262557214193117346e-03
4.086037637218810532e-03
2.793973671308352491e-04
1.752184424203908275e-03
-9.233492141118522512e-03
4.549360626537158649e-03
6.646356816141424373e-03
2.640811786376973808e-03
5.205367492637251979e-03
1.587899069256751034e-04
-5.061880585841519765e-03
-3.692616775558084461e-03
-5.944850833145868055e-03
-2.238535439977667844e-03
-2.884948768898347796e-03
9.957439787972116596e-03
-6.518680105559500164e-03
-4.001752461198463014e-03
8.141601768997081337e-03
-7.103029781671008156e-04
-5.159468988602740856e-03
8.571595254806809111e-04
2.628170239047935512e-03
3.593709276423637938e-03
1.069411528619751634e-03
1.941108311405711042e-04
-5.601139765292839287e-03
2.820418132457851862e-04
1.175985803368120126e-03
7.454605678569108454e-03
-1.120198756314521384e-04
-2.808912132940365528e-03
-2.983425619849123037e-03
-6.229603546262858088e-03
-5.154429796555204044e-04
7.003995043789845720e-03
-4.695783998137409887e-04
6.594374106227878125e-03
6.562307295692790428e-03
3.396174265344519753e-04
-3.310919268773874959e-03
-4.706560813020098551e-03
-1.468779151501434363e-03
-9.408659859659858696e-03
-4.854154925222751993e-03
-5.857413074981275211e-03
-4.432584806017677778e-03
2.644187607103227165e-03
-6.305551327708273229e-03
3.354310929172390284e-04
-2.072765389720798886e-03
8.738125080452753199e-03
-5.259780567148480447e-03
-8.258219515022141924e-03
1.068906405106876192e-02
4.955255416842383083e-03
4.300437200890802093e-03
-3.164593473303591465e-03
-5.703641116441877587e-03
1.331639079356693872e-02
5.380182645838038277e-03
-1.121987237268909886e-03
9.719748219545295198e-04
-2.013236165335783971e-03
2.855515807097390533e-03
-7.557221751679398664e-03
-6.264984615818584845e-03
-3.474140867786372402e-03
-7.888462765096913940e-04
-3.498249792736702821e-03
-4.412263140596250389e-03
3.061890696379836446e-03
-2.917838691829847605e-03
9.032378220622980583e-03
-3.534363249710293243e-03
-1.533592485556774980e-04
4.432586844318504729e-04
-6.119755798158017270e-03
-2.165562115763247295e-03
-8.778574041970157310e-03
7.078987071694368451e-03
-1.075469039655322506e-01
1.627148733176687900e-02
-1.529205153129959693e-01
6.907422991645358057e-02
4.817035231234367137e-02
3.527705297255734687e-03
1.776206059712179264e-01
2.519751592199805448e-02
4.609290080648301147e-02
-2.038953093915272293e-03
2.561333770820647393e-01
4.466416909407265601e-03
5.091417964412929542e-02
-4.472349039949442134e-02
3.132470240780181863e-03
1.042452662043725359e-02
1.527986696632328834e-02
8.580587740171910505e-02
3.278805155737104723e-03
-9.974288024652161466e-02
1.007784842755356375e-01
-1.065101358993030822e-01
2.936587432573408568e-02
-5.123279765468833485e-02
1.371463746157287333e-01
3.633488093072308883e-02
-1.767144385521198999e-02
2.455820079316784615e-02
-3.169237060984059044e-03
-5.769731170351786315e-02
-6.527598981679330614e-02
-7.833221713188955049e-02
8.784026024632739542e-04
3.560165952852406036e-03
2.792119151926507059e-01
-4.501968716334446585e-04
-2.646245126702725589e-02
1.552448244255179022e-01
2.842187844936798404e-03
-3.825353866605183534e-03
-8.478941798198488811e-02
-5.026150705971461907e-02
-1.537309385740601338e-02
-9.506339514725815898e-02
-1.257968343830748355e-02
-5.220098148995122068e-03
-5.367495169473700950e-02
1.674598729011045123e-03
9.855068371002055627e-02
3.466230928459555771e-02
5.675481597258255628e-02
-2.828279393185215498e-02
-1.040347320596049646e-01
-3.171948119060362392e-02
1.806471371033872841e-01
4.117227643187056085e-02
-2.652763467771050016e-03
6.009889814387390367e-02
8.801004325698623398e-02
6.771989056472157986e-02
9.617512395663731966e-04
-8.963472778661931914e-03
-1.131385858777928244e-01
1.616330438789096921e-02
-2.536837015055967703e-01
-5.263303500373634446e-03
-6.702643079583169017e-02
-2.285638909965417159e-02
-1.380771720012434695e-03
-3.068057275220168259e-02
1.253315100748429896e-02
-3.743208566989949821e-03
-1.506584364445917867e-01
-1.648237644753633825e-03
1.874529670360050668e-03
2.746197346118763125e-03
3.960355058721407029e-02
-1.173317482146998825e-02
2.228583719237761662e-01
9.157406553960651535e-03
-9.949437187834159202e-02
1.124536395099142837e-03
-3.064239514514768836e-02
-1.154163975017001992e-01
-1.281998826103260269e-01
-1.646492052028160347e-01
-1.320775113983890803e-01
-1.676213828352675350e-01
1.568690966477413046e-03
5.432172072051246609e-02
3.489286713848809701e-02
-7.275234967875286729e-02
1.448740480464953129e-01
-3.825481821301418561e-02
5.574909935078557754e-02
2.810694151680285385e-03
-4.713759468664857448e-03
1.040421490255586702e-03
1.840671699874564277e-04
1.499118013894027227e-04
-2.067645438623532522e-04
7.263812880249648912e-03
-8.758872088283351561e-04
4.408733517927560831e-03
4.617281975564636008e-03
6.573054177734038474e-03
1.902194075392079492e-02
-1.937642241721015870e-03
9.539312472424892053e-03
5.017910137120617370e-03
1.189874372702175338e-02
1.234926985454245889e-03
3.023362089812378813e-03
-1.038018585945248498e-02
-2.235203410529444049e-03
2.186452308962046412e-02
-6.607285679693227116e-03
2.000175986967225265e-03
-1.374562327166101681e-03
-4.499268579262144171e-03
1.270749349120585577e-02
-9.163584417549264921e-03
-1.508199425454357073e-03
-1.114044351950111865e-03
1.006956394886160573e-02
4.053511785339489713e-03
-1.026352281697160904e-02
7.423544777780917599e-03
-9.271584946173788006e-03
-6.043552552627605781e-03
-5.446345096736383666e-03
2.241061183271786123e-03
5.081581342139153542e-04
1.998215170738652617e-03
1.493920714007666156e-02
-6.649549760655426058e-03
-5.279758154060838938e-05
6.154238970233278511e-03
6.618018384456609594e-03
-4.770693570687364882e-03
-6.497215721950649198e-03
-2.602622356227593612e-03
1.959604595726386830e-03
-3.049937844860830128e-03
1.112372834010497092e-03
-5.872875389482518776e-03
3.611875213823941260e-03
-3.935704968216605787e-03
1.091731265862678525e-02
-9.895091755217219013e-04
1.538512005698064380e-04
-1.059714718837039167e-02
-7.791134566952137054e-03
-2.355009947123752612e-03
5.017276103097293924e-03
2.570492061140630061e-03
-6.389143983108512906e-04
-3.942499918958065918e-04
5.366300374516325133e-03
3.138582631251477743e-03
8.081897905451183644e-04
-2.365905215964426208e-03
-9.502386475001923030e-03
2.364688317901462306e-03
-1.068017972469617431e-02
-1.719261404818745505e-03
-7.864500660036721422e-03
4.885172875881127735e-04
-1.233490660502854080e-03
-7.972922293869472501e-03
1.290431972852842100e-04
2.924925915689352129e-03
-4.655313151119569448e-03
1.290213711096719338e-04
-3.770029502881945115e-03
-3.645771325402137868e-03
3.055589853788330881e-03
-1.165214341914772370e-02
9.392127155240936540e-03
6.546788651833037632e-03
-6.390622853373025339e-03
2.071909164857975612e-03
-8.492554595886237304e-03
-8.631418627455377662e-03
-7.948335650963252869e-03
-1.113543805005461768e-02
-7.661244742145717490e-03
3.627050374218338327e-03
-1.397557239456344519e-03
5.312310113062643224e-03
2.240751743224182746e-04
-4.215981898333290290e-03
9.030321133642415718e-03
-9.010608798959100080e-03
-1.013952943413268422e-02
-3.945832370436558843e-03
-6.434155512629141822e-03
-4.298420179235418886e-03
-9.074742813540363773e-03
3.530600662523277183e-03
-2.463672540604715938e-02
7.974374444305034823e-03
-2.479067284515142425e-02
1.900132786459730883e-02
4.285917109005752540e-02
1.206847629006848385e-03
8.986456323564227799e-02
1.657834468424182126e-02
2.975460010328833879e-02
7.222560081670355205e-04
1.016514101558186195e-01
-2.800281127755918642e-03
2.086445940456323200e-02
-3.181575025862968392e-02
-4.889878865646770691e-03
9.062380139881927310e-02
-2.380962227358813989e-03
5.697665528421593656e-02
4.102111250716778366e-03
-3.721065116077115070e-02
5.208352772414282655e-02
-5.793676632714669927e-02
4.166398984182213133e-03
-1.602619207687258282e-02
7.918865561686737331e-02
1.700373452701998273e-02
-5.244860730902698581e-02
6.240631544239618606e-02
-1.354562748327360969e-02
-4.281787468157414317e-02
-4.633013875757815286e-02
-6.787558013148888014e-02
1.512594066435608842e-02
3.886214114050527951e-03
1.358077574731635095e-01
-2.701611867959080940e-03
-2.860188252328444650e-03
1.011339424970842532e-01
1.391101069618380301e-02
-4.004883887332021976e-03
-3.904018353917344808e-02
-2.118295325983771821e-02
1.516806479833085128e-02
-3.298305648365163715e-03
5.931185514651936795e-03
1.359469133000805983e-03
-1.834942487572066572e-02
-4.413553422714545406e-03
4.443504742607095465e-02
1.177610767410613470e-02
3.498189668638249095e-02
-1.608823477545124822e-02
-3.137983721650042246e-02
-2.174735713715199650e-02
6.608377057131768761e-02
-9.743516092281804403e-03
1.370030031515364049e-03
5.528703495459922485e-02
3.396599752948725737e-02
2.888113025088712843e-02
-1.961400490404796061e-03
1.185728745799597209e-02
-2.529937487263377374e-02
-8.156757833914446768e-03
-1.010555814026853072e-01
2.253202053714960153e-03
-1.233628789988675326e-02
-6.942455839395205407e-03
-3.841501962350614332e-03
-1.432782245444042153e-02
1.281040820669139893e-02
1.287398299933050546e-03
-3.393617923134356618e-02
2.436666924319313282e-02
1.308846848331864402e-03
-2.236907100661401741e-03
2.126573984289152012e-03
1.882532360023799964e-03
1.120340619062638043e-01
5.821950440480496043e-03
-1.100349125086087267e-02
2.564914484936680391e-03
-3.906144727794212766e-03
-2.914807087949081860e-02
-6.635933800191614468e-03
-7.231791578868049242e-02
-7.334603499061348453e-02
-1.930715453147808028e-02
1.263109415165853842e-03
1.163633601934391422e-02
6.656557911472136928e-03
1.992720469401004432e-02
6.693895452724553385e-02
2.163424050816357275e-02
-2.523898318240328301e-02
-4.251430801006935746e-03
5.412354205029957501e-04
5.060395537259434508e-03
7.155382127473166633e-03
5.949113773782680956e-03
-1.002714140177356390e-02
2.461502003382265782e-03
-2.337686664176328449e-02
1.626901537997483757e-02
6.896108203056192099e-02
-3.817442084768521947e-03
6.232410417443885048e-02
4.891278784504327765e-02
3.209368212550020583e-02
2.788643016892185505e-03
1.256748611213335809e-01
-4.335739399556903968e-03
5.009002877209126764e-02
-4.808878459973340430e-02
-6.327509978036283296e-03
1.231755638389983865e-01
-1.453525547679123710e-02
5.336340849201121062e-02
6.405550236100940320e-03
2.272661754988380620e-02
5.896665974783208558e-02
-7.254100168905594677e-03
-1.697957880647134364e-03
-3.422015840715468549e-02
1.077939940740111485e-01
6.087929262858986224e-02
-2.519353724255872853e-02
1.194615105468621874e-01
-2.518125681424859472e-02
-2.955115793401727909e-03
-3.062030706308354125e-02
-8.286279930080299450e-02
3.233872441965499056e-02
-2.644638599357553108e-03
1.523094109526368645e-01
1.022888544602734446e-03
-8.189756236015567625e-03
1.444728058726726105e-01
2.233701608169583880e-02
5.234461829022089840e-03
-4.036846766209916532e-02
4.098305206229787417e-02
-1.583294993199229825e-02
-2.808605648864421871e-03
-1.030202780208274750e-02
5.089551370072184153e-03
1.454902365008150199e-02
5.931176900021815565e-03
4.887026192680352793e-02
2.478869533801108735e-02
6.694716860036301065e-02
-4.868805712554279716e-04
-5.541692432158580595e-02
-2.894600495058984035e-02
9.109329893091376584e-02
1.842430623824366231e-02
6.542456664333442737e-03
5.174763888986201599e-02
5.106796508460931250e-02
5.243330703513932045e-02
3.217650863661916574e-03
1.805444197942849063e-02
-3.230290120437950829e-02
2.598158020414654493e-03
-6.200906391494984127e-02
-2.679248118507249546e-03
-3.100045196717046009e-02
-2.224814239060201801e-02
-6.514888171539938433e-03
3.218416785394522407e-03
5.108104111557138644e-02
-1.554303090914666789e-03
-4.993355227598814117e-02
3.847086877370115010e-02
6.099057045732764540e-03
3.883385483347657520e-03
-3.807604189528953319e-03
-2.210338987899543306e-02
1.115203576987111589e-01
8.648193008166718803e-04
8.160480984500159685e-03
1.559561952005120459e-03
-1.355738775353457215e-02
1.857124527118130669e-02
-2.939863379753299491e-02
-6.556470746924265847e-02
-5.787552974726997007e-02
4.443499584483339565e-02
1.903818789558415331e-04
9.242002650948660455e-03
2.243416354888544753e-02
4.259687685234824460e-03
8.585762862713487709e-02
1.295322489185392160e-02
3.152105712408376920e-02
-5.987797775505909054e-03
6.343833484236304811e-03
5.205663711088817300e-03
4.037964764670599199e-03
1.156744690894761195e-02
-4.462806389099113757e-02
-7.403216837858236574e-03
-3.496236823087342516e-02
1.207810402033522579e-02
2.283137707197193528e-02
4.271526956611920202e-03
8.614195489522404048e-02
5.665031296372089256e-03
3.280824499368339975e-02
1.269465712004435882e-03
6.020720324811611179e-02
-5.540988528565167492e-03
1.086158765501513482e-02
-1.846752978255129449e-02
-5.035054941908484981e-03
4.202980786964551768e-02
8.796680662355175345e-03
3.971561070050406289e-02
4.249037182266407475e-03
-2.950809697826587211e-02
5.262729662347591375e-02
-4.912985505209967185e-02
5.982161527387511862e-03
-1.380307697991367891e-02
6.567427259421640406e-02
1.159528160523971667e-02
-3.636895172276517763e-02
2.784967326820840874e-02
-2.066215258165647953e-02
-2.515793843934373622e-02
-2.589312703767464655e-02
-6.412793322966776899e-02
1.173460405747005567e-02
8.872146182481556800e-03
9.990664850229855065e-02
4.850311489436617482e-03
-2.578277199211886049e-03
9.066775686620995311e-02
1.259518933460586528e-02
-3.184279671946965880e-03
-3.808163006894035862e-02
-2.333705524048333008e-02
1.753813566020919271e-02
-1.740823606476850360e-02
1.380498535022802765e-02
2.823689181192662323e-03
-2.683612021722591931e-02
2.665194792644152641e-03
3.805968827862894754e-02
1.110745257050151265e-02
1.999318574705539683e-02
-1.280207279421273665e-02
-1.241386758775401937e-02
-9.468287489567250165e-03
4.117072216001842894e-02
6.105993891865874219e-03
-5.063255335395505652e-03
5.196765701084300748e-02
3.383198971034365871e-02
1.027978731005058100e-02
4.309165600177397581e-03
2.376442312886340412e-03
-3.737812164591113040e-02
-4.577831821228385729e-03
-1.045882541245014424e-01
1.599579245309380292e-03
-1.714740166550958109e-02
-1.165995396424464401e-03
-3.239983802539461635e-03
-6.068552306995879083e-04
6.507504014406544426e-03
3.785809819899937662e-03
-3.864846455976377049e-02
6.190042825854383778e-03
5.549652744218205912e-04
6.289363640321296058e-03
5.211097720360566808e-03
8.234177339134059886e-03
1.193985523677059263e-01
-3.696773077679759746e-03
-1.447569084057929480e-02
2.555887387021671831e-03
-1.299402272805424280e-02
-2.237786022926874924e-02
-3.455064923458237708e-02
-1.076878350726924866e-01
-6.348544946921247378e-02
-2.342434136145788923e-02
1.662293436639665414e-03
1.025088710622008327e-02
8.109843084338942340e-03
5.963022094831539437e-03
6.758650112126733667e-02
-5.114242752799110989e-03
-1.115721016751654478e-02
3.515261416480962558e-03
-6.455619537556647747e-03
-6.465975452151058456e-03
-9.837703338078740076e-03
2.551863951297316663e-03
-3.566338722416945162e-02
-1.444812269227180443e-03
-3.361311031408854150e-02
1.710236098098573410e-02
2.351758343354373726e-02
-1.011575657526026916e-03
1.049584614295174939e-01
4.183636694433895062e-03
4.044372420880171237e-02
2.642801895282831989e-03
7.365153900914768459e-02
-5.679634943298512463e-03
4.822734006982347388e-03
-1.890641897743235503e-02
-3.083488553596439637e-03
7.793100956039139549e-02
-5.431131639454979268e-04
5.545089873176450856e-02
6.051059294153962598e-03
-4.875702480046033988e-02
4.725778410085353098e-02
-4.845561224444727699e-02
2.955935655515427342e-03
-1.331354529924789164e-02
7.550196939960100717e-02
4.658914849164858332e-03
-6.286708476430415138e-02
1.318515521212014832e-02
-1.732568896309426981e-02
-3.705877363915848627e-02
-3.571219319313182622e-02
-7.657771966522254614e-02
-6.405689697728011653e-03
1.049718931184375446e-02
1.183142699201505388e-01
5.169886798192977265e-03
1.812294933537412513e-04
8.897449847325372696e-02
1.560712864227005621e-02
3.506019300266207707e-03
-2.792657979461314263e-02
-3.954761517523872755e-02
1.579363811958155173e-02
-1.411093639749870683e-02
5.711330146594743862e-03
4.015875482536361910e-03
-3.297019614770342610e-02
-5.200456721564244988e-03
4.166749114802376780e-02
1.228433048646541785e-02
2.006792926336293734e-02
-1.381111233251286312e-02
-3.444762101612054706e-02
-2.643657971611533195e-02
4.889727181272387341e-02
2.170648192933118115e-03
4.003803180790456613e-03
7.099886733660640270e-02
3.396589127670340130e-02
1.311441918645636986e-02
-5.793590450269605827e-03
9.139836514497338971e-03
-3.732553010941119798e-02
-1.037735482016292551e-02
-9.713393512871219826e-02
2.650854070121652205e-03
-1.053294963774170298e-02
4.836491803711570332e-04
-6.219499703723009414e-03
-6.767051205077406935e-03
-6.392810222519601342e-03
-3.497498263190407328e-03
-3.067619766050264790e-02
2.240506991377158238e-02
-2.694296442189346116e-05
1.619029375063760559e-03
8.734923117782737029e-03
2.279960938082423866e-02
1.186567897730800847e-01
-1.260639680055848687e-03
-2.236192348912886124e-02
-5.581339477322439652e-03
1.550312899489801523e-03
-3.300654626258756053e-02
-1.864331713110583405e-02
-9.516038218127347015e-02
-7.215677887938336255e-02
-3.021363027107053234e-02
2.585340313697167842e-03
2.165811025434747489e-02
-5.942054799301548992e-03
3.451078282943385520e-03
6.459450674859801289e-02
1.507684454879356685e-02
-2.809873208395327962e-02
-6.344798534174096900e-03
5.889422983983149361e-03
-6.081547111110932602e-03
1.507209778497997990e-02
5.262602458872433879e-03
-2.424907769555455835e-03
3.331908288789979956e-03
-5.650093026476936398e-02
1.831805117438517136e-02
3.928419316431030345e-02
-5.719072794317459421e-03
6.123073506422477968e-02
3.022136942583262056e-02
3.584859155701843741e-02
-6.469520792820104360e-04
3.294362904329055375e-02
3.505432965949658534e-04
3.810828166228244496e-02
-3.273814456301703257e-02
-5.959575440759280578e-03
7.075389905205779761e-02
-6.655074383868054069e-03
1.848285574546567125e-02
-3.762840436385590792e-03
3.500119170778884237e-02
3.190975202532721211e-02
3.686153141863773939e-03
-1.550736932251825864e-02
-1.955084369485324963e-02
6.097092412898702518e-02
4.895453022920576158e-02
2.569050244501945839e-03
7.465240901905818849e-02
-2.631248867623414353e-02
3.099623141939336982e-02
-1.989673703627519233e-02
-2.490589916928030723e-02
7.180733792531456168e-03
-3.992069991188122897e-03
7.028716971498498445e-02
-2.797999009343446388e-03
-1.838654845876988922e-02
3.092385092867429991e-02
2.467584900263537773e-02
3.268796486068637191e-03
-5.748165628150640055e-02
3.825712940148431884e-02
-2.145254624825016984e-02
-2.983768059730769820e-02
-6.548461067852423545e-03
4.977671070231221365e-03
2.193214417864950902e-02
-8.547994201343434928e-04
4.330706145705178617e-02
2.137988926853223726e-02
-1.087501594143475657e-02
-2.292538381285410057e-02
-7.374903134989781173e-02
-2.193601924470404974e-02
4.144584344818609545e-02
2.004286012027289149e-02
-3.938123422660748385e-03
2.558887063951992974e-02
4.626616692229211514e-02
-1.543831118922099231e-03
-4.987151982121681287e-03
2.576865096524221313e-02
-4.154474047389116603e-02
1.132197920181448637e-02
-1.636405257142592440e-02
6.517236741868228343e-03
-2.476577249262199715e-02
-2.574950316336469501e-03
-1.017285825462856504e-04
3.345541238957200868e-03
4.480461132606505803e-02
-7.475370274674582620e-04
-6.490475601590989241e-02
4.084862626846995359e-02
1.259016365063363825e-03
-4.568869914328435589e-03
1.508032454737697967e-02
-1.385095044700535710e-02
8.407770941101805340e-02
1.926180842528388629e-03
-3.211128478372934306e-03
3.723069875500485335e-03
-3.758330834077284327e-02
1.526259576953553111e-02
-2.191083448942457088e-02
-8.708856015553365082e-03
-1.913502531963828801e-02
2.257524256812644750e-02
2.673850140085363850e-04
2.060259413197537692e-02
1.462252548396728719e-02
-1.895453401452492498e-02
9.432506206794160145e-03
5.600691144102132660e-03
3.388907660375890807e-02
-4.507008796674420725e-03
-4.523661967695683135e-03
-6.252740943082894451e-03
-1.765682981221319836e-02
1.144024806148407659e-02
-4.376112889550059365e-02
4.882984543044319517e-03
-2.509298933948877694e-02
2.213707326988519769e-02
4.520885791248149821e-02
-3.991127861474826934e-03
1.094807501191129018e-01
-4.906841087676553845e-03
2.934394484921777277e-02
4.427551824943620415e-04
4.514143516962097064e-02
-6.266892459225252912e-03
-1.340343939383078532e-02
-2.060545517789638681e-02
5.869920554755099322e-03
6.941775391035678866e-02
3.067295489428891776e-03
3.571840973642861211e-02
-4.727819214835501244e-03
-5.048842013926317651e-02
7.629711240922200377e-02
-7.857010805886506521e-02
1.538579381922484425e-02
-9.867125100249110256e-03
7.602507122013703322e-02
3.677749200547397387e-03
-9.505156190255796556e-02
4.834202096800840898e-02
7.616054390145702777e-03
-6.356912859554114670e-02
-4.866768031082981116e-02
-8.428561253980285106e-02
1.655529129957579101e-02
1.285566881347563299e-02
1.079351559774564540e-01
5.972649082707868345e-03
8.882397158381972677e-03
8.285708605713751340e-02
1.199189470764094878e-02
4.947763839297809191e-03
-2.676201455881626126e-02
-3.992309947826399447e-02
3.962255566760294889e-02
-1.035358473068487099e-02
1.649263160763875941e-02
-5.225257850421428669e-05
-3.237550265717196313e-02
4.997772898033023964e-03
3.705527907975288138e-02
1.290013987247873653e-02
1.961361077223879382e-02
-2.854849336403782883e-02
-3.041926899272222578e-03
-2.053353137185815608e-02
4.979887321427709651e-02
-1.491185959601255481e-02
2.013213216133814647e-03
6.427353660498909271e-02
3.116676857473947224e-02
1.949909904790698978e-02
-6.129526032127920708e-03
1.311784140750981570e-02
-3.407900943327077381e-02
-2.110554552339176729e-02
-1.247493819493825512e-01
7.814507032559702164e-04
-1.447410218270077896e-02
-2.930162906744954339e-04
-1.280059931081552194e-03
-4.676292793837446594e-03
1.008447158217987312e-02
4.141586648845262293e-03
-1.716116320045990920e-02
2.860634143171990329e-02
-8.770615041678635421e-04
4.322146843421785338e-03
-1.133127485053747087e-02
3.718347912731193028e-02
1.183967175521307702e-01
1.049371173090497995e-02
-1.336757763980676340e-02
-1.392519094716863958e-03
1.454067244275594056e-02
-3.350067682000078956e-02
-1.527175956930959359e-02
-1.211029737490184610e-01
-9.874555208404296736e-02
-2.709060048406747648e-02
-5.742148906891209569e-03
1.644456016473807083e-02
1.170778480155269460e-02
9.795380121500562448e-03
5.378423990562335166e-02
2.378969679750353797e-02
-6.185306119178223677e-02
2.805206286629895358e-04
-3.030088103523916987e-04
-6.401724814259842841e-03
-6.855724064994567560e-03
4.612936169343934481e-03
-3.507074301088543983e-02
2.317637527271003764e-03
-3.789368252857440444e-02
2.461940867618952339e-02
5.535548534989992442e-02
4.218047202019447987e-03
1.028759548251841904e-01
3.262648043756814081e-02
3.493192509698939824e-02
-4.105399973706260613e-03
1.176969973210547776e-01
1.982408261946279511e-03
3.518587083425074591e-02
-4.523185606178835305e-02
5.779931053209039042e-03
7.419102900174980031e-02
-2.101138254231090397e-03
7.107534409275348408e-02
-5.366483516692689519e-03
-2.616449914155877243e-02
6.559114309650887487e-02
-4.736889789128766182e-02
-1.033405887633706034e-02
-2.090663565270670793e-02
1.026626055215516392e-01
2.752473349359276303e-02
-5.135767802529449949e-02
6.764648407114802475e-02
-5.096917487546205085e-03
-1.764649394150940437e-02
-6.304246905696660186e-02
-6.947469073732272238e-02
1.936421920370830912e-02
3.958660851536723209e-03
1.889102900188593115e-01
2.931395610002294171e-03
-1.466897732244763428e-02
1.229798743589242821e-01
9.798838543279101213e-03
6.243708348938483733e-03
-3.113955414662728308e-02
-1.495958144648687916e-03
1.823297122712616916e-02
-2.759159948595001771e-02
6.363198532709098652e-03
6.118655009135677211e-03
-1.334326418892379205e-02
4.308861498278448651e-03
5.429748812862702362e-02
1.132491203194350808e-02
4.072807123645149491e-02
-1.864841935899343162e-02
-5.378786397712743972e-02
-1.956704743517467121e-02
1.090029246659700024e-01
8.850301493233131075e-03
-3.605358904687731760e-03
6.162183258667788821e-02
4.569532138697345036e-02
4.333018670519819121e-02
-1.034727752375732288e-03
9.304716936328968555e-03
-4.734926474792163636e-02
6.678854548982833712e-03
-1.074897635517790134e-01
1.185856049382442252e-03
-3.844138126737525057e-02
-9.046279831104796915e-03
4.944940326640710239e-03
-1.636284228894929055e-02
1.542270999891654296e-02
-6.456817016702427747e-03
-6.008578662713882912e-02
2.187946357402168959e-02
6.239359628757780744e-04
-3.622493838797646859e-03
2.597284675326567288e-03
-7.214128184693833351e-03
1.286327024410606201e-01
7.785360903474864216e-03
-2.544304771787248357e-02
2.650433121741775731e-03
1.095944439782783929e-03
-2.553943437727104748e-02
-4.000527644028530755e-02
-8.503443489165096736e-02
-6.809771189714211581e-02
-2.663782793493126716e-02
-5.352939948958235043e-03
2.376045865614360639e-02
2.441555225667521242e-02
-7.833430692026199099e-03
8.869328525274713937e-02
6.640716230977228296e-03
1.735990217891081669e-02
-4.166743595986019746e-03
-2.418008247965272150e-03
-3.693471185173316605e-03
4.272454404875704326e-03
-2.352375325927331122e-06
-2.024072757029850983e-02
-8.028628451662689347e-03
-3.685698471610975024e-02
3.860964568992021617e-03
4.045181657032133338e-02
5.134287206197642693e-03
7.724941680808442013e-02
2.185943342637689663e-02
2.176270777452284436e-02
-2.255913089877764968e-03
9.398700342439045285e-02
6.704984782455497734e-03
2.879518241589805114e-02
-2.475288170754122441e-02
3.115758226563233174e-03
2.176926961567203153e-02
-1.119038581089306164e-02
3.470891663994766368e-02
6.205329327491215449e-03
-1.507843820832164769e-02
5.892766434255475305e-02
-3.529088958261668296e-02
-1.001352777900541696e-02
-2.120191712516041396e-02
7.619330920842151689e-02
4.059849997808390176e-02
-1.497259430202257068e-02
6.218093235277093178e-02
-1.256126826338272232e-02
-8.235183103312691821e-03
-3.205779394529161691e-02
-3.527993438184356956e-02
2.089167415843228362e-02
1.767781574064056921e-02
1.141215934508144070e-01
1.068842257132728924e-03
-1.667548908279698882e-03
7.482652547554392852e-02
1.251459938128569524e-02
-5.579002899291380518e-03
-4.133079311817074164e-02
3.343575183074144926e-03
-1.023152616949168578e-02
-1.731966554387567858e-02
1.000582133406078232e-02
-6.288207294073093652e-03
-9.700577139727165760e-03
-3.231555681747540903e-03
2.859947675436066636e-02
8.730796391943500961e-03
3.940044981195536117e-02
-1.370480440439865097e-02
-3.196902952637893647e-02
-1.619629403369977211e-02
6.636273727696903602e-02
7.924103012915323374e-03
1.857868279418974002e-04
1.927176538340996323e-02
3.404914037826285711e-02
3.665495539652021545e-02
4.760802023081273614e-03
-6.016091729640697140e-03
-2.656409431858578266e-02
5.106116519054559703e-03
-6.832013470658070131e-02
-1.534653090217646260e-03
-3.053004196538100165e-02
-4.214244721003540528e-03
4.164859691990974860e-03
-1.104512738856127958e-03
2.367609022731406027e-02
-5.688505303133219865e-03
-5.429214922040161845e-02
-8.407257726978846490e-03
2.645978835417851435e-03
-2.092049191228854705e-03
2.258562004983596244e-02
-2.318161429705500529e-02
9.345579013492798237e-02
-3.081976126314238309e-03
-6.332327927835001979e-03
5.745225801465166440e-03
-1.070371039017320794e-02
-1.127585080962089335e-02
-5.878206306339518739e-02
-6.643445902249441037e-02
-4.696127165096485728e-02
-5.836548433477959687e-03
-4.747935693171266916e-03
2.170224376907456745e-02
1.410013161570911749e-02
-2.509188340214052806e-02
4.328304506874423169e-02
-2.485497177058775681e-02
2.790050886348496503e-02
6.316625975635170066e-03
-1.067151636335225522e-03
-2.587899704487472974e-03
-1.224546410651975309e-01
1.320370296904393136e-02
-3.414905916011107961e-02
3.711446908438890274e-02
2.640745995683334013e-01
-4.444547383586959152e-03
1.586421792392989638e-01
-4.755745071972095409e-03
2.185836011854435865e-02
-2.162739992472677720e-03
8.357313125836335344e-02
-5.930835180835170375e-03
2.308282836901751900e-01
-6.031618310667793449e-03
-3.015110755385970020e-03
-1.660218329862927708e-02
-3.584200140616804284e-03
6.506126192721729817e-02
2.711715232242717030e-02
3.720944845351720209e-02
-5.516531488818096976e-03
-1.692978514358461917e-01
1.064960831313012113e-01
-2.457564281494413472e-01
1.233797628304397764e-01
4.236402873015045201e-02
9.565113132139467511e-02
3.210347093990553735e-02
-2.597040914902826736e-01
2.424215407181567750e-01
-9.498887715540160759e-02
-2.295941793168959910e-01
-7.919874581427434335e-02
-4.710832024399413953e-02
1.472471746230019085e-01
6.064863319499116251e-02
1.220003393249957657e-01
3.783449569809198450e-03
9.089015812283691986e-02
1.697912874415982987e-01
-4.660017804872750025e-02
-1.089156483134420036e-03
1.600145241279480463e-02
-4.170125076137282810e-02
-6.479008241843625671e-02
2.491221710654743793e-01
8.081188974396961988e-02
5.124750473101627067e-04
-5.524586657865200590e-02
-6.564978242778710289e-03
-5.097576129855941468e-02
-4.603879554211826562e-03
1.598076801594167928e-01
4.143685839212813554e-02
2.723819135121203217e-01
2.192190832275780002e-02
8.305578189235875153e-02
-1.082662491742284183e-01
4.520784677722425836e-03
4.834300995247862998e-02
-1.364537054986739162e-02
1.617401130691708266e-01
-2.401494572608615149e-03
-7.281734735083431054e-02
2.867217686148144096e-01
-5.127913685560400031e-02
-3.082177650930534862e-01
-1.192480185311415187e-03
6.310851904297335065e-03
-4.010017820740893052e-02
6.151281831284932146e-03
-3.083544682546277352e-02
2.281388411638331573e-02
2.476910827795521935e-03
1.975487836231931693e-01
-1.312293043753537114e-01
4.694843423498290015e-03
-6.366839807633066332e-03
-1.401180565329916139e-01
6.955797311639100311e-02
5.253424015056217672e-02
2.086993421669867607e-02
7.951340795409997386e-02
1.954588757875251864e-03
-8.940179692269338563e-02
-1.904142376590885199e-02
7.772275380310572634e-02
-2.964497739097489704e-01
-2.018151888637798319e-01
6.477049219676318803e-02
2.798519719523335191e-03
-1.088501288375687687e-01
8.178015234627486474e-02
1.070683590062573853e-01
5.905464002182107125e-02
1.960945170496061415e-02
-2.037733493847363742e-01
6.213120119155808412e-03
3.143333180415631544e-03
-2.000697453188037944e-03
1.693061892613514723e-04
5.816690529409295277e-03
-3.294656607912804097e-02
-1.641464654823037578e-02
-1.320883221059920565e-01
7.815407964898917620e-03
5.559086255065244508e-02
2.136313348005032271e-03
1.217198024505939113e-01
4.681209819820286028e-02
3.328920554909984425e-02
-5.635215318204486040e-03
4.344578807991341662e-01
-2.694624657184229843e-03
6.096409007558369064e-02
-4.591366635001591784e-02
-1.640736387583483164e-03
2.295381712519964715e-02
-2.257236096601585029e-02
1.773482786134992495e-01
3.766785604319870112e-03
-9.856416717171563591e-02
1.138793953875186227e-01
-9.065090821017413036e-02
1.010496833447678960e-01
-6.117952290571078422e-02
1.946738630328601061e-01
4.053809623245333005e-02
2.741243785648889153e-02
3.531373416660014974e-02
-9.658337140158435030e-02
-2.122591326135286893e-02
-3.129495076158430450e-02
-1.630765775895139380e-01
5.040506162458087414e-02
2.017666103882661752e-02
4.038760599305091792e-01
-1.278049220161790777e-03
-4.271563785200870739e-02
3.941152504402107848e-01
-3.293804488782409948e-03
6.015434885301492764e-03
-1.507275739518200430e-01
-6.293381490800926958e-02
-1.153243210653697171e-01
-6.572215027845805524e-02
2.918984762289487944e-03
-2.877492590483112216e-03
-5.662374418935482712e-02
4.803754767757654684e-03
9.146595828937503780e-02
3.234211002791434475e-02
2.705888032497268392e-01
9.506867741034757957e-02
-9.996839246958587333e-02
-4.239874699767415961e-02
2.279880306264484569e-01
7.062468446117262100e-02
2.019018337593941545e-03
3.731536822482844212e-02
7.025491043399340052e-02
2.043157230849763639e-01
5.922097223250086251e-03
-1.463668763086179749e-02
-9.721835331623353282e-02
5.288629156874324194e-02
-2.289377659736231141e-01
4.451855774198406127e-03
-8.595758604274310322e-02
-1.283511654230133810e-02
4.691874105605157823e-03
-2.676524886808554979e-02
2.113980603514742374e-02
1.277991120411982925e-03
-1.644928427498703605e-01
-3.478917811249232061e-03
8.422772638605994936e-04
2.565708918759754785e-03
4.781651958987458151e-02
-4.718238955680038177e-02
2.097406558076669869e-01
4.118406831767168833e-03
-7.758930351847004303e-02
-6.667835132654825921e-03
-6.977033648294503343e-02
-4.381288158964617013e-02
-1.440929729837878148e-01
-1.784945447954376929e-01
-1.613180829495748092e-01
-9.257851008192008457e-02
-4.010364276802918029e-03
5.064743174392798142e-02
4.866240318519574060e-02
-4.805103274586317030e-02
2.770074277241544314e-01
-6.203265474479522507e-02
1.419331349664112174e-01
8.056075150306723663e-04
-6.806034064912564775e-03
3.310352962110917324e-03
-3.069440843408936109e-02
2.521828935003157628e-03
-7.970213253537528075e-02
-3.483491392052942559e-02
-1.261818104028054888e-01
1.067431288668971301e-01
5.705145827650658780e-02
-2.739845180410983329e-03
2.554626274459692037e-01
1.638103324066945421e-01
1.904016541945387775e-01
-7.065735421592823657e-04
1.731169307564692228e-01
5.155739933329233672e-03
1.162025550158314879e-01
-1.085921556746519551e-01
-1.205561913061310979e-03
5.595193257839873313e-01
2.503773709875550812e-02
3.664261907712511035e-01
-1.881619441864324383e-03
-6.670399973600344909e-03
-1.004039867507932199e-01
4.302666894093277322e-02
2.636027835818092677e-02
-1.436522909628038247e-01
3.269432304241043363e-01
4.320456010833568367e-02
-1.731615156213897333e-01
1.723202704056187862e-01
1.401243853070221340e-02
3.602560137839638105e-02
-1.291321916908674539e-01
-3.549866745474776208e-01
-1.859837915165277189e-01
-4.148972184625656506e-02
6.708073544898555118e-01
-4.493394862856643288e-03
-2.398938708556628552e-01
4.745777391626510022e-01
7.256775389532361953e-02
3.818988701569945524e-03
-1.488709200739170291e-01
9.415420842715278849e-02
1.589498992356814244e-01
-4.929864658492751767e-02
-9.594431122308726134e-02
-5.535279920258491526e-03
-5.196735169594316958e-03
1.300396399438000792e-03
2.416439186217957669e-01
-3.040773529020617330e-03
1.573189861621313301e-01
3.439994919634124793e-02
-4.466644792280634046e-01
-1.511278859983420375e-01
2.179838991753799693e-01
1.213916980923355066e-01
-1.356575023921455150e-03
3.836742508238102922e-01
2.016566084470527986e-01
5.168466922598714125e-02
1.239847896656916986e-03
1.320966447718382175e-01
-1.409119668336549502e-01
-1.071557733308032556e-01
-1.667144064886088017e-01
-5.815291183758835615e-03
6.620402584661201628e-02
-8.193816436051196486e-03
2.755357862880405745e-04
-5.732249436676821464e-03
3.347828128598727415e-02
-3.153604184573759010e-03
-1.372364083575345894e-01
3.087759897599716696e-01
4.532759943579290143e-03
-4.130544964722788516e-03
-4.598895407319433803e-02
-5.282944389114233030e-02
4.232066998836467864e-01
-5.749433098510936535e-02
-2.281800316747379168e-02
3.157353924543034041e-03
9.011130387081908721e-02
8.685195971832017359e-02
2.840311546286807820e-01
-2.796035292862902866e-01
-8.577157579878048888e-02
1.445975790630646962e-01
-5.046428997327597615e-03
-1.918195509577052052e-02
-8.952298477787870579e-02
2.136453593870944745e-01
4.119405641546337038e-01
3.698705445750835596e-01
-1.408653832461752853e-01
-3.220575239657671573e-03
-3.460471334759094696e-03
5.517321258606442194e-03
-3.955576362290555772e-03
-3.001136056425113014e-03
-1.834695061912864494e-02
6.110332660858152493e-03
-6.465562195316280902e-02
4.037161614854820058e-02
3.530826436945764396e-02
-6.346662538544686587e-03
7.891785214930578662e-02
3.791843357330791642e-02
5.086511930998987435e-02
4.401764453404663491e-04
4.349114616915331771e-02
-2.099481430786906411e-03
4.121560043400015333e-02
-4.980155264481710836e-02
2.231055242484526833e-03
1.582535387434648722e-01
6.252440669349233759e-03
4.333113328768643802e-02
-6.051350742788437140e-03
1.248910014444981967e-02
2.449326849979692813e-02
7.517630634179805864e-03
-1.222136995848708239e-02
-1.447303226918691954e-02
7.685682441706476187e-02
5.116362918071793581e-02
-5.429835871367068301e-02
1.083005746924049773e-01
-8.918865598765588973e-03
6.000604796259306414e-03
-5.430493729661056701e-02
-5.076515569470264888e-02
-2.033936801007252618e-02
-3.664281576296065258e-03
9.405992009294196488e-02
4.960011733147464026e-03
-2.270436753549560926e-02
4.902551459426083419e-02
1.811593810658531853e-02
4.810587209725768719e-03
-5.372869490380597496e-02
4.095211084636440207e-02
3.753786398352659121e-02
-4.150725315100165652e-02
-4.372588832991860554e-03
-5.782273280091508247e-04
1.621036237232354252e-02
-4.560117033728540610e-03
6.530709087466460283e-02
3.759298716889257486e-02
8.533588068608127797e-03
-2.397501246305940373e-02
-5.543784730816927325e-02
-1.308910796715651026e-02
5.431034028876083330e-02
1.107311186820732381e-02
1.551523114028647383e-04
7.958298665118687665e-02
6.113866582003126687e-02
7.598049591071279543e-03
3.895794615833696704e-03
3.677500846031275805e-02
-7.609115654206925761e-02
-2.141701092845299526e-02
-5.891933533799507267e-02
3.515331934830157740e-03
-8.930521176637718633e-03
-1.991414433358607017e-02
5.126533533548533438e-03
1.429839062983035390e-02
5.602584609238844826e-02
-3.546802513537276012e-03
-4.719269208936229670e-02
8.180837931120145401e-02
3.671717299427413976e-03
-6.357526694355095619e-03
-2.880480582059016803e-03
1.230688422126863420e-02
1.278315630792697666e-01
-8.010525908630276165e-03
4.231328051549406583e-03
-5.329645579669424482e-03
-2.526387382394213246e-03
8.142373395626031560e-03
1.709932954287920331e-02
-3.363685450004180733e-02
-2.690808817749294757e-02
3.144516125256509309e-02
3.307814867320065769e-04
1.697526313614575524e-02
1.119268996840845978e-02
2.339591634308340468e-02
3.550247022404438152e-02
5.717019370264778133e-02
-3.524854187496935520e-02
5.571017075449734290e-03
3.480909524271362456e-04
-4.826681486694285768e-03
1.037563863276877302e-01
1.921349263978820374e-02
-1.924795690140397308e-01
-3.793893199598236121e-02
-5.374980959055399854e-01
5.867208074556682501e-02
-5.230551727957105657e-02
-4.805767376430489062e-03
4.186050730416090437e-01
1.454719246346605419e-02
1.498116657344870650e-01
2.030292914327028533e-03
-1.622043230181216822e-01
-8.877197720005649585e-04
4.421412315711479094e-03
5.933296333034428216e-02
5.207230806981415043e-03
1.406481367320742137e-01
6.882004037457871426e-02
2.890558461821717343e-02
-1.208342307640810449e-03
3.741938213027080906e-02
9.506993158882559580e-02
-4.584988631971492062e-02
-7.481107504967374200e-02
-4.009423918310895535e-02
1.742748125420535976e-01
6.681657672081162125e-02
2.326545625208700785e-02
1.122276092541089065e-01
-1.972454986470721650e-01
8.685087618621317729e-02
-1.604850292116382152e-02
-1.839929810124382170e-01
-1.344595132735711684e-01
1.230927289583646535e-02
2.351561488197497496e-01
3.907529342386260700e-03
-5.443782203410733184e-02
-8.041766495352255240e-02
1.374041822724262063e-01
-8.442634975644959430e-04
-3.900871897030064872e-01
-1.758735705137901353e-02
-9.751459882405619228e-02
-3.926637756194625850e-01
4.914875864765148178e-02
-2.294737744070930990e-03
-5.358211011438960419e-02
2.817015841011981814e-03
2.183625938673532385e-01
1.428951091867487477e-01
-3.602113452469469790e-01
-1.706760683182120542e-01
-2.411901428044833096e-01
-6.687407644366255566e-02
5.387011486771140639e-02
1.134070261190326945e-01
1.522807474474910687e-03
1.823557543062440944e-01
1.899183182648059853e-01
-2.269771702808026093e-01
6.570661624115655200e-03
4.678114381404407940e-02
-4.336074714976507205e-01
1.288013899088165382e-01
-2.827234938437609424e-01
2.258181543191844966e-03
-1.033149635485493684e-01
2.011313672762227167e-02
4.718173554146635681e-03
7.603230410353234436e-02
9.518304069501284936e-02
-3.331684729251600634e-03
-3.621516585658440257e-01
5.794795013620566981e-02
9.308542191949273207e-05
-2.691931079620298907e-03
1.530804803710556217e-01
9.623090322486392567e-02
5.262531256224344256e-01
3.688278009798157814e-02
-8.383456793657967365e-02
5.121370498434352041e-03
-2.470747001949956667e-01
-1.060511683297737755e-02
-1.977333582514054777e-01
-2.875931282635388886e-01
-7.920538774591281972e-02
-9.972120482273921435e-03
9.614172673370842198e-04
1.847471416705485092e-01
-5.794848761737624032e-02
-2.612347836214656271e-01
-4.380440078924120739e-02
-9.090987343243578378e-02
1.887222839970792709e-01
6.467355512794062573e-03
-5.338908266013716979e-03
-1.030702981297461351e-03
-1.224642432768646358e-02
1.719955130135168361e-02
-4.117304368022520894e-02
-1.092113581451581612e-02
-1.072569987133839275e-01
1.892791323231469156e-03
6.405795900702075663e-02
3.444342244690824003e-03
1.429521154087019796e-01
-7.113880044964062364e-03
3.160477037312504206e-02
3.081740043098322133e-03
-3.545329454587500817e-02
4.456416713038466315e-03
-6.071435364325117844e-03
1.956861198354800744e-03
-5.276123011517461214e-03
7.805223588980780836e-02
-1.192515332536112690e-03
9.309016412858355611e-04
-3.497651537288154564e-03
2.047506213741650746e-02
9.210147805764300200e-02
-4.018594568051054444e-02
-5.786777314515669651e-02
-3.712247434821902559e-02
5.471120929175693481e-02
4.255279422488718322e-02
-7.734534753366453796e-02
1.164180530846154749e-01
-3.743416572649108792e-02
-1.789768301085259070e-02
-3.674776488006015890e-02
-6.182889485019898990e-02
2.751451640364655296e-02
2.525673808806893836e-02
6.567915557094920753e-02
2.731912964943406397e-03
2.375003114984973809e-02
3.403957510787547491e-02
4.911308716952236114e-02
4.772919858732324432e-03
-9.301205552389245346e-02
-1.567040629799512988e-02
-1.949704511519460490e-02
-6.599873234270346722e-02
2.883140493386528863e-02
-5.526801615193408825e-03
-1.018210718990158678e-02
2.286223801543090135e-03
3.859021414811607958e-02
4.850693804466706810e-02
-4.997404322642291785e-02
-8.785580990839465809e-02
3.030865387079048818e-04
-3.577277315265862262e-02
1.468429060435197386e-02
-1.008184986166526208e-02
1.339550085275471696e-03
2.623825299893469201e-02
3.671461609324194048e-02
-3.622820658710810410e-02
1.772496089153648147e-03
1.280716392513090579e-02
-7.360350786022497316e-02
-1.691904213424081857e-02
-1.168787264982441843e-01
-5.528149392390754868e-03
-4.362906720061655863e-02
3.401463448266531936e-03
2.041753808750601529e-03
3.303302657244584078e-02
4.461225136278100523e-02
3.204774885779155830e-03
-6.382321417007591480e-02
2.986764491173574121e-02
-5.800791615497456408e-03
-3.374249360913138956e-03
7.786180565796652769e-03
2.230234821239131249e-02
1.324692604893978332e-01
1.377744565370286021e-02
4.850996505678529104e-04
6.410761959478365746e-03
-4.786869658321743493e-02
-6.231550201633922863e-03
-7.165574958204576350e-02
-8.318912708467240957e-02
-7.882444853847475619e-02
1.885032103241941759e-02
3.121029092844200309e-04
2.473761047575019981e-02
1.258618295481203631e-02
-5.381664378429893564e-02
-1.652676580838860574e-03
-2.090834157726564890e-02
-3.491074656747753663e-02
4.064623246674262461e-03
8.721492763334296773e-04
1.410605389033395230e-04
1.109266207790744474e-01
4.712082159718985336e-02
-1.956119596848642783e-01
-4.453358332812595854e-02
-5.594303975230157100e-01
-5.326660879579276503e-02
3.522185387107235055e-02
1.226109573374500840e-04
3.931581985076251784e-01
-2.293603814078293626e-02
1.246578028823644158e-01
6.658687499382563019e-03
7.085099789575302620e-02
-3.040391251871489304e-03
-3.239573610732925102e-03
5.781615031493944623e-02
-1.232289516575361390e-03
-1.985356517027238310e-01
3.901963061744354727e-02
-4.003526141029921381e-02
-2.748175273831192367e-03
-1.012335618197973963e-01
2.691432214693043612e-01
-1.704784458086442411e-01
-7.877352446055239932e-02
1.612971576164571458e-02
1.523396874626125885e-01
9.873667676726592679e-02
1.789409490739886921e-01
1.298578082499072250e-01
-2.850842604556829141e-01
-7.317817264331506755e-02
3.730300802504761537e-02
-5.679936796024918737e-03
8.405035621452540406e-02
6.672110977460146697e-02
2.041662578220471980e-01
4.697754758552738150e-03
7.147979361861633851e-02
-2.513218196686774486e-01
9.310844268920308309e-02
5.705880457902869247e-03
-2.609240479636784071e-01
-9.366239998861794480e-02
-2.300815084661885224e-01
-4.135513767516911243e-01
9.378019797020266390e-02
1.833704717990123322e-03
-1.475774583579150256e-01
1.495652809153515551e-03
1.181715477147536608e-01
1.059418608033109027e-01
-4.225431754786375671e-01
-1.031286417183518433e-01
1.908932938141821856e-02
9.319358348928462321e-03
4.538447471416386797e-02
1.580080080742692072e-02
-1.223855795377587832e-03
-8.821540993608124881e-02
1.307452042695749495e-01
-2.113190254408701951e-01
-6.189582190315712738e-03
-7.458881143520852686e-02
-3.721858883967336107e-01
2.123141621486909214e-01
-3.402731188543319796e-01
1.947907678086934933e-03
-1.965591542655382162e-01
5.966264343111110473e-03
-1.037332115533042085e-03
2.230584301804286462e-02
8.532076709321309571e-02
-2.936134678576258952e-03
-2.415206660557338847e-01
-1.864000766583535085e-01
4.087087697805232532e-03
4.179101162935357217e-03
1.871518021856554970e-01
4.054121732732094557e-03
4.112038087084768367e-01
6.829387384375534831e-02
-1.366546239115326578e-01
-1.727948389896361708e-03
-3.506335598276427157e-01
-1.354436571823246505e-01
-5.395720461018975733e-01
-2.033740693960859325e-01
-1.231668595793336124e-01
-1.505328962797158610e-01
-4.865377969065175917e-03
1.990609373332239140e-01
2.704913049223194033e-02
-3.899877112124771616e-01
-1.740241628244972305e-01
-4.361872349170334284e-01
3.451001979654348961e-01
-2.139508568337449186e-03
-5.845483455646630945e-03
-1.149695503106294529e-03
-8.009822016910953316e-03
7.201182336279449148e-03
-3.651895650735792476e-02
5.110450371630707866e-03
-7.171118957757961765e-02
4.638962971242408667e-02
7.141433695127773207e-02
2.523316285524346628e-03
1.321117469018902035e-01
3.410515018046231250e-02
5.131606858202709259e-02
8.840524371571850974e-05
9.070100277511776443e-02
-1.592798047050250502e-03
3.263210567223265302e-02
-6.860386588536304675e-02
-1.530052635117634761e-03
1.392147612062823447e-01
-7.677605897080106052e-03
7.212555601106027114e-02
-5.246679982364130549e-04
-2.505270173769552980e-02
1.004045534737662837e-01
-6.568619136202748232e-02
-2.876093269868097366e-02
-9.836518017074438042e-03
1.255049767900845714e-01
6.741178762107001565e-02
-6.765333050775437784e-02
1.491233985339397439e-01
-4.415779243164356938e-02
-4.013067195545712978e-02
-7.284499665086216491e-02
-8.552855382075613688e-02
1.780459839183603371e-02
1.706594914742650543e-02
1.829434840621421143e-01
1.520496483247465785e-03
6.664229374188394492e-03
1.175278643875204282e-01
3.238217708447901910e-02
-8.687853042736256746e-04
-7.724613030987953488e-02
1.689038038167083033e-02
-1.110812353136654551e-02
-4.277406711458105193e-02
1.132294864872858582e-02
-3.133119974955690581e-03
-1.079554673332505269e-04
7.559007354101242868e-04
6.212319843130915953e-02
4.273404385874558092e-02
3.556690378051848012e-02
-5.065451186094815927e-02
-6.592351097509436706e-04
-1.548135926651908641e-02
8.200985519310691196e-02
7.342700636363741831e-03
5.115176015281778371e-03
7.515527657519739668e-02
7.009067749834375916e-02
3.940156333888379658e-02
-4.054786109026496492e-03
2.581303815117811165e-02
-5.674287416015543623e-02
-1.666455016627734625e-02
-1.344486063748865645e-01
-3.783841172256827753e-03
-2.971699501791567888e-02
-1.762631987838568851e-02
3.030848483530320867e-03
3.555968296959500022e-03
6.473095112236190718e-02
-5.021952549698290892e-03
-4.206082570484989680e-02
4.419665787708841609e-02
3.990523671022917079e-03
-2.984585466547942309e-03
1.479721695460569850e-02
1.652520792335809147e-02
1.736053956200379056e-01
-4.795930179210974517e-03
6.002037165188899015e-03
-1.931533325278098653e-04
-2.731568804827131172e-02
-1.652760039430583791e-02
-3.646007802818639065e-02
-1.002020258103853562e-01
-1.106783464740818818e-01
2.341338475134078362e-02
-1.490830527249661528e-03
3.227903955451429108e-02
2.538707514254796502e-02
-4.468782888519430910e-03
7.453904661145777100e-02
2.264355848026603987e-02
-3.511691486568435661e-02
4.415940938214206121e-03
2.965321378951526771e-03
5.651354543520743312e-04
1.629012161312092255e-01
-1.119970580626220708e-02
3.907487819944951979e-01
1.960412157080337545e-02
-2.832570891239110100e-01
-2.044641668067790075e-01
1.315531963648343128e-01
-6.198232694540863758e-03
-7.225563560281523801e-01
1.478293263404094615e-01
-1.527155274670985441e-01
1.570507599044178261e-03
1.391615896752105952e+00
-5.942021196751017843e-03
3.276517307591538253e-01
7.875629534650102279e-03
3.050293839031333488e-03
-7.812948495612858091e-01
-1.299021482228154833e-01
-1.627395137639722766e-01
-2.464742813867847916e-03
5.739897142984321521e-01
2.034315325205152125e-01
4.041404848507831327e-01
2.547564181506048464e-01
2.470077177931111895e-03
-5.554665072780776841e-02
3.718383366860780748e-01
1.044609917002967459e+00
1.157590742996205957e-01
-5.724693118090958821e-01
5.003320460995190899e-01
2.577317676586566852e-01
5.945031543562064869e-01
5.550782418420675546e-01
5.161547858343621537e-02
6.778229755625105046e-02
1.801379181448440562e-03
-1.112074961670900669e-01
5.836892210803210634e-01
-1.203444577484771849e-01
-4.964513363727100781e-03
-6.297541680630281968e-01
3.584965672866655129e-01
-9.578134468568587634e-01
-9.524997607228573304e-02
8.957540071271727355e-02
-1.802966079778849356e-03
2.406259318766305888e-01
3.743683421682552411e-03
-2.106417029745346892e-01
-1.231629468757263965e-02
8.745187904098249421e-01
6.048432112857899945e-01
9.555837809262297811e-02
1.058607825587332546e-01
4.871036323841892446e-01
2.317893009185925668e-01
2.709842727644505480e-03
-9.301921165405619973e-01
-1.144000517832434172e-01
7.437084755387071144e-01
-2.756544628044541815e-03
-2.685267510013590875e-01
8.177821995266104649e-02
5.354813241420288694e-01
4.851287222095043150e-01
-3.407017607170263209e-04
-3.110397587945518683e-01
-6.711581231409551040e-02
-4.613353731467908104e-04
-6.361819330797401084e-02
2.012703595117409094e-01
6.760587826700441803e-03
-4.986152621322289535e-01
-5.620753253681159967e-01
2.087143181603615030e-03
-5.462055991874715556e-03
1.495590335460877385e-01
-7.658560892422949795e-01
-7.031564776614357415e-01
-3.838338219155099790e-02
-8.014696156891705503e-02
-5.932695686958385124e-03
-6.064410379225353420e-01
7.031343108266466246e-02
-6.525374583566583286e-01
7.779605128784211621e-01
4.189523503895548062e-01
-7.637611211337833050e-02
5.304256109230859415e-04
2.361235765245912888e-02
4.008442969283814716e-01
-5.495312286496489840e-01
2.305688440981814302e-01
-7.307643872250794148e-01
1.334344432071963071e+00
1.782558488734029651e-03
-6.642006859398764604e-03
2.840859455039297307e-03
2.498649457734378188e-01
1.272344092014868026e-02
3.952452903545933260e-01
-1.251579390678285268e-02
-7.349112514105881067e-01
-7.535195721580949246e-02
3.912257996694479267e-01
4.179826485296523654e-03
-4.881523957548225545e-01
3.553233554660555904e-01
9.944099745391783707e-02
-2.679089347703687840e-03
1.284190346272129357e+00
-1.380030293166817183e-03
5.167696539715858073e-01
-1.134688525621049132e-01
-2.497288022156518225e-03
1.367944854424945900e-01
-8.555933440113666633e-02
1.290963906447401277e-01
5.074820109319770969e-03
8.562713010397704494e-01
-9.296022781322987871e-02
6.497435319434816670e-01
3.914934978816325128e-01
-1.792345446888241600e-01
2.601523709878204582e-01
6.783037136098771791e-01
9.967446157944738205e-01
6.916552012731407295e-01
-6.416830234991744986e-01
8.760770605327093952e-01
3.088343142545882380e-01
4.893367260512470063e-01
3.458114745307539484e-01
-5.791447796674020071e-02
5.318168802183153021e-01
-1.485299196794828301e-03
-4.656701690785380321e-01
7.483139884709504308e-01
8.591449656285811420e-02
-5.409956756897367318e-03
-9.668709249780993442e-01
7.519787685629804042e-01
-1.017737974609349560e+00
-3.658513737422021128e-01
-1.713412663957706583e-01
-3.694131260266251496e-03
4.236123879164410688e-01
-2.230183278053053837e-03
5.744706847938646499e-02
1.266016988650370545e-01
8.138428146906244720e-01
5.674484923317468787e-01
-7.364111151908898645e-01
-8.684059236582931940e-02
6.797728934448011850e-01
3.994277293546060759e-01
5.031546458551219153e-03
-7.645281437574175110e-01
2.059453467864257037e-01
6.599155912787740830e-01
-2.746242062506037973e-03
6.716497078453773084e-02
-2.843354639413069318e-01
4.837123885351702901e-01
5.214818635929802104e-01
3.234368046969972668e-03
-3.222217557613075711e-01
-6.140244451252736824e-02
-4.153207483337405595e-03
4.965802596574844796e-02
4.663662143357841794e-01
-1.365057025015352886e-03
-8.605695875318496446e-01
-8.984364748585502505e-03
2.681210996283338115e-04
-3.416891189835155000e-03
2.365434099039938343e-01
-1.041257154774816618e+00
-3.766135619295423176e-01
7.481440259019125167e-04
7.129214968322308832e-02
-5.127919481410055796e-03
-7.545087620399378858e-01
3.299649468323686552e-01
-5.874705125903693093e-01
7.889718295918990432e-01
4.786029880941545245e-01
3.859960280713086167e-01
-9.432726139253591081e-04
1.426723514397305048e-01
3.320210060759703485e-01
-4.913603162521892331e-01
3.790104680488778910e-01
-4.832480763448395722e-01
1.418591103743020554e+00
3.227348778050137122e-04
6.103563241674738599e-03
-5.127915609104386971e-03
1.071879395129382434e-01
3.026099269130587150e-03
8.355133973933773217e-02
1.200571250992522356e-02
-4.607883580760912534e-01
1.124549651784813170e-01
2.894486791925700020e-01
3.454007110821508044e-03
1.937416016270603059e-02
2.708664458881994141e-01
1.977944134897070827e-01
-6.895894508415371070e-03
3.876397428748243890e-01
2.030701885397540214e-03
3.473816476478193138e-01
-2.208464661098125670e-01
-6.411696088936496771e-03
6.840162502231882380e-01
-2.675271051511051573e-02
1.249335313543778608e-01
-8.269739340864944036e-04
5.143103417874560490e-01
5.876735638259722450e-02
3.375247652623388772e-01
6.583402017835552830e-03
-1.331323474287010311e-01
3.156439808778750411e-01
5.278057425669340219e-01
1.515750422954307841e-01
7.800397717458096292e-01
-1.958781541736304976e-01
3.840658089308836565e-01
-2.287144571550052755e-02
3.396652013736869286e-02
5.954027851123619430e-02
-3.073426949511189402e-02
4.961040778955600472e-01
-8.894798898631502745e-04
-2.498927893143611523e-01
4.801388998962749510e-01
1.512543945130474243e-01
1.760549071539504063e-03
-4.969990892790894788e-01
5.861527225824232357e-01
-2.938319517208960452e-01
-2.362061161562019618e-01
-7.092955655958653460e-02
-1.458451859735882894e-03
3.117836029526395714e-01
-3.435200317524960550e-03
1.930787333024321095e-01
1.494342997595597688e-01
2.424018303362543147e-01
4.699107057007907706e-02
-4.930841880849516912e-01
-1.055818038162081030e-01
3.560689831749253020e-01
1.553530138308740205e-01
-6.654085112790087721e-03
2.561324949315558260e-03
2.975599238059707941e-01
1.788156966651882618e-01
6.255096610567590330e-03
2.086331733850040060e-01
-2.704011063809719784e-01
8.106137079591459182e-02
1.860996861144152137e-01
-4.951497574377460541e-03
-1.538697017953407076e-01
-7.126810832976455956e-02
-6.297810436032931156e-04
7.037337537008138411e-02
4.121857753019499970e-01
-6.054420105369748110e-03
-4.753408841201389179e-01
2.901957363715914617e-01
-3.904103015807561770e-03
-5.868647237624158471e-03
6.125746443725100382e-02
-3.738001284999358798e-01
1.778111098255948652e-01
-3.799107151652422742e-02
1.410860995706441079e-01
6.360623943832381319e-03
-2.416693020822796301e-01
2.445624766852200205e-01
-9.064837546958041947e-02
2.086079688592651082e-01
1.410415399247739177e-01
4.801980435028218586e-01
-3.452765017974558041e-03
8.074401204959677503e-02
1.267198280493966600e-01
-1.071926332681292504e-01
2.721871412263926482e-01
1.403451405830577307e-02
3.343252367805444325e-01
3.966769076234149399e-03
5.224870837925684082e-03
5.844608507842206056e-03
1.261067327818145567e-01
1.206539463922563088e-03
3.843385552465167221e-02
-4.639872673554832488e-02
-3.908836548077881390e-01
1.264247046523527818e-01
1.836032205798307504e-01
-3.546313738439205773e-03
2.323586349069750312e-01
2.420820064415565021e-01
1.745886187102751730e-01
7.637263713660994921e-04
-1.203332511759530599e-01
-5.814503047234480108e-05
2.351185654857997631e-01
-1.856020836686655129e-01
-1.884896318019533938e-03
9.101804001042600456e-01
-1.474480023592012433e-02
1.355492049076540695e-01
-3.947730376934947653e-03
4.743722446995490838e-01
8.509350415879157747e-02
2.707912250583327518e-01
-9.908380394834617744e-03
-1.668512234122643267e-01
3.572038714066210763e-01
4.593148153600180028e-01
9.131158601133004815e-03
8.183565294316738070e-01
-1.286167004424374760e-01
3.690930534979289801e-01
1.889202391097894503e-03
-1.492726268688936153e-01
-1.039791497511743795e-01
-1.719839682549390708e-02
4.728341753027530125e-01
-2.748299468102756156e-04
-2.318169538270402064e-01
3.789328347733977309e-01
2.265031305426100927e-01
1.001664475860582692e-03
-3.532850741044758491e-01
5.160714462513296130e-01
2.471746449605696089e-02
-2.501917625279325708e-01
-5.255053524167514062e-02
2.120838492582220562e-03
2.688785118502282634e-01
-4.333978850655339186e-03
2.792908621737672514e-01
2.065055387503849371e-01
-5.091944292505756753e-02
3.260070515135985586e-02
-6.151715791551185530e-01
-1.703305899590876193e-01
2.413849588238255739e-01
1.637048269129197930e-01
-2.924079447271057865e-03
2.756503875385238889e-01
3.447751527698808549e-01
-8.985820919033449261e-02
1.193467439412213785e-03
2.930486114261733888e-01
-3.630669627779642972e-01
9.113031030600271185e-03
1.053716567054524544e-01
5.780687351037045417e-03
-9.098541948052386863e-02
-3.678695697745863746e-02
-1.208341579629898044e-03
1.400740736946634868e-01
4.074915587346035761e-01
-2.459709327166095864e-05
-4.753342956497996763e-01
4.453001426420778452e-01
-4.262354431498931520e-03
-2.195676978085097861e-03
9.068561667489870304e-02
-1.525126445395267039e-01
4.843654043297825340e-01
-3.290851954450194072e-02
1.914384880552626456e-01
2.153679462890420524e-04
-1.185116274575582218e-01
3.168112808777790446e-01
5.001316660868133923e-02
6.906225679181600408e-02
1.107124769337434339e-01
6.104603522892863010e-01
2.058992333541708082e-03
1.183025944278728592e-01
2.247268329310548457e-02
3.141698739267789406e-03
1.832474502744288747e-01
1.519812794758618468e-01
1.513180430414230726e-01
-5.138732788233381366e-03
3.208358705829910274e-03
-6.930269822882548746e-03
5.552838863875576847e-02
4.226776215504159107e-02
-1.190175211221102397e-01
-1.997678985204331958e-02
-4.891224605805921666e-01
-2.443779256427627139e-02
2.085148245752745794e-02
-3.645179792112450412e-03
2.986828934957768134e-01
-5.992962378098930232e-02
7.767641996172516827e-02
-3.797136316088954491e-03
-9.629664054097404613e-02
3.343753945528998937e-03
-4.399925770912432171e-02
1.213233265633454350e-01
-2.657635109653485282e-03
-1.380377829401059353e-01
3.128610000873237318e-02
-2.621401975149556529e-01
-4.635125140410901144e-03
2.157801840430727536e-01
2.234772736777030644e-01
5.324805224300786788e-02
-1.684458230449351335e-01
-3.620727623367516607e-02
3.328151621132420523e-02
1.201941894849468950e-01
7.803396496162551266e-02
1.293330415088274343e-01
-2.390725206117282897e-01
6.523944738399183041e-02
-1.570290994645796162e-02
1.577806625324790560e-02
9.889885423160045541e-02
9.708339378864803970e-02
-4.358218103958573231e-01
-8.879337878058597353e-03
3.556121799597867367e-02
-4.086981714918237474e-01
1.324381179995368918e-01
3.595474045607176435e-03
-4.234995216179113786e-01
7.271457854024413955e-03
-2.295747725070165779e-01
-3.189430241208652261e-01
1.347077872207027294e-01
4.411720949548151964e-03
-1.028711490650182671e-02
2.804625472477382132e-03
5.255580224934040118e-02
1.508027051101448190e-01
-3.220673453394832242e-01
-1.375205337167962893e-01
1.457295964034845646e-02
-4.971811552335213963e-02
-6.330977188732503369e-02
4.141771280728701043e-02
-2.168654723402993218e-03
-1.654739995629612714e-01
4.638779873139657617e-02
-1.249816519278565546e-01
2.789371515076336742e-03
-2.968775088385333660e-02
-3.020668637405614643e-01
1.077644317166081972e-01
-1.362287606832219000e-01
-2.185862364264637772e-03
-1.858643999031457938e-01
3.121241052002662886e-02
2.942301907933925990e-03
8.927780749692790230e-02
1.082347466500274552e-01
4.461315703347470962e-03
-3.695451092643816660e-01
-9.207012127689810643e-02
6.439567639732745284e-03
-1.064576670897517683e-03
1.157558701954582714e-01
-3.537637417948839152e-02
3.368523743189254516e-01
4.187358127302816257e-02
-2.694094720594900766e-02
-6.095440214702648601e-03
-2.903597519298461438e-01
-2.043730607087981821e-02
-3.989784672475192862e-01
-2.771255871676152338e-02
5.083208341906296501e-02
-2.384023251930668733e-02
-1.043287848417508287e-03
1.482414313847092158e-01
4.132181441500729080e-02
-3.943362026094404671e-01
-3.872318744099080834e-01
-2.935606047404571428e-01
2.039333802950114294e-01
2.314528210959191680e-03
3.491525881563070470e-03
-3.499364934932177717e-03
1.088618250229425738e-01
4.404083444960524285e-02
6.576520395291313159e-02
-1.460344607460634624e-02
-4.844049828206004604e-01
4.104696355066629609e-02
2.918050713160062481e-01
5.353834448399419615e-04
1.171727234510892418e-01
1.122870570388847106e-01
7.404030209985600075e-02
1.560423370205874221e-03
-4.809191697851029623e-01
3.208905463605029543e-03
1.505616935692613567e-01
-8.651237284014128004e-02
3.841607389511123363e-03
5.505054629566317193e-01
-1.149047477987445373e-02
-2.188133003542450106e-01
-2.640671323392245091e-03
5.759792527546916396e-01
1.334029752493296195e-01
2.862863362035507619e-01
-1.143332138265349684e-01
-1.511709729994123730e-01
1.379884812101453417e-01
4.638197635604622837e-01
1.166544870988823202e-01
8.227168543041853965e-01
-3.166280265707207553e-01
3.363877106164437358e-01
1.527175640938226719e-01
-9.700856719699918473e-02
9.309337117760783931e-02
4.896722460466308019e-02
-1.500792989790282299e-02
-7.571285324705798354e-03
-5.704634126539630951e-02
-6.322137098413951883e-02
2.298102522974878881e-01
3.405725297088039571e-03
-3.985223621672578376e-01
4.255700381459703308e-01
-2.750563278090932262e-01
-3.084399054864999101e-01
-2.383991407555176301e-02
-3.961953689551004666e-03
2.463539101132247167e-01
-3.220638285925423588e-03
1.008077208897752569e-01
2.568959251970581725e-01
-3.962397215821396590e-01
-1.102574125852024550e-01
-3.023286593568451641e-01
-1.534165296683190349e-01
-1.012654666308753296e-02
2.713724197314119901e-02
-5.519663723944062857e-03
-1.443277274879083416e-01
2.065908211372503300e-01
-3.469004918245821578e-01
-3.112755720345935281e-03
2.050111527039521764e-01
-2.620715115882042423e-01
2.789235119670156748e-02
1.237270069796277128e-01
2.501698135056667788e-03
-1.277765904045195522e-01
-2.299572888783100663e-02
-3.408731328332300931e-03
1.688777586809900588e-01
4.387587274861486919e-01
5.907798490695411082e-03
-2.819971972064029830e-01
3.464854592402742406e-01
6.202162617627890451e-03
2.945745763039482774e-03
8.079340255810757432e-02
-8.209233968907651835e-02
3.173418589071138607e-01
8.864623614963690335e-02
2.009940342857601536e-01
-1.167480676563975453e-03
-3.631685470937198179e-01
2.188425145980134323e-01
-1.301330895249142861e-01
2.680456093122118300e-01
7.964364017130427797e-02
5.118810681290771880e-01
4.437716678399610329e-03
1.183629572503440280e-01
5.870734847577734061e-02
-1.320842225983004936e-01
-1.845152111216869784e-01
-4.829068352462871638e-02
1.109345805270270935e-01
-5.505662816724802948e-03
3.075980026835257401e-03
5.582419313920491954e-03
3.632175301625969327e-02
9.416122707808789738e-03
-2.098463579604437426e-02
5.335744897112176810e-02
-2.727695318140853087e-01
8.589462903230064839e-02
2.892635216229125783e-01
1.722188631594546125e-03
3.220861890913208347e-02
9.244751459202509014e-02
1.459189683580448538e-01
-4.149114653322393334e-03
-3.829965670049933352e-02
3.268802310715039974e-03
1.619043466037008716e-01
-1.508050169154348530e-01
-3.852731956716138034e-03
3.330865873106805819e-01
-6.397731171014041721e-03
-1.072700482787729559e-01
-7.642173889993605874e-04
3.674711982850205061e-01
1.368693814940588616e-01
1.763690982542654717e-01
-1.352789605099731229e-01
6.189591004531514590e-02
9.964706643387084839e-02
4.081025975106646331e-01
1.938465884140400108e-02
6.484656839298992281e-01
-2.457941695699183415e-01
1.180208234478813539e-01
-1.675196762081060733e-02
5.010212452196539240e-02
1.088106296502092396e-01
5.370071533871842440e-02
1.441105149023722866e-02
-3.121238862844755851e-04
2.160552085060185590e-02
-2.519950404006202072e-01
1.055975823286340876e-01
-3.024504689074236814e-03
-3.610612173533310765e-01
3.985026440762345357e-01
-2.701891168504262919e-01
-1.174920842731424497e-01
5.046582673820005499e-02
1.759385612969313140e-03
1.730800150523780501e-01
2.674657289896050297e-03
4.912080715323542679e-02
1.707652736425435969e-01
-2.755242646267011888e-02
-9.813101272745423931e-02
1.701958122414252705e-01
1.732023504752286738e-02
4.189602253971113494e-02
-5.224940208369843915e-03
-6.473741775983556795e-03
-1.101180053926963942e-01
1.366369915336899665e-01
1.315787075167673681e-02
-1.091867659970859050e-04
9.173929789268438217e-02
-7.756094063109991721e-02
-3.009433039676373024e-03
-5.498039971183257130e-02
1.113706865527272147e-03
-1.156389049302164046e-01
-8.371571277017141044e-02
-4.768913572619341325e-03
8.893358774882725859e-02
3.423766784602552682e-01
2.157190465400212528e-03
-1.863054881904625468e-02
9.359785202937118131e-02
2.633979562164605933e-03
-5.244844437695930957e-03
2.188040225212487672e-02
-9.112952489887984897e-02
1.036327748876508248e-01
-2.773055018061643118e-02
1.377521895651344364e-01
-1.812556147187266388e-03
-2.967517288961267763e-01
9.087932321887004505e-02
-1.004385821110795746e-01
2.218528915759013231e-01
5.837006780177037002e-02
3.331868674181867052e-01
-2.386255435719381902e-03
6.032945557741561937e-02
1.158875385624798526e-01
-1.244168570775148613e-01
-2.578365926248375462e-01
-1.224589461930058153e-02
4.546126203113180948e-03
6.715639076968007732e-04
-2.389638451444784848e-04
-4.137734426223492815e-03
4.504665986713287523e-02
-6.697109913987460937e-03
9.316896775600362612e-02
1.639810021414538424e-02
-4.083542530454671582e-02
-1.093841734620615985e-01
1.520932569096664910e-01
-4.678308038112214719e-03
-2.452843627242400071e-01
1.776484140952345114e-03
1.502038422330867484e-02
-3.812216437900208064e-03
-2.651677546767994831e-01
-4.418232848028772440e-03
3.866400717580433660e-02
1.602137280515789769e-02
3.142585461786937071e-03
-1.422998016216266981e-01
-8.355441542229681204e-03
-2.277551237268164441e-01
-6.890463354158833653e-03
3.572727240168174223e-01
1.098861675701407886e-01
1.467584545803110874e-01
-1.003355432494116989e-01
1.317744174979338101e-01
-1.126852791318570246e-01
2.805947906532139657e-01
2.226080069719262866e-01
4.808416485006427599e-01
-2.544573309480834822e-01
7.249201650541989284e-02
7.388717968072584796e-02
2.454099277895040732e-01
2.652068132528731526e-01
5.200185295248284378e-02
-2.949189259043598632e-01
-7.978400961242184666e-04
1.020089166634769728e-01
-7.770228209743361425e-02
4.111035221206230800e-02
2.939277243632321904e-03
-2.745010920600607363e-01
2.885666831781768527e-01
-3.906453669044237520e-01
4.904811123304802373e-02
8.552941600063072858e-02
4.696553339272836942e-04
1.636779333966089656e-01
1.424461232561728252e-03
-1.872799696862832985e-01
5.290497796733763247e-02
-9.475278060550140768e-02
1.411593888688345184e-02
3.183581502558348597e-01
9.298266247002652529e-02
-1.000082908301177520e-01
-9.764206483775994538e-02
1.265912995314582114e-04
-3.024099407676776319e-01
-7.608982408443716594e-02
-2.869403553027989606e-02
-5.887035271540101700e-03
-6.595388321392504916e-02
1.307870943502093819e-01
1.025308445830683812e-01
2.494499851178443306e-01
-4.646631644298807040e-03
-1.010078511442127763e-01
-5.038844856219207996e-02
2.537152288210148222e-04
8.663711501723232733e-02
2.448216142907000403e-01
4.611511704086026890e-03
6.529437111990901710e-02
-2.114153307114609026e-01
4.144148815082991828e-03
-7.498029503609994657e-04
-4.436044787347486786e-03
-1.463303595765173548e-01
-3.121652509293124100e-01
-1.752571217632516165e-02
2.103081323382251233e-01
-1.398814265829339404e-03
-2.846299114457124246e-01
2.047819365368799271e-01
-1.864909096500935448e-01
1.995087157418986290e-01
9.272917127683219518e-02
4.020262886082716647e-01
5.733324705204201170e-04
-2.128319074260353813e-02
1.182385857297995474e-01
-1.419932045391925080e-01
-2.192182033672969155e-01
-3.176419905742396965e-01
1.824858614205336071e-01
-7.649132059730442707e-04
6.330679070329149269e-03
2.670046183568276494e-04
-2.176477594933186877e-01
-1.422078968469567967e-02
1.596283763832810620e-01
-8.754064327289645675e-02
3.649647286677699110e-01
-4.189267195947018324e-02
1.904742357812778397e-01
2.851002109695600743e-03
-5.999659068315712357e-02
2.355573888024498630e-01
1.541260140533297907e-01
-3.801521446814385384e-03
6.635017003040475370e-01
-1.906852282855602226e-04
1.627613159429142919e-01
-1.528635135001513157e-01
3.576347077589217289e-03
7.818579790052939682e-01
-3.701600468582472159e-02
7.081987172197687919e-01
1.313113257497942540e-03
3.090917850729696381e-02
-2.430160011663771158e-01
1.015890045259632418e-01
2.433618017004035572e-01
-2.951615475935764343e-01
4.275044733678845521e-01
3.102027260800336791e-02
-4.882558370715075480e-01
4.142825369128937396e-01
-4.284973437897048043e-02
6.485724744719897905e-02
-9.307019296824101118e-02
-5.340270823841151149e-01
6.892774518073545298e-02
-5.242284875418085077e-02
9.624708486521322826e-01
4.191107200128485304e-03
-3.468355119681507115e-01
1.020933639785028380e+00
-2.556705603532540005e-02
-1.424500394810197378e-04
-1.147725560297550296e-01
1.769650659879211385e-01
-1.348088159250090436e-02
3.566593414728917999e-01
-1.401769141333116531e-01
-3.692612603568113955e-03
7.228857359524261395e-02
5.513380442341785613e-03
1.325707348018426435e-01
-1.085243468001792222e-01
7.069511052191598255e-01
3.067865373873502333e-01
-3.492388781144929455e-01
-2.219144145448492533e-01
3.190415322354990257e-01
1.222983718723492097e-01
-3.594447334333339839e-03
4.683849648555434841e-01
1.193459788666832028e-01
4.051516203803149918e-01
1.829822275119261186e-03
1.117326616156736341e-01
2.874246674883539909e-01
-1.656003538019367449e-01
-3.549827758455192939e-02
-2.603707554630941244e-03
1.105477563682465691e-01
-1.500456132307768399e-02
2.289919741421867112e-03
3.038828689247085463e-02
5.212016405343908310e-02
3.743766049215365224e-03
2.040095911933562794e-02
2.266347392888631851e-01
2.530242678356398218e-03
-1.690205558895355306e-03
-2.695415204960601163e-01
-2.274471326754794742e-01
4.454909141783647969e-02
-7.799772114726699623e-02
2.228001572168959166e-01
-3.378549840647016630e-03
7.591241800811479590e-02
3.746216123653359209e-01
4.779328025238208100e-01
-4.736383044802559561e-01
-1.980028544318888639e-01
5.829275668640765407e-01
-2.726969721011066050e-03
-2.618291424637792519e-01
2.123302899745550809e-02
4.831376771656140656e-01
7.263302819613568495e-01
5.514898033182402681e-01
-6.441229313320560868e-02
-5.889750921234635471e-03
-5.736721716379802015e-03
6.492675958833034507e-03
1.171395720127811763e-01
-1.497150654596967820e-03
1.339704444754287183e-01
-2.337079027481648794e-02
-3.076405766280433940e-01
-3.073327183176808447e-02
1.037995084406279633e-01
-1.351128728684255782e-03
-2.088968586312620335e-01
1.419797694678940903e-01
5.223019421138671431e-02
3.689703375693830986e-03
1.247802774989956176e-01
-2.393409682855551605e-03
1.911020851484988847e-01
-3.899767383213295635e-02
-6.566662452892731150e-03
1.570075706889724476e-01
-2.396566446138463299e-02
4.037244482880507357e-02
-6.328616064488964965e-03
4.852144944033102703e-01
-9.038350260585567564e-02
3.546118902596177014e-01
7.068262878826164775e-02
-7.016333956849807318e-02
7.652367130222237357e-02
2.980887895198363058e-01
3.467205929280249843e-01
3.724267975852583734e-01
-2.109892124524833101e-01
3.993433781770944768e-01
1.350466102773553168e-01
1.726119600144769284e-01
5.784945122643083554e-02
-3.849865916667422061e-02
8.288931895951343054e-02
-1.214594605355578212e-03
-2.038281813936218545e-01
1.402505389245323475e-01
8.844236718893937199e-02
6.841812356587056825e-03
-3.676063640306547198e-01
3.980571368480158578e-01
-3.360883228168893844e-01
-1.584976096892720121e-01
-7.076493547866691269e-02
-5.221591330614842614e-04
2.132907483144542427e-01
2.289609501341400861e-03
2.467660093551128295e-02
5.004921282003906707e-02
9.358472253330969715e-02
1.559597099117804864e-01
-3.362176424100116190e-01
-4.685830287150839768e-02
1.214558567030249031e-01
1.425463204372908466e-01
-4.633183407846165613e-03
-2.177818510124746310e-01
9.447935372598273429e-02
6.407883489041568681e-02
2.804840560160165065e-03
6.737589360344604927e-02
-1.407377017844606282e-01
1.491726730609971296e-01
3.199851413824555957e-01
-5.905895349462699645e-03
-1.045000701986680408e-01
-6.749255185239535527e-03
2.612789708048026804e-03
6.197375928046597315e-02
2.259540675832256151e-01
6.406222018902256975e-03
-3.302802246089873162e-01
5.145621514502280586e-02
-1.289641968645885298e-03
-4.808813543085660967e-03
8.574406266445364078e-02
-4.093324806320283171e-01
-1.573374120410615806e-01
-3.118297613659754344e-02
1.028824445885359040e-01
-1.936568886453603720e-03
-2.543392532785028748e-01
2.319561348590547523e-01
-1.660175770480485091e-01
3.071713327807863436e-01
2.776516879882041100e-01
3.523876668813348823e-01
4.860107273229893367e-03
3.885752749331468359e-02
6.623150351389872625e-02
-1.620078250319538227e-01
4.140760129887043062e-02
-1.455881571912186478e-01
4.418634805292285805e-01
-3.058077299274102219e-03
3.836643899025597281e-03
6.815037003510666068e-03
5.570375280783279592e-02
-1.823066243408036358e-02
-7.694112002934533345e-02
5.034112920665714808e-02
-3.833244030938934288e-01
2.158424919156890498e-01
-1.486939009128385170e-01
-2.130281180443428356e-03
-4.760162540579272045e-02
5.976898179842408260e-02
1.257562894901054773e-01
4.544042592017574593e-03
-6.039406716969231148e-01
-5.664738323856088539e-03
8.694665569620407819e-02
6.315088974724356041e-02
-3.775357055195985821e-03
7.784353680696508293e-02
1.282583248340185555e-01
-8.176797003182602330e-02
-5.878963234692743609e-03
2.948137715647987656e-01
-3.216060850232863033e-01
3.605488063723013559e-01
1.210774519378405162e-01
-1.459670784589773250e-02
-1.128045014912632954e-01
1.244033377683110286e-01
2.300189756033070576e-01
9.342139801322528470e-02
7.600709078886613845e-02
2.438755165771803457e-01
9.221346887505924017e-02
7.835983544068027273e-02
-3.917785794063134430e-01
-9.048864293083745680e-02
-3.007204395342103279e-02
-4.688899586333977743e-03
-2.000189483487481157e-01
-3.376148826639151501e-01
5.958888960645576660e-02
4.081064100325959912e-03
-8.404569081205665038e-02
2.679273987300105908e-01
2.944746563138979645e-01
-3.285519109713295194e-01
-1.432972275073897961e-01
3.983591158657285962e-03
1.708341466685580068e-01
9.803831758778483452e-04
1.554523029205293894e-01
1.400317573198123777e-01
-5.097885422100747466e-01
1.203840329313177054e-01
-4.142111742461764834e-01
-1.233327057386562897e-02
-6.295385373135092832e-02
1.758205833871184509e-01
4.333482059730400793e-03
9.400364120395009182e-02
1.543064223707393268e-01
-3.895798113885516334e-01
3.205414528322200404e-03
1.277121573533347709e-01
-4.775699489321346136e-01
-1.979397001409821406e-03
2.596505750585582084e-01
-2.125295619100472846e-03
3.387063594160231311e-02
-9.491693330779947535e-03
6.324610377252517027e-03
1.004561846383221768e-01
1.290170924377339046e-01
-4.266986705582814787e-03
-2.380825744571904434e-01
1.744817910099967506e-01
-2.045495808445203182e-04
5.216530390769955061e-04
6.523324078530905179e-02
1.060269188871027224e-01
1.061756223037430141e-01
-8.413717273131997298e-03
-6.268752425070542311e-02
-5.827446769760080778e-04
7.674729333289040389e-02
5.222697204464144677e-02
1.000558759535860320e-01
3.461645190162833119e-01
3.408029824659140061e-01
5.901782161980892449e-02
9.637823337936176878e-04
6.374826940370208195e-02
-1.421833444613013198e-01
1.225143950228283346e-01
-9.122572328670870700e-02
2.001359211777507530e-01
-4.614382197622471371e-02
-4.890295426770772599e-03
7.524871125229776235e-04
-4.429645169552626563e-03
5.613076842002938383e-02
-2.455315117954556293e-03
-2.253750179556780406e-02
-2.323293279993684027e-02
-2.037955876471103933e-01
6.792953100261579780e-02
4.250758388289921363e-02
9.331393997687361655e-04
1.173257156599261386e-01
8.376102407363802960e-02
7.497601639552309294e-02
-1.866548146216708655e-03
-2.223018712291841836e-01
7.482618315855710852e-04
8.201972858342251871e-02
-4.100079792482774765e-02
-4.365672517395756576e-03
3.638919361964553789e-01
5.076527687581872464e-03
-5.352088753441865826e-03
4.887164897724755042e-03
2.345406643809132552e-01
4.970274717967232544e-04
1.383739396300661950e-01
-5.121822756902190410e-02
-5.344282958217955182e-02
1.278704074240313016e-01
1.691260578909672962e-01
-5.442054461676989162e-03
3.016004668278586820e-01
-1.080099809007708522e-01
1.683165260477741676e-01
-1.358269831314071543e-02
-6.802233698820173147e-02
-8.116212460374538917e-02
-1.448403493302188351e-02
2.032735796366349698e-02
-3.806683844353512831e-03
-9.128112411788216751e-02
-1.398609026730405006e-02
1.077619744506548988e-01
3.617002642228342793e-03
-1.877506162929581390e-01
2.081407982830779380e-01
-2.427558446754729191e-02
-1.355962662519532569e-01
5.582737543065152686e-03
3.647509935637836473e-03
9.553785080586421619e-02
4.374071336425702609e-03
1.279368800721768229e-01
9.483848625676807864e-02
-1.584988549645858502e-01
-3.237886469854750482e-02
-2.202895971335251668e-01
-5.988439834076841189e-02
1.386372920725247038e-02
8.386677853912827274e-02
2.790557555585199619e-05
9.580710278578287442e-02
1.385212161266521913e-01
-1.214428224710190907e-01
-7.684089423259171051e-04
1.335009158849768396e-01
-1.698987516119021268e-01
-7.989644191237242144e-04
3.921736883669181550e-02
-3.543110049490569118e-03
-5.116606722907603849e-02
-1.321826956059194823e-03
-5.383040965864917086e-03
7.901258444644117251e-02
1.568881093074331878e-01
-4.406309042830252112e-03
-2.148073630888214236e-01
2.056701734015941863e-01
-1.470875095912322099e-03
3.382662220139324126e-03
4.168019763082429080e-02
-2.593416570530214862e-02
2.398460777409617273e-01
-2.480447000807594823e-02
7.137040066918616532e-02
5.877237797104158286e-03
-1.061095585653459433e-01
1.380727540206590498e-01
-3.473751965132193965e-03
1.427717885401241955e-02
7.220981516742350226e-02
2.732779959499422873e-01
-3.633827164035506162e-03
5.850031890843696708e-02
-2.840213694134084352e-02
-5.254226270661322556e-02
-3.398412403344370364e-02
7.291102150761186174e-02
5.678259593670974964e-02
1.372650893100446027e-03
2.057557384860179972e-03
-2.749650827556766354e-03
9.503256777733871952e-02
7.008459879715192575e-02
-9.565361677675326968e-02
2.078882373408093634e-02
-9.971960314183184737e-01
-2.326751427473727069e-02
2.730696460577530099e-02
-6.487898143656329643e-03
1.224346072303490601e-01
-9.412679150103701875e-02
-6.902286230158401203e-02
6.472265840770576040e-03
-6.424344163493805882e-01
-2.101927279730661773e-03
-2.336671942546158023e-02
2.534149194749673040e-01
-3.218602209773876316e-03
-5.978615607123387576e-01
4.016338377185316860e-02
-4.875038540542585563e-01
-4.698345089097387926e-03
2.024329247308922219e-01
1.587089420434422971e-01
4.115742251103259725e-02
-4.449610785422060677e-01
-4.223347903724589125e-02
-2.549168598570882294e-01
1.433215000278997286e-01
2.519929357405434889e-01
1.498269696843062548e-01
-2.030982136426721929e-01
9.647083140774284638e-02
-2.339384877680199953e-02
3.667285528835005914e-01
1.088932494153395103e-01
9.720710836353635420e-02
-6.578717656264393421e-01
-1.640114583107264322e-03
1.306917412189232963e-01
-9.301960145620484788e-01
1.483517100146825862e-01
-6.999014169826475382e-03
-4.382042382958061810e-01
2.832931956413947336e-02
-4.636816827702178179e-01
-7.099379162554411149e-01
1.514165183518096369e-01
5.307429933415119296e-03
-8.904491975519422675e-03
-2.588429112306168435e-03
4.963486974932473754e-03
2.077910441973605804e-01
-8.036496281118887808e-01
-5.081574062024764027e-01
1.038975971177447943e-01
-1.465140942200471134e-02
-1.705891538844552802e-01
5.700912112843777718e-02
2.950187783243516434e-03
-5.336418868134586990e-01
5.893708658276916590e-02
-4.690671793656902011e-01
-2.707526267744782538e-03
-1.151396476576844602e-01
-5.701348033962266859e-01
2.264448626168487355e-01
-1.364324623973918738e-01
1.555508725456417104e-06
-1.735266032701620054e-01
5.804485780530137945e-02
2.806488490360295115e-03
1.003319784688345845e-01
1.696242308478479732e-01
3.639479216062699134e-03
-3.273471359215130438e-01
-2.613443206933004359e-01
5.410989683051692194e-03
-1.749466922889407992e-03
1.002177301027574186e-01
-3.290258783138243215e-02
9.153448231975840066e-02
1.108248293174090710e-01
-1.421703310191712866e-01
1.058729839307747658e-03
-4.666396732522729018e-01
-1.115671362123677873e-01
-5.518249230515284154e-01
1.921230317362797591e-01
2.889214231720957024e-02
-1.912795893565328587e-01
3.344613118606886652e-03
1.501789642958163140e-01
6.831332413875275400e-02
-6.511742339795152379e-01
-6.763965580651890575e-01
-3.859467986942420326e-01
4.163445753056566612e-01
-2.773744916722238781e-03
5.720782181553900163e-03
4.197498750952730583e-03
7.720420780531477012e-02
1.672062990429220609e-03
4.253712125487873336e-02
-1.676186523035669632e-02
-1.787223368865308859e-01
-1.042881661081163092e-02
6.870307753148632846e-02
2.527557450542177071e-03
-3.839055823134000095e-02
5.050500537399675582e-02
5.327845742663454842e-02
-3.427642658704550382e-03
-1.037685482329618603e-01
-1.862089125177328287e-03
8.611161736778179254e-02
-2.798329287000670546e-02
-2.899937628448195936e-04
1.859560575813003214e-01
-1.084074818401684244e-02
-7.139707768920409980e-02
-2.515486968633307615e-03
2.892517175050127176e-01
-7.688149545234852951e-03
1.962939294615891339e-01
-6.669126713598405587e-02
-2.252844035998949682e-02
2.730735016464745299e-02
1.999439611009436457e-01
1.350744531970450024e-01
3.122499174462520788e-01
-1.426958483119862287e-01
1.977194754672080557e-01
7.710286049478692894e-02
4.367118376420083686e-02
1.941064477321359505e-02
1.521700941920302308e-02
-2.243832155434276419e-03
9.105783946126690337e-05
-7.207251777477176324e-02
-8.227703874731685796e-02
8.314773601028729866e-02
-4.420356372159617644e-03
-1.990503882167644345e-01
2.481009201742502834e-01
-1.248673538398187566e-01
-1.041222755258906091e-01
-1.171511398202525721e-02
-1.085058241233056173e-03
1.116401721613839576e-01
1.479208425004081492e-03
3.175308926333755832e-02
7.563296195546030665e-02
-1.111398660825106688e-01
3.115803819562865812e-04
-5.741704017907318242e-02
-3.041044496102560460e-02
-1.917570516606503100e-02
4.392298520151816099e-02
1.551701181330255013e-03
-9.204051076679017895e-02
6.478857032874095478e-02
-7.907311116586354660e-02
-1.941325295308883505e-03
7.679549799687176992e-02
-8.079821445535206870e-02
4.639190030921735292e-02
1.417641054703520087e-01
-1.524826952524381161e-03
-5.448800845417732519e-02
-1.591704843939263647e-02
4.264997562603753054e-03
6.308820949271140566e-02
1.767734961355962309e-01
-4.477845626704579987e-03
-7.557316860795984526e-02
1.058868861964088887e-01
-3.573583933927959675e-03
-6.950642787376047865e-05
4.747465837386329740e-02
-9.823536819686930210e-02
4.495245069237804175e-02
-6.276835719321287137e-03
9.549032201476941040e-02
5.700613701378099037e-03
-1.502823051378993358e-01
1.316235895011512169e-01
-6.204496791972294312e-02
2.026773227104773367e-01
1.393176158535912035e-01
2.616914623291048958e-01
-1.083281246841339860e-03
3.998562556692621117e-02
2.264895836493562020e-02
-7.153070545199233243e-02
-9.273061160618804866e-02
-3.618740721990008902e-02
1.308881064501804248e-01
-1.045500492654605250e-03
-1.951180291475439329e-03
5.840204414729975070e-03
1.011281684250940616e-01
-8.188891033434636958e-05
-1.869261485119160515e-01
8.993551837571221383e-03
-2.977810370877737034e-01
-4.102960058199976723e-02
8.031456588592771062e-02
-6.154926853171917463e-03
1.394974010375796547e-01
-5.578935875114524046e-02
9.310972859826663339e-02
6.123820753101734925e-03
-3.444286778711124208e-01
3.239560764962339402e-03
1.895966970341001791e-03
6.206008143929978016e-02
4.094121471001067186e-03
-5.229907625150236328e-01
8.166637912560587020e-02
-1.028064553808543946e-01
-3.512476691452787875e-03
1.297941428245232010e-01
1.529750347312006653e-01
-4.150596001630231513e-02
